<?xml version="1.0"?>
<opencv_storage>
<opencv_ml_svm>
  <format>3</format>
  <svmType>C_SVC</svmType>
  <kernel>
    <type>SIGMOID</type>
    <gamma>1.5000000000000001e-04</gamma>
    <coef0>1.0000000000000001e-01</coef0></kernel>
  <C>2.5000000000000000e+00</C>
  <term_criteria><epsilon>1.1920928955078125e-07</epsilon>
    <iterations>1000</iterations></term_criteria>
  <var_count>24</var_count>
  <class_count>2</class_count>
  <class_labels type_id="opencv-matrix">
    <rows>2</rows>
    <cols>1</cols>
    <dt>i</dt>
    <data>
      0 1</data></class_labels>
  <sv_total>1998</sv_total>
  <support_vectors>
    <_>
      1.06378002e-02 5.12544019e-03 4.05293989e+00 9.84018981e-01
      8.07131004e+00 5.35587013e-01 8.02155957e-03 4.18124022e-03
      6.50722980e+00 9.72828984e-01 8.36439991e+00 4.80607986e-01
      1.05557004e-02 5.15303994e-03 4.53120995e+00 9.82594013e-01
      8.06599045e+00 5.33429027e-01 8.73833988e-03 4.33566980e-03
      6.30113983e+00 9.74247992e-01 8.32812023e+00 5.07827997e-01</_>
    <_>
      1.55114997e-02 8.60114023e-03 1.37417996e+00 9.94562984e-01
      7.23159981e+00 6.23036027e-01 1.23720001e-02 7.00780982e-03
      1.91334999e+00 9.92379010e-01 7.49868011e+00 5.82197011e-01
      1.49226999e-02 9.04428028e-03 1.25606000e+00 9.94773984e-01
      7.10723019e+00 5.99777997e-01 1.35214999e-02 7.02378014e-03
      2.01131010e+00 9.91555989e-01 7.52128983e+00 5.87553024e-01</_>
    <_>
      1.40436999e-02 8.08640011e-03 1.54691005e+00 9.93722975e-01
      7.32959986e+00 6.13838017e-01 1.20361997e-02 6.59557991e-03
      2.03743005e+00 9.92094994e-01 7.59220982e+00 5.84715009e-01
      1.43966004e-02 8.72740988e-03 1.29507005e+00 9.94674027e-01
      7.16871977e+00 6.03887975e-01 1.29771000e-02 6.59896992e-03
      2.26050997e+00 9.91208017e-01 7.63156986e+00 5.81766009e-01</_>
    <_>
      1.31762996e-02 7.31451996e-03 2.27463007e+00 9.91118014e-01
      7.53906012e+00 5.98257005e-01 1.23578003e-02 6.10123016e-03
      2.78486991e+00 9.89260018e-01 7.75411987e+00 5.45113027e-01
      1.34420004e-02 8.25722981e-03 1.37738001e+00 9.94620025e-01
      7.27159977e+00 6.32390022e-01 1.20037999e-02 5.90957003e-03
      3.29697990e+00 9.86352980e-01 7.83135986e+00 5.42276978e-01</_>
    <_>
      1.37815000e-02 7.51772011e-03 1.87597001e+00 9.92832005e-01
      7.46503019e+00 5.92619002e-01 1.17635997e-02 6.32362999e-03
      2.44886994e+00 9.89983976e-01 7.68448019e+00 5.60317993e-01
      1.40736001e-02 8.28540977e-03 1.44580996e+00 9.94220972e-01
      7.25291014e+00 6.18431985e-01 1.28282998e-02 6.22412981e-03
      2.84489989e+00 9.88390028e-01 7.73979998e+00 5.53597987e-01</_>
    <_>
      1.38827004e-02 8.39059986e-03 1.33959997e+00 9.94834006e-01
      7.26503992e+00 6.32345974e-01 1.21290004e-02 7.00281980e-03
      2.00357008e+00 9.92025018e-01 7.53099012e+00 5.73732972e-01
      1.43726999e-02 8.77405982e-03 1.33717000e+00 9.94477987e-01
      7.16262007e+00 6.13681018e-01 1.40047995e-02 6.94198022e-03
      2.26877999e+00 9.90558028e-01 7.55914021e+00 5.75300992e-01</_>
    <_>
      1.38662001e-02 7.52665987e-03 2.12691998e+00 9.91768003e-01
      7.47490978e+00 6.01804018e-01 1.17784003e-02 6.21797005e-03
      2.75874996e+00 9.88883018e-01 7.72145987e+00 5.58542013e-01
      1.47789000e-02 8.36395007e-03 1.51117003e+00 9.94038999e-01
      7.26884985e+00 5.99188983e-01 1.29682999e-02 6.40176982e-03
      3.00808001e+00 9.88002002e-01 7.74269009e+00 5.37806988e-01</_>
    <_>
      1.36265997e-02 8.02056026e-03 1.50054002e+00 9.94256973e-01
      7.29483986e+00 6.23880982e-01 1.16568003e-02 6.67743990e-03
      1.93493998e+00 9.92484987e-01 7.54158020e+00 5.82472980e-01
      1.39571996e-02 9.12623014e-03 1.10204995e+00 9.95595992e-01
      7.06954002e+00 6.28931999e-01 1.21799996e-02 6.89106993e-03
      2.04470992e+00 9.91571009e-01 7.53503990e+00 5.77473998e-01</_>
    <_>
      1.51867997e-02 8.57693981e-03 1.24978995e+00 9.95205998e-01
      7.18624020e+00 6.17808998e-01 1.18471999e-02 7.11015984e-03
      1.57181001e+00 9.93507028e-01 7.41203022e+00 6.01014972e-01
      1.47708999e-02 9.23555996e-03 1.06769001e+00 9.95562017e-01
      7.05450010e+00 6.39017999e-01 1.25941997e-02 7.02816015e-03
      1.82377994e+00 9.92393970e-01 7.50470018e+00 5.84743977e-01</_>
    <_>
      1.47687998e-02 8.04565009e-03 1.35655999e+00 9.94585991e-01
      7.28023005e+00 6.04655027e-01 1.18647004e-02 6.97138021e-03
      1.67470002e+00 9.93444026e-01 7.48331022e+00 6.02721989e-01
      1.41741000e-02 8.90106987e-03 1.19699001e+00 9.95212018e-01
      7.12791014e+00 6.15199983e-01 1.18664997e-02 6.91145007e-03
      1.98151004e+00 9.92173016e-01 7.52681017e+00 5.88352025e-01</_>
    <_>
      1.35875000e-02 7.83727039e-03 1.41837001e+00 9.94526982e-01
      7.33364010e+00 6.23197019e-01 1.16247004e-02 6.78825006e-03
      1.83501995e+00 9.92588997e-01 7.52860022e+00 5.83543003e-01
      1.41025996e-02 8.86362046e-03 1.17848003e+00 9.95602012e-01
      7.14322996e+00 6.29031003e-01 1.26091996e-02 6.80739991e-03
      2.18590999e+00 9.91127014e-01 7.58196020e+00 5.82140028e-01</_>
    <_>
      1.42251002e-02 7.45208981e-03 1.63528001e+00 9.93601024e-01
      7.40658998e+00 5.88801026e-01 1.13166999e-02 6.36699004e-03
      1.96537995e+00 9.92339015e-01 7.61138010e+00 5.78933001e-01
      1.49464998e-02 8.84521008e-03 1.20113003e+00 9.95236993e-01
      7.14648008e+00 6.24441028e-01 1.24134999e-02 6.70658983e-03
      2.24485993e+00 9.91298020e-01 7.59957981e+00 5.79802990e-01</_>
    <_>
      1.24415001e-02 7.10726995e-03 1.69594002e+00 9.93507028e-01
      7.47221994e+00 6.04309976e-01 1.17165996e-02 6.32065022e-03
      2.16876006e+00 9.91598010e-01 7.62914991e+00 5.56039989e-01
      1.37518002e-02 8.81959964e-03 1.15629005e+00 9.95558977e-01
      7.13712978e+00 6.37521029e-01 1.17165996e-02 6.45613018e-03
      2.45584011e+00 9.90418971e-01 7.66919994e+00 5.62313020e-01</_>
    <_>
      1.34055000e-02 7.22463988e-03 1.61345005e+00 9.93515015e-01
      7.43956995e+00 5.98887980e-01 1.15854004e-02 6.66709989e-03
      2.06100988e+00 9.91756976e-01 7.55908012e+00 5.68751991e-01
      1.50576998e-02 8.94827023e-03 1.27014995e+00 9.95338023e-01
      7.14406013e+00 6.19476020e-01 1.19623002e-02 6.61162985e-03
      2.38410997e+00 9.90278006e-01 7.63992023e+00 5.64545989e-01</_>
    <_>
      1.37574999e-02 7.49721006e-03 1.61098003e+00 9.94162023e-01
      7.38812017e+00 6.01800025e-01 1.14107998e-02 6.59486977e-03
      2.08938003e+00 9.91970003e-01 7.57572985e+00 5.60680985e-01
      1.49923004e-02 8.92040972e-03 1.14814997e+00 9.95514989e-01
      7.10751009e+00 6.32508993e-01 1.29163004e-02 6.79000001e-03
      2.28018999e+00 9.90858972e-01 7.58355999e+00 5.61371982e-01</_>
    <_>
      1.27800005e-02 7.15469988e-03 1.73090994e+00 9.93413985e-01
      7.47396994e+00 6.11575007e-01 1.21940002e-02 6.47500996e-03
      2.28576994e+00 9.91419017e-01 7.63580990e+00 5.69450021e-01
      1.39699001e-02 8.58095009e-03 1.17236996e+00 9.95325029e-01
      7.16438007e+00 6.20450020e-01 1.25000002e-02 6.56623021e-03
      2.44180989e+00 9.90508974e-01 7.64505005e+00 5.66152990e-01</_>
    <_>
      1.32790003e-02 7.15098018e-03 1.62693000e+00 9.93744016e-01
      7.45056009e+00 5.99566996e-01 1.18541997e-02 6.35540998e-03
      2.09059000e+00 9.92193997e-01 7.61686993e+00 5.73921025e-01
      1.42956004e-02 8.92619044e-03 1.15351999e+00 9.95360017e-01
      7.11781979e+00 6.17326021e-01 1.15320003e-02 6.48515997e-03
      2.10839009e+00 9.91603017e-01 7.61701012e+00 5.85485995e-01</_>
    <_>
      1.38643999e-02 7.79693993e-03 1.37302005e+00 9.94803011e-01
      7.32771015e+00 6.32389009e-01 1.20563004e-02 6.73183985e-03
      1.95042002e+00 9.92573977e-01 7.55822992e+00 5.78624010e-01
      1.37296999e-02 8.61318037e-03 1.23777997e+00 9.94948030e-01
      7.16857004e+00 6.37381971e-01 1.25099001e-02 6.60842983e-03
      2.20994997e+00 9.90899980e-01 7.60228014e+00 5.79879999e-01</_>
    <_>
      1.89117994e-02 9.54625010e-03 2.32119989e+00 9.84754026e-01
      7.17611980e+00 5.97633004e-01 1.38049005e-02 7.76861003e-03
      3.30184007e+00 9.78280008e-01 7.44078016e+00 5.86201012e-01
      1.70150008e-02 1.02626001e-02 1.99678004e+00 9.87788975e-01
      7.01623011e+00 6.13256991e-01 1.46869998e-02 8.26087035e-03
      2.94532990e+00 9.81755018e-01 7.36509991e+00 5.85511029e-01</_>
    <_>
      1.69887003e-02 9.96536016e-03 1.95009995e+00 9.86284018e-01
      7.07398987e+00 6.26659989e-01 1.45504996e-02 8.12564977e-03
      2.87465000e+00 9.80417013e-01 7.34762001e+00 5.81340015e-01
      1.75675992e-02 1.05523998e-02 1.51750004e+00 9.90305007e-01
      6.93440008e+00 6.27813995e-01 1.45092001e-02 8.59715976e-03
      2.32961988e+00 9.84493017e-01 7.26214981e+00 6.03990972e-01</_>
    <_>
      1.58274993e-02 8.60744994e-03 2.07090998e+00 9.89319980e-01
      7.29300022e+00 6.16903007e-01 1.41621996e-02 7.86870997e-03
      2.96325994e+00 9.85891998e-01 7.43931007e+00 5.77540994e-01
      1.63241997e-02 1.00769000e-02 1.50803006e+00 9.93427992e-01
      7.00290012e+00 6.31550014e-01 1.42952995e-02 7.88433012e-03
      2.72828007e+00 9.87407982e-01 7.43036985e+00 5.85602999e-01</_>
    <_>
      1.33437999e-02 7.68424990e-03 2.01303005e+00 9.91994977e-01
      7.40751982e+00 6.47059977e-01 1.32192997e-02 7.38567021e-03
      3.29175997e+00 9.87276018e-01 7.53802013e+00 5.70842028e-01
      1.47126997e-02 9.15622991e-03 1.81595004e+00 9.93611991e-01
      7.15156984e+00 6.07572973e-01 1.26133999e-02 7.32656987e-03
      2.97901011e+00 9.89072025e-01 7.52526999e+00 5.68175018e-01</_>
    <_>
      1.56055996e-02 8.27783998e-03 2.35619998e+00 9.86166000e-01
      7.35002995e+00 6.07010007e-01 1.41888000e-02 7.52699003e-03
      3.46856999e+00 9.82021987e-01 7.50926018e+00 5.60633004e-01
      1.58332996e-02 9.67723038e-03 1.83791006e+00 9.90718007e-01
      7.07323980e+00 6.05298996e-01 1.37609998e-02 7.75827002e-03
      3.13386989e+00 9.82801974e-01 7.44821978e+00 5.86283982e-01</_>
    <_>
      1.30150998e-02 7.40943011e-03 1.98992002e+00 9.92344022e-01
      7.45482016e+00 6.30792975e-01 1.26174996e-02 7.28398981e-03
      2.97689009e+00 9.87581015e-01 7.54478979e+00 5.82349002e-01
      1.43178999e-02 8.91465973e-03 1.65929997e+00 9.94350016e-01
      7.18062019e+00 6.12811983e-01 1.20603004e-02 7.07148015e-03
      2.82286000e+00 9.89233971e-01 7.57472992e+00 5.66178024e-01</_>
    <_>
      1.76148005e-02 9.03423969e-03 2.37821007e+00 9.85541999e-01
      7.26517010e+00 6.04304016e-01 1.47821000e-02 7.99928978e-03
      2.91090012e+00 9.81438994e-01 7.40459013e+00 5.76928020e-01
      1.64365992e-02 9.65841021e-03 1.75266004e+00 9.88914013e-01
      7.06344986e+00 5.98179996e-01 1.42978001e-02 7.72927981e-03
      3.25328994e+00 9.78991985e-01 7.45019007e+00 5.53502977e-01</_>
    <_>
      1.50816999e-02 8.09026975e-03 2.35855007e+00 9.87266004e-01
      7.36639977e+00 5.98923028e-01 1.31347002e-02 7.43455999e-03
      3.32088995e+00 9.82020974e-01 7.51249981e+00 5.65370023e-01
      1.54283997e-02 9.29122046e-03 1.84578001e+00 9.91222024e-01
      7.14264011e+00 5.99725008e-01 1.36000002e-02 7.14456988e-03
      3.20047998e+00 9.83700991e-01 7.55550003e+00 5.72102010e-01</_>
    <_>
      1.72134005e-02 9.64647997e-03 1.30578995e+00 9.92561996e-01
      7.02325010e+00 6.48954988e-01 1.42767001e-02 8.14970024e-03
      2.52610993e+00 9.86196995e-01 7.32449007e+00 5.92601001e-01
      1.70652997e-02 1.04962997e-02 1.63276005e+00 9.91719007e-01
      6.93909979e+00 6.52723014e-01 1.42034004e-02 8.71796999e-03
      1.90757000e+00 9.90060985e-01 7.17800999e+00 6.21658981e-01</_>
    <_>
      1.67720001e-02 9.50761046e-03 1.28744996e+00 9.94215012e-01
      7.07170010e+00 6.56311989e-01 1.38934003e-02 8.10762029e-03
      2.34912992e+00 9.89485979e-01 7.34074020e+00 5.93894005e-01
      1.74752995e-02 1.03781996e-02 1.59730995e+00 9.93952990e-01
      6.97294998e+00 6.30023003e-01 1.42921004e-02 8.36716965e-03
      1.87725997e+00 9.92285013e-01 7.24880981e+00 6.03591025e-01</_>
    <_>
      1.49632003e-02 8.02126992e-03 1.72035003e+00 9.90728974e-01
      7.30738020e+00 6.00404024e-01 1.44686997e-02 7.52652017e-03
      2.52448010e+00 9.87977982e-01 7.45863008e+00 5.87369025e-01
      1.65793002e-02 9.61264037e-03 1.58453000e+00 9.92914021e-01
      7.08092022e+00 6.40330970e-01 1.35883996e-02 7.41916010e-03
      2.63684011e+00 9.87417996e-01 7.47122002e+00 5.78616023e-01</_>
    <_>
      1.73729006e-02 9.65423044e-03 1.93787003e+00 9.87064004e-01
      7.11806011e+00 5.99910975e-01 1.43042002e-02 7.83280004e-03
      2.80763006e+00 9.81051028e-01 7.39446020e+00 5.69227993e-01
      1.72834005e-02 9.51655954e-03 1.58025002e+00 9.90028977e-01
      7.04854012e+00 6.30706012e-01 1.49517003e-02 8.19185004e-03
      2.59706998e+00 9.83101010e-01 7.34431982e+00 5.89631021e-01</_>
    <_>
      1.50888003e-02 7.74772000e-03 2.74537992e+00 9.86253977e-01
      7.42394018e+00 6.05538011e-01 1.36399996e-02 7.39149982e-03
      3.43600011e+00 9.83655989e-01 7.54619980e+00 5.72130978e-01
      1.53574999e-02 8.82436987e-03 1.87574005e+00 9.91169989e-01
      7.22151995e+00 6.10125005e-01 1.18089998e-02 6.91414019e-03
      3.53813004e+00 9.81730998e-01 7.58770990e+00 5.60603023e-01</_>
    <_>
      1.68408006e-02 8.51268973e-03 2.18344998e+00 9.87984002e-01
      7.28699017e+00 5.91733992e-01 1.33368000e-02 7.15185981e-03
      3.18168998e+00 9.82716978e-01 7.54601002e+00 5.48956990e-01
      1.55640002e-02 8.94972961e-03 1.81226003e+00 9.90764976e-01
      7.18138981e+00 6.11137986e-01 1.34648001e-02 7.57111004e-03
      2.78667998e+00 9.84394014e-01 7.45000982e+00 5.72803974e-01</_>
    <_>
      1.47756999e-02 8.11082963e-03 2.03540993e+00 9.90393996e-01
      7.35890007e+00 6.24279976e-01 1.31158000e-02 7.73139996e-03
      2.70132995e+00 9.87766981e-01 7.44811010e+00 5.96481979e-01
      1.50367003e-02 9.06123966e-03 1.66156006e+00 9.93245006e-01
      7.14679003e+00 6.09212995e-01 1.23511003e-02 7.38028018e-03
      2.82694006e+00 9.87263978e-01 7.49504995e+00 5.79123974e-01</_>
    <_>
      1.41436001e-02 7.30847986e-03 2.43191004e+00 9.90009010e-01
      7.49828005e+00 6.09874010e-01 1.28985997e-02 7.21642980e-03
      2.98750997e+00 9.88475978e-01 7.55851984e+00 5.79997003e-01
      1.44205997e-02 8.79533030e-03 1.59525001e+00 9.94208992e-01
      7.18159008e+00 6.18550003e-01 1.27831995e-02 6.88159000e-03
      3.30043006e+00 9.86715972e-01 7.61814022e+00 5.70900977e-01</_>
    <_>
      1.52511997e-02 7.94047024e-03 2.39348006e+00 9.88348007e-01
      7.40745020e+00 6.09827995e-01 1.18099004e-02 6.57163002e-03
      3.19960999e+00 9.83874023e-01 7.63506985e+00 5.54337025e-01
      1.43905003e-02 8.12058989e-03 1.92753994e+00 9.91455019e-01
      7.29361010e+00 5.94160974e-01 1.29963001e-02 6.90766005e-03
      3.43920994e+00 9.82393980e-01 7.58011007e+00 5.44862986e-01</_>
    <_>
      1.39049999e-02 8.08867998e-03 1.57858002e+00 9.94440973e-01
      7.32667017e+00 6.66449010e-01 1.35450996e-02 7.59592000e-03
      2.65011001e+00 9.90154982e-01 7.47681999e+00 5.71744025e-01
      1.39408996e-02 8.57742969e-03 1.53421998e+00 9.95087028e-01
      7.20846987e+00 6.23399019e-01 1.29632000e-02 7.19713001e-03
      2.46304989e+00 9.91699994e-01 7.51977015e+00 5.84939003e-01</_>
    <_>
      1.54569997e-02 8.47711973e-03 2.36413002e+00 9.88382995e-01
      7.33960009e+00 6.23848975e-01 1.35989003e-02 7.75757013e-03
      3.27502990e+00 9.84843016e-01 7.46085978e+00 5.65807998e-01
      1.48470998e-02 8.98898020e-03 1.66298997e+00 9.92354989e-01
      7.12829018e+00 6.24404013e-01 1.33093996e-02 7.66836014e-03
      3.10220003e+00 9.85818982e-01 7.46618986e+00 5.69939017e-01</_>
    <_>
      1.82093997e-02 1.01250000e-02 2.54844999e+00 9.79191005e-01
      7.14214993e+00 5.75331986e-01 1.45151997e-02 7.61860004e-03
      3.52691007e+00 9.70543981e-01 7.47105980e+00 5.44405997e-01
      1.77814998e-02 1.04063004e-02 1.93959999e+00 9.85801995e-01
      7.01435995e+00 5.88899016e-01 1.67450998e-02 8.65567010e-03
      3.46227002e+00 9.74659979e-01 7.36422014e+00 5.50823987e-01</_>
    <_>
      1.57999992e-02 8.06394033e-03 2.98382998e+00 9.83663023e-01
      7.41876984e+00 6.05749011e-01 1.35257998e-02 6.76173996e-03
      4.57002020e+00 9.74282026e-01 7.66369009e+00 5.38540006e-01
      1.54708000e-02 8.86925030e-03 2.36124992e+00 9.87294018e-01
      7.22362995e+00 6.11670017e-01 1.33955004e-02 7.19384011e-03
      3.93338990e+00 9.77816999e-01 7.58119011e+00 5.62484980e-01</_>
    <_>
      1.63858999e-02 8.85151979e-03 2.83982992e+00 9.80610013e-01
      7.30549002e+00 5.87014019e-01 1.43387998e-02 7.31957983e-03
      3.98451996e+00 9.72739995e-01 7.55501986e+00 5.43054998e-01
      1.61518995e-02 9.45509970e-03 2.00044990e+00 9.87694979e-01
      7.11244011e+00 6.05104983e-01 1.48296002e-02 7.61740003e-03
      3.70516992e+00 9.75713015e-01 7.50991011e+00 5.60962021e-01</_>
    <_>
      1.35706998e-02 7.51264021e-03 2.64211011e+00 9.89539027e-01
      7.48745012e+00 6.31829977e-01 1.23854000e-02 6.84140017e-03
      3.61195993e+00 9.86249030e-01 7.65570021e+00 5.79706013e-01
      1.47775002e-02 8.54789000e-03 1.87516999e+00 9.93023992e-01
      7.25746012e+00 6.19848013e-01 1.24342004e-02 7.09311990e-03
      3.39949989e+00 9.87556994e-01 7.59049988e+00 5.75973988e-01</_>
    <_>
      1.34068998e-02 7.74889998e-03 2.25421000e+00 9.91814971e-01
      7.44891977e+00 6.06293023e-01 1.18143000e-02 6.58906018e-03
      3.30870008e+00 9.88789976e-01 7.66796017e+00 5.75829029e-01
      1.35092000e-02 8.33490957e-03 1.78899002e+00 9.94719028e-01
      7.26624012e+00 6.26142025e-01 1.18143000e-02 6.96751988e-03
      2.95946002e+00 9.90276992e-01 7.58572006e+00 5.80667019e-01</_>
    <_>
      1.38221001e-02 7.58798001e-03 2.28289008e+00 9.91140008e-01
      7.45874977e+00 6.24660015e-01 1.25871003e-02 6.77235983e-03
      3.46342993e+00 9.87358987e-01 7.63484001e+00 5.44447005e-01
      1.36663001e-02 8.41709971e-03 1.84694004e+00 9.93936002e-01
      7.25847006e+00 6.23351991e-01 1.17397001e-02 6.91768993e-03
      3.09687996e+00 9.88635004e-01 7.58501005e+00 5.79548001e-01</_>
    <_>
      1.37157002e-02 7.50182988e-03 2.27571988e+00 9.91198003e-01
      7.46586990e+00 6.31231010e-01 1.21358996e-02 6.95211021e-03
      3.15214992e+00 9.88977015e-01 7.59756994e+00 5.79244018e-01
      1.41494004e-02 8.39568954e-03 1.85185003e+00 9.94098008e-01
      7.26684999e+00 6.13687992e-01 1.14390999e-02 6.85271015e-03
      3.11735010e+00 9.88487005e-01 7.58126020e+00 5.76120973e-01</_>
    <_>
      1.37700001e-02 7.56538007e-03 2.28445005e+00 9.91410971e-01
      7.47024012e+00 6.19624972e-01 1.24183996e-02 7.02321017e-03
      3.30885005e+00 9.87779975e-01 7.60233021e+00 5.76255023e-01
      1.39108999e-02 8.50231014e-03 1.89367998e+00 9.93438005e-01
      7.24810982e+00 6.18578970e-01 1.15540996e-02 6.82746992e-03
      3.17462993e+00 9.88438010e-01 7.59816980e+00 5.65751016e-01</_>
    <_>
      1.67104006e-02 8.70957039e-03 2.22764993e+00 9.88133013e-01
      7.30829000e+00 6.31609976e-01 1.33929001e-02 7.16202985e-03
      3.33019996e+00 9.81047988e-01 7.55096006e+00 5.72067022e-01
      1.52115999e-02 8.96757003e-03 1.99958003e+00 9.90351021e-01
      7.16439009e+00 6.22713029e-01 1.42503995e-02 7.48847984e-03
      3.35923004e+00 9.82011974e-01 7.51279020e+00 5.61791003e-01</_>
    <_>
      2.11104006e-02 1.12276003e-02 1.94081998e+00 9.80944991e-01
      6.90996981e+00 5.79792976e-01 1.77986994e-02 9.36441030e-03
      2.68324995e+00 9.72748995e-01 7.15241003e+00 5.66401005e-01
      1.97005998e-02 1.13251004e-02 1.45156002e+00 9.86303985e-01
      6.79805994e+00 6.42162025e-01 1.68759003e-02 9.57474019e-03
      2.61198997e+00 9.73655999e-01 7.12284994e+00 5.59186995e-01</_>
    <_>
      1.53670004e-02 8.07677954e-03 2.10642004e+00 9.90521014e-01
      7.36157990e+00 6.44371986e-01 1.23346997e-02 7.20898993e-03
      2.80958009e+00 9.88547027e-01 7.52386999e+00 6.01072013e-01
      1.60418004e-02 9.36351996e-03 1.63311994e+00 9.94424999e-01
      7.12498999e+00 6.25285983e-01 1.26938000e-02 7.47764995e-03
      2.59509993e+00 9.89358008e-01 7.46586990e+00 6.09287024e-01</_>
    <_>
      1.39602004e-02 7.47013977e-03 2.38380003e+00 9.91384029e-01
      7.50792980e+00 6.41928017e-01 1.25821000e-02 6.36966992e-03
      3.88591003e+00 9.84347999e-01 7.74644995e+00 5.54305971e-01
      1.56635009e-02 8.64578970e-03 2.10921001e+00 9.92524981e-01
      7.28307009e+00 6.22399986e-01 1.26321996e-02 6.77462015e-03
      3.32021999e+00 9.88282025e-01 7.65410995e+00 5.59258997e-01</_>
    <_>
      1.36069003e-02 7.16832001e-03 2.56910992e+00 9.90152001e-01
      7.56664991e+00 6.20217979e-01 1.19543998e-02 6.43088017e-03
      3.90234995e+00 9.86072004e-01 7.72024012e+00 5.51885009e-01
      1.46939997e-02 8.29343963e-03 1.97706997e+00 9.93857026e-01
      7.30692005e+00 6.43679023e-01 1.18127000e-02 6.65871007e-03
      3.22698998e+00 9.89386976e-01 7.67307997e+00 5.74123979e-01</_>
    <_>
      1.54761998e-02 8.23303033e-03 3.01240993e+00 9.83897984e-01
      7.40387011e+00 6.17349982e-01 1.32871000e-02 7.03431992e-03
      4.05639982e+00 9.78514016e-01 7.61717987e+00 5.65578997e-01
      1.58038996e-02 9.18758009e-03 2.05381989e+00 9.89898980e-01
      7.17602015e+00 6.02981985e-01 1.37622003e-02 7.39212986e-03
      3.75729990e+00 9.80228007e-01 7.54457998e+00 5.64938009e-01</_>
    <_>
      1.40463002e-02 8.25668033e-03 2.12415004e+00 9.90670025e-01
      7.34338999e+00 6.38677001e-01 1.28295003e-02 6.95441989e-03
      3.27933002e+00 9.85221028e-01 7.60434008e+00 5.79840004e-01
      1.65365003e-02 9.21570975e-03 1.92337000e+00 9.92174983e-01
      7.15686989e+00 6.12110019e-01 1.30655002e-02 7.38237007e-03
      3.01677990e+00 9.87185001e-01 7.51831007e+00 5.63857973e-01</_>
    <_>
      1.56407002e-02 8.47996958e-03 2.05232000e+00 9.89003003e-01
      7.29249001e+00 6.17811978e-01 1.32425996e-02 7.61236995e-03
      2.69407010e+00 9.86680984e-01 7.44598007e+00 5.99857986e-01
      1.53064001e-02 9.02982987e-03 1.67258000e+00 9.92093980e-01
      7.13106012e+00 6.27934992e-01 1.28996000e-02 7.41162989e-03
      2.82526994e+00 9.85585988e-01 7.48460007e+00 5.80017984e-01</_>
    <_>
      1.34493997e-02 7.46701984e-03 2.01697993e+00 9.92245018e-01
      7.44121981e+00 6.26210988e-01 1.27646998e-02 6.86101010e-03
      3.24998999e+00 9.86923993e-01 7.61993980e+00 5.63130021e-01
      1.42262997e-02 8.34645983e-03 1.93798006e+00 9.93219972e-01
      7.27870989e+00 6.30645990e-01 1.19019998e-02 6.53435010e-03
      3.12197995e+00 9.88328993e-01 7.66666985e+00 5.67229986e-01</_>
    <_>
      1.50124002e-02 7.97634013e-03 2.02383995e+00 9.90743995e-01
      7.37778997e+00 6.16594017e-01 1.32200001e-02 7.22853979e-03
      2.99273992e+00 9.87784982e-01 7.55436993e+00 5.94959974e-01
      1.47144003e-02 8.70215986e-03 1.87346005e+00 9.92699981e-01
      7.22135019e+00 6.27242029e-01 1.30468002e-02 6.98143989e-03
      3.10314989e+00 9.87401009e-01 7.58066988e+00 5.66595018e-01</_>
    <_>
      1.41564002e-02 8.10847990e-03 2.11220002e+00 9.87309992e-01
      7.31039000e+00 6.08428001e-01 1.18557001e-02 6.95285015e-03
      3.48580003e+00 9.78866994e-01 7.55183983e+00 5.27921975e-01
      1.43247005e-02 8.60389974e-03 2.00830007e+00 9.89279985e-01
      7.22559977e+00 6.09986007e-01 1.19522000e-02 7.02545978e-03
      3.07328010e+00 9.81553018e-01 7.52488995e+00 5.47513008e-01</_>
    <_>
      1.61167998e-02 8.62288009e-03 2.58363008e+00 9.83977973e-01
      7.31065989e+00 5.80868006e-01 1.27525004e-02 7.22035021e-03
      3.41680002e+00 9.80552971e-01 7.54031992e+00 5.68296015e-01
      1.55189997e-02 9.50247981e-03 1.81957996e+00 9.90880013e-01
      7.09154987e+00 6.13472998e-01 1.38616003e-02 7.62437005e-03
      3.23236990e+00 9.82109010e-01 7.47820997e+00 5.76964021e-01</_>
    <_>
      1.63518004e-02 8.52436014e-03 2.50833988e+00 9.85083997e-01
      7.31925011e+00 6.14224970e-01 1.35944998e-02 7.55474018e-03
      3.56844997e+00 9.80376005e-01 7.50317001e+00 5.63712001e-01
      1.56692993e-02 9.28920973e-03 1.97827995e+00 9.89865005e-01
      7.13861990e+00 6.18645012e-01 1.36473998e-02 7.52939982e-03
      3.34014010e+00 9.81987000e-01 7.50327015e+00 5.83127022e-01</_>
    <_>
      1.72764007e-02 8.67647957e-03 2.37466002e+00 9.86369014e-01
      7.31104994e+00 6.12978995e-01 1.29915997e-02 7.63029000e-03
      3.19695997e+00 9.83017981e-01 7.46997023e+00 5.92031002e-01
      1.53235998e-02 9.24663991e-03 1.96797001e+00 9.89890993e-01
      7.13757992e+00 6.06988013e-01 1.41848000e-02 7.58140022e-03
      3.29917002e+00 9.83805001e-01 7.50360012e+00 5.66177011e-01</_>
    <_>
      1.34814000e-02 7.49201002e-03 2.04309011e+00 9.91662979e-01
      7.45919991e+00 6.31335020e-01 1.24180997e-02 6.91151014e-03
      3.14017010e+00 9.88858998e-01 7.61863995e+00 5.87464988e-01
      1.35955997e-02 8.24152958e-03 1.82661998e+00 9.93725002e-01
      7.28663015e+00 6.14745021e-01 1.22646000e-02 6.69009006e-03
      3.03384995e+00 9.88972008e-01 7.65767002e+00 5.73221028e-01</_>
    <_>
      1.64691992e-02 8.64102971e-03 2.71071005e+00 9.84290004e-01
      7.34149981e+00 6.19135976e-01 1.33494996e-02 7.21713016e-03
      3.71122003e+00 9.79130030e-01 7.55888987e+00 5.67806005e-01
      1.51736001e-02 9.18693002e-03 1.92911005e+00 9.89930987e-01
      7.14815998e+00 6.22713983e-01 1.44296000e-02 7.56388018e-03
      3.57666993e+00 9.81213987e-01 7.51316977e+00 5.73238015e-01</_>
    <_>
      1.61020998e-02 8.36835988e-03 2.69541001e+00 9.85740006e-01
      7.35611010e+00 6.03357971e-01 1.27844997e-02 6.89131999e-03
      3.53429008e+00 9.80696023e-01 7.60631990e+00 5.79590976e-01
      1.57475006e-02 9.67196003e-03 1.88085997e+00 9.90549028e-01
      7.09201002e+00 6.15225017e-01 1.38512002e-02 7.60920998e-03
      3.29347992e+00 9.83066976e-01 7.48819017e+00 5.84960997e-01</_>
    <_>
      1.55453999e-02 8.55679996e-03 2.33651996e+00 9.85010028e-01
      7.28762007e+00 5.76461017e-01 1.25289997e-02 7.12822983e-03
      3.50530005e+00 9.77804005e-01 7.54020977e+00 5.42818010e-01
      1.58377998e-02 9.56805982e-03 1.76389003e+00 9.89602983e-01
      7.07870007e+00 6.27921999e-01 1.42740998e-02 7.90282991e-03
      2.93768001e+00 9.82994974e-01 7.41173983e+00 5.61344981e-01</_>
    <_>
      1.39025003e-02 7.61123979e-03 2.53800011e+00 9.89134014e-01
      7.43634987e+00 6.12073004e-01 1.31666996e-02 7.19830999e-03
      3.99152994e+00 9.82712984e-01 7.59425020e+00 5.36660016e-01
      1.42299002e-02 8.49934015e-03 2.00049996e+00 9.91406024e-01
      7.27030993e+00 6.05350018e-01 1.29950000e-02 7.03206006e-03
      3.55281997e+00 9.85418975e-01 7.60247993e+00 5.52955985e-01</_>
    <_>
      1.47521999e-02 8.04660004e-03 2.86466002e+00 9.81745005e-01
      7.40264988e+00 5.71415007e-01 1.17181996e-02 6.59997016e-03
      3.84472990e+00 9.76652980e-01 7.63962984e+00 5.53580999e-01
      1.47348996e-02 9.26216971e-03 1.97267997e+00 9.88837004e-01
      7.14549017e+00 6.21923029e-01 1.53235998e-02 7.69936992e-03
      4.02073002e+00 9.79081988e-01 7.50314999e+00 5.57133019e-01</_>
    <_>
      1.43032996e-02 7.62597984e-03 2.34192991e+00 9.90885973e-01
      7.46687984e+00 6.33755028e-01 1.24509996e-02 7.01719988e-03
      3.48945999e+00 9.88332987e-01 7.62598991e+00 5.68386018e-01
      1.35829002e-02 8.45597032e-03 1.95497000e+00 9.93694007e-01
      7.27496004e+00 5.98419011e-01 1.23450998e-02 7.26810005e-03
      3.17477012e+00 9.89440978e-01 7.55855989e+00 5.77914000e-01</_>
    <_>
      1.39656002e-02 7.43087986e-03 2.53874993e+00 9.89799023e-01
      7.50306988e+00 6.10764980e-01 1.15620000e-02 6.87200995e-03
      3.51089001e+00 9.87682998e-01 7.63988018e+00 5.71596980e-01
      1.29100997e-02 8.31347983e-03 1.83095002e+00 9.94117975e-01
      7.28028011e+00 6.12357974e-01 1.25911003e-02 7.25698983e-03
      3.32063007e+00 9.88689005e-01 7.58183002e+00 5.78445017e-01</_>
    <_>
      1.51263000e-02 7.70854997e-03 2.23318005e+00 9.90432978e-01
      7.45783997e+00 6.39110982e-01 1.21678002e-02 6.80434983e-03
      3.45159006e+00 9.85541999e-01 7.64550018e+00 5.70060015e-01
      1.43855996e-02 8.29754956e-03 2.09809995e+00 9.91576016e-01
      7.29863024e+00 6.17402017e-01 1.20208999e-02 6.70380006e-03
      3.11517000e+00 9.87042010e-01 7.64136982e+00 5.77620983e-01</_>
    <_>
      1.44761000e-02 7.78716011e-03 2.07214999e+00 9.88831997e-01
      7.36485004e+00 6.09489977e-01 1.24022998e-02 7.01567018e-03
      3.31073999e+00 9.82380986e-01 7.56383991e+00 5.40327013e-01
      1.65017005e-02 9.84727964e-03 1.81071997e+00 9.91433024e-01
      7.08066988e+00 6.22479022e-01 1.38346003e-02 7.58833997e-03
      2.80072999e+00 9.85960007e-01 7.47089005e+00 5.73927999e-01</_>
    <_>
      1.51388999e-02 8.44279025e-03 2.23385000e+00 9.85844016e-01
      7.29823017e+00 5.97195029e-01 1.24460999e-02 7.02732988e-03
      3.36022997e+00 9.78118002e-01 7.54024982e+00 5.29848993e-01
      1.59809999e-02 9.58595984e-03 1.78570998e+00 9.89863992e-01
      7.07560015e+00 6.16171002e-01 1.42436000e-02 7.93635007e-03
      3.00209999e+00 9.81121004e-01 7.40702009e+00 5.68082988e-01</_>
    <_>
      1.48135005e-02 7.82490987e-03 3.04362988e+00 9.83331025e-01
      7.44002008e+00 5.89403987e-01 1.15452996e-02 6.48726011e-03
      3.95046997e+00 9.76881981e-01 7.65933990e+00 5.48363984e-01
      1.58472992e-02 8.96237046e-03 2.15902996e+00 9.89484012e-01
      7.20895004e+00 6.03803992e-01 1.37304999e-02 7.22073019e-03
      4.14855003e+00 9.78370011e-01 7.58397007e+00 5.58248997e-01</_>
    <_>
      1.65883005e-02 9.17779002e-03 2.57909012e+00 9.81721997e-01
      7.24430990e+00 6.06608987e-01 1.45103000e-02 7.80009013e-03
      3.67104006e+00 9.75371003e-01 7.47248983e+00 5.51158011e-01
      1.59648005e-02 9.20789968e-03 1.93180001e+00 9.88056004e-01
      7.13010979e+00 6.13578022e-01 1.44696999e-02 7.56232999e-03
      3.61312008e+00 9.75417972e-01 7.48901987e+00 5.50435007e-01</_>
    <_>
      1.45623004e-02 7.80197978e-03 2.39266992e+00 9.91029024e-01
      7.44064999e+00 6.50747001e-01 1.23361005e-02 7.10095000e-03
      3.32316995e+00 9.87142980e-01 7.59926987e+00 5.71121991e-01
      1.38737997e-02 8.55715014e-03 1.65408003e+00 9.94201005e-01
      7.22365999e+00 6.02762997e-01 1.26507003e-02 7.24904984e-03
      3.03047991e+00 9.89014030e-01 7.56438017e+00 5.87279022e-01</_>
    <_>
      1.92485005e-02 1.04962001e-02 1.66376996e+00 9.88788009e-01
      6.96059990e+00 5.95420003e-01 1.68804005e-02 8.77298974e-03
      2.12832999e+00 9.85535979e-01 7.22253990e+00 6.04067028e-01
      2.04777997e-02 1.18049001e-02 1.14830005e+00 9.92251992e-01
      6.73177004e+00 6.40676975e-01 1.62713006e-02 9.17956978e-03
      1.85833001e+00 9.87038016e-01 7.13714981e+00 6.05225980e-01</_>
    <_>
      1.93709992e-02 1.04050003e-02 1.64637995e+00 9.88186002e-01
      6.96646976e+00 6.05789006e-01 1.79590005e-02 8.97165015e-03
      2.27712989e+00 9.84264016e-01 7.21263981e+00 5.78664005e-01
      1.98867992e-02 1.14388997e-02 1.09841001e+00 9.92417991e-01
      6.76121998e+00 6.43615007e-01 1.82413999e-02 9.28943977e-03
      2.09046006e+00 9.85773027e-01 7.14454985e+00 5.69095016e-01</_>
    <_>
      1.91431008e-02 1.07314000e-02 1.50152004e+00 9.89373982e-01
      6.89944983e+00 6.26258016e-01 1.56973004e-02 9.04637016e-03
      2.07723999e+00 9.85186994e-01 7.16138983e+00 5.97302973e-01
      1.95640009e-02 1.16287004e-02 1.10959995e+00 9.92573977e-01
      6.73088980e+00 6.38032973e-01 1.88384000e-02 9.42150969e-03
      1.90134001e+00 9.87255991e-01 7.09268999e+00 5.84749997e-01</_>
    <_>
      1.96716003e-02 1.09818997e-02 1.44028997e+00 9.89718020e-01
      6.85389996e+00 6.16752982e-01 1.67498998e-02 9.30009037e-03
      2.02233005e+00 9.86307025e-01 7.13670015e+00 5.98900020e-01
      2.03379001e-02 1.14964005e-02 1.13932002e+00 9.92911994e-01
      6.73803997e+00 6.34738028e-01 1.75705999e-02 9.73634981e-03
      1.80375004e+00 9.87800002e-01 7.04092979e+00 5.84837019e-01</_>
    <_>
      1.63467005e-02 9.12072975e-03 1.89881003e+00 9.86751974e-01
      7.14515018e+00 6.00588977e-01 1.59408003e-02 8.20410997e-03
      2.65005994e+00 9.83439982e-01 7.30909014e+00 5.52134991e-01
      1.86062995e-02 1.04630003e-02 1.35672998e+00 9.91780996e-01
      6.89566994e+00 6.33010030e-01 1.58182997e-02 7.90036004e-03
      2.39653993e+00 9.84929979e-01 7.32795000e+00 5.47492981e-01</_>
    <_>
      1.81725994e-02 9.28622019e-03 1.91399002e+00 9.87936020e-01
      7.13331985e+00 6.01207972e-01 1.60681009e-02 8.33970960e-03
      2.49079990e+00 9.82869029e-01 7.28131008e+00 5.60622990e-01
      1.86176002e-02 1.07661001e-02 1.30007994e+00 9.91918027e-01
      6.86429977e+00 6.34110987e-01 1.60050001e-02 8.07863008e-03
      2.27082992e+00 9.84966993e-01 7.29500008e+00 5.70999980e-01</_>
    <_>
      1.70382001e-02 9.46749002e-03 1.85184002e+00 9.85678971e-01
      7.08917999e+00 6.04812026e-01 1.56791992e-02 8.55293032e-03
      2.60975003e+00 9.80418026e-01 7.26011992e+00 5.69667995e-01
      1.96429007e-02 1.14655001e-02 1.32500005e+00 9.90800977e-01
      6.78557014e+00 6.39648974e-01 1.65279005e-02 9.00612958e-03
      2.27180004e+00 9.83693004e-01 7.19344997e+00 5.77616990e-01</_>
    <_>
      1.84662007e-02 1.02092996e-02 1.66819000e+00 9.88631010e-01
      6.97821999e+00 6.17999017e-01 1.58200003e-02 8.64616036e-03
      2.29786992e+00 9.83583987e-01 7.23156977e+00 5.98277986e-01
      1.97205003e-02 1.15286000e-02 1.19424999e+00 9.92711008e-01
      6.75893021e+00 6.40996993e-01 1.68233998e-02 9.24431998e-03
      2.00079012e+00 9.86173987e-01 7.13970995e+00 5.91484010e-01</_>
    <_>
      2.14687008e-02 1.12137999e-02 1.52359998e+00 9.89669979e-01
      6.88350010e+00 6.29961014e-01 1.88317001e-02 1.00653004e-02
      1.90664995e+00 9.86014009e-01 7.05810022e+00 6.07488990e-01
      1.98877007e-02 1.24610001e-02 9.86742020e-01 9.92928982e-01
      6.63259983e+00 6.46691024e-01 1.97291002e-02 9.87522956e-03
      1.90604997e+00 9.87163007e-01 7.08862019e+00 6.03794992e-01</_>
    <_>
      1.79088991e-02 1.02800997e-02 1.52682996e+00 9.89845991e-01
      6.97400999e+00 6.38449013e-01 1.69319995e-02 9.00616962e-03
      2.08229995e+00 9.86289978e-01 7.19631004e+00 5.96740007e-01
      1.88692994e-02 1.15136998e-02 1.03310001e+00 9.93170023e-01
      6.74171019e+00 6.60100996e-01 1.69994999e-02 9.06652957e-03
      1.91762996e+00 9.88104999e-01 7.17327023e+00 6.10955000e-01</_>
    <_>
      1.89826004e-02 1.05432998e-02 1.47688997e+00 9.89687979e-01
      6.95737982e+00 6.29091978e-01 1.79382004e-02 9.22174007e-03
      1.99056995e+00 9.86146986e-01 7.15902996e+00 5.89042008e-01
      1.97905004e-02 1.14305997e-02 1.02274001e+00 9.93499994e-01
      6.74981022e+00 6.55625999e-01 1.85963009e-02 9.28074028e-03
      1.94316006e+00 9.87864017e-01 7.14404011e+00 5.94856024e-01</_>
    <_>
      2.01565009e-02 1.13251004e-02 1.41032004e+00 9.89085019e-01
      6.81302023e+00 6.53898001e-01 1.74419004e-02 9.64165013e-03
      1.93624997e+00 9.85339999e-01 7.05556011e+00 5.84338009e-01
      2.13067997e-02 1.26101002e-02 9.82536972e-01 9.93438005e-01
      6.61371994e+00 6.51736021e-01 1.82018001e-02 1.03783999e-02
      1.81586003e+00 9.87322986e-01 6.97521019e+00 5.93765974e-01</_>
    <_>
      2.04649996e-02 1.07514001e-02 1.57055998e+00 9.88551974e-01
      6.89451981e+00 6.28126025e-01 1.72530003e-02 9.20908991e-03
      2.00142002e+00 9.84799981e-01 7.11875010e+00 5.94170988e-01
      2.00797003e-02 1.24562001e-02 1.02203000e+00 9.92685020e-01
      6.61989021e+00 6.49901986e-01 1.79132000e-02 9.68133006e-03
      1.89858997e+00 9.86491978e-01 7.05420017e+00 5.98720014e-01</_>
    <_>
      1.80891994e-02 1.08943004e-02 1.39630997e+00 9.90691006e-01
      6.85698986e+00 6.41831994e-01 1.84211005e-02 9.67185013e-03
      1.94342005e+00 9.86087024e-01 7.07177019e+00 5.96149027e-01
      1.95505004e-02 1.25171999e-02 8.75231028e-01 9.93987024e-01
      6.57474995e+00 6.62319005e-01 1.77631993e-02 9.93524026e-03
      1.75715995e+00 9.87794995e-01 7.02086020e+00 6.09178007e-01</_>
    <_>
      2.12619007e-02 1.07931998e-02 1.51849997e+00 9.89022017e-01
      6.90416002e+00 6.10845029e-01 1.82984006e-02 1.01498999e-02
      1.80490994e+00 9.86128986e-01 7.02199984e+00 5.98752975e-01
      2.24617999e-02 1.30431000e-02 8.92992020e-01 9.93759990e-01
      6.53990984e+00 6.50815010e-01 1.89427994e-02 1.02129001e-02
      1.75663996e+00 9.87518013e-01 6.99928999e+00 6.06480002e-01</_>
    <_>
      1.92060005e-02 1.03874002e-02 1.54580998e+00 9.89273012e-01
      6.98045015e+00 6.28790975e-01 1.56308003e-02 8.76775011e-03
      1.94689000e+00 9.87483978e-01 7.20311022e+00 6.09003007e-01
      1.96954999e-02 1.16143003e-02 1.09949994e+00 9.93331015e-01
      6.75036001e+00 6.34585977e-01 1.62028000e-02 9.21653956e-03
      1.85277998e+00 9.88511026e-01 7.13808012e+00 5.99198997e-01</_>
    <_>
      1.78672001e-02 1.05149001e-02 1.30960000e+00 9.91584003e-01
      6.91573000e+00 6.46333992e-01 1.82601996e-02 9.37660970e-03
      1.83205998e+00 9.88098979e-01 7.12472010e+00 6.10691011e-01
      2.04901993e-02 1.21828001e-02 9.84974027e-01 9.94455993e-01
      6.65312004e+00 6.44753993e-01 1.86026003e-02 9.59233008e-03
      1.79507995e+00 9.89018977e-01 7.10260010e+00 6.06164992e-01</_>
    <_>
      2.08436996e-02 1.13126999e-02 1.34284997e+00 9.90055978e-01
      6.79674006e+00 6.41290009e-01 1.89721007e-02 9.55171045e-03
      1.97053003e+00 9.83918011e-01 7.07891989e+00 5.78562975e-01
      2.17241999e-02 1.25118997e-02 9.05889988e-01 9.93595004e-01
      6.59433985e+00 6.73044980e-01 1.89606994e-02 1.03973998e-02
      1.66473997e+00 9.86766994e-01 6.95633984e+00 6.03980005e-01</_>
    <_>
      1.89826004e-02 1.13241002e-02 1.27798998e+00 9.90414977e-01
      6.79325008e+00 6.56580985e-01 1.80597007e-02 9.38086025e-03
      1.94140995e+00 9.84429002e-01 7.09801006e+00 6.00632012e-01
      2.10222993e-02 1.26564000e-02 9.47403014e-01 9.93201971e-01
      6.59276009e+00 6.68906987e-01 1.98922995e-02 1.02711003e-02
      1.69717002e+00 9.87582028e-01 6.97548008e+00 5.98055005e-01</_>
    <_>
      1.92648992e-02 1.09887002e-02 1.28373003e+00 9.90427017e-01
      6.80315018e+00 6.45099998e-01 1.69939008e-02 9.83444043e-03
      1.83520997e+00 9.85827029e-01 7.03232002e+00 5.91198027e-01
      2.26384997e-02 1.32146999e-02 1.02450001e+00 9.92434025e-01
      6.55374002e+00 6.41731024e-01 1.88152008e-02 1.03193000e-02
      1.65527999e+00 9.88014996e-01 6.94882011e+00 6.04744017e-01</_>
    <_>
      1.81335993e-02 9.77838971e-03 2.51570010e+00 9.77786005e-01
      7.11323023e+00 5.77629983e-01 1.59796998e-02 8.15450028e-03
      3.39772010e+00 9.71257985e-01 7.35445023e+00 5.55745006e-01
      1.77728999e-02 9.74984001e-03 2.01029992e+00 9.83251989e-01
      7.05151987e+00 5.85087001e-01 1.35255996e-02 7.75222993e-03
      3.27214003e+00 9.69416976e-01 7.37443018e+00 5.23159027e-01</_>
    <_>
      1.87456999e-02 9.81135014e-03 1.88440001e+00 9.83955979e-01
      7.04997015e+00 6.12399995e-01 1.61863007e-02 8.55541974e-03
      2.63541007e+00 9.78837013e-01 7.25465012e+00 5.77385008e-01
      2.09363997e-02 1.08575998e-02 1.54623997e+00 9.87933993e-01
      6.88111019e+00 6.01592004e-01 1.52324000e-02 8.45960993e-03
      2.40035009e+00 9.79593992e-01 7.22600985e+00 5.51235974e-01</_>
    <_>
      1.85963009e-02 1.07749002e-02 1.67718995e+00 9.86230016e-01
      6.90923023e+00 6.12335026e-01 1.71233006e-02 8.93541984e-03
      2.46005011e+00 9.80925977e-01 7.19002008e+00 5.65263987e-01
      1.85199007e-02 1.15393000e-02 1.37295997e+00 9.89796996e-01
      6.76817989e+00 6.28687978e-01 1.70811992e-02 9.18480009e-03
      2.36431003e+00 9.81456995e-01 7.14948988e+00 5.91437995e-01</_>
    <_>
      2.93776002e-02 1.87708009e-02 6.14839971e-01 9.94002998e-01
      5.99346018e+00 7.01530993e-01 2.73301005e-02 1.45116998e-02
      8.87194991e-01 9.91375983e-01 6.41710997e+00 6.72231019e-01
      2.92013008e-02 1.81808993e-02 6.82825983e-01 9.93246019e-01
      6.04677010e+00 6.84181988e-01 2.80018002e-02 1.72160994e-02
      6.44152999e-01 9.93647993e-01 6.11685991e+00 7.09079981e-01</_>
    <_>
      2.24929005e-02 1.46300998e-02 7.40665019e-01 9.93678987e-01
      6.28382015e+00 6.67666972e-01 2.06503998e-02 1.28771001e-02
      1.35764003e+00 9.88456011e-01 6.63466978e+00 6.10603988e-01
      2.20874008e-02 1.41403005e-02 9.47858989e-01 9.91679013e-01
      6.41063976e+00 6.42211020e-01 2.16787998e-02 1.43381003e-02
      9.25772011e-01 9.92094994e-01 6.40111017e+00 6.45847976e-01</_>
    <_>
      2.11385004e-02 1.32694999e-02 9.60718989e-01 9.91092026e-01
      6.49061012e+00 6.49222016e-01 1.91383995e-02 1.03639998e-02
      1.74625003e+00 9.85867977e-01 6.93660021e+00 6.03152990e-01
      2.10421998e-02 1.33346999e-02 1.09361005e+00 9.91315007e-01
      6.52966022e+00 6.26676977e-01 1.86129995e-02 1.17145004e-02
      1.15910995e+00 9.90611017e-01 6.70976019e+00 6.39312983e-01</_>
    <_>
      1.84474997e-02 9.37352981e-03 2.62102008e+00 9.80480015e-01
      7.19207001e+00 5.90351999e-01 1.59290005e-02 8.25162046e-03
      3.88458991e+00 9.70103979e-01 7.39890003e+00 5.51442981e-01
      1.66205000e-02 1.01106996e-02 1.66534996e+00 9.88148987e-01
      6.98203993e+00 6.30244017e-01 1.58002004e-02 8.25691968e-03
      2.90947008e+00 9.78148997e-01 7.35228014e+00 5.55171013e-01</_>
    <_>
      1.97331998e-02 1.02027003e-02 2.13796997e+00 9.82576013e-01
      7.03788996e+00 6.16239011e-01 1.61699001e-02 8.60011019e-03
      2.83753991e+00 9.78407025e-01 7.29394007e+00 5.86969018e-01
      2.07105000e-02 1.17079997e-02 1.58905995e+00 9.88708973e-01
      6.80756998e+00 6.13240004e-01 1.65978000e-02 9.05179977e-03
      2.64670992e+00 9.80066001e-01 7.21507978e+00 5.84770977e-01</_>
    <_>
      1.99650992e-02 1.14554996e-02 1.43534994e+00 9.87498999e-01
      6.78331995e+00 6.28156006e-01 1.83124002e-02 1.00498004e-02
      1.97580004e+00 9.85274017e-01 7.01682997e+00 5.91603994e-01
      1.95668992e-02 1.20700002e-02 1.11592996e+00 9.91540015e-01
      6.65760994e+00 6.44766986e-01 1.83403995e-02 9.77514964e-03
      2.06128001e+00 9.84471023e-01 7.05056000e+00 5.75836003e-01</_>
    <_>
      2.00739000e-02 1.12897996e-02 1.42356002e+00 9.88372028e-01
      6.79957008e+00 6.24951005e-01 1.64007992e-02 9.57108010e-03
      1.89901996e+00 9.84742999e-01 7.04484987e+00 6.09615982e-01
      1.95761994e-02 1.21342996e-02 1.19400001e+00 9.90808010e-01
      6.66285992e+00 6.41622007e-01 1.68928001e-02 9.72435996e-03
      1.94572997e+00 9.84250009e-01 7.04014015e+00 5.90391994e-01</_>
    <_>
      1.96397007e-02 1.08059002e-02 1.44709003e+00 9.88969028e-01
      6.84410000e+00 6.22820020e-01 1.66270994e-02 9.64294001e-03
      2.03306007e+00 9.84292984e-01 7.04573011e+00 5.93972981e-01
      2.09260006e-02 1.23044997e-02 1.36019003e+00 9.89807010e-01
      6.67211008e+00 6.07733011e-01 1.68456007e-02 9.52136982e-03
      2.02502990e+00 9.84685004e-01 7.06541014e+00 5.96350014e-01</_>
    <_>
      2.12500002e-02 1.20805996e-02 1.23057997e+00 9.89226997e-01
      6.67055988e+00 6.17030025e-01 1.79130007e-02 1.04668997e-02
      2.04933000e+00 9.83664989e-01 6.96999979e+00 5.90179980e-01
      2.11810991e-02 1.26753999e-02 1.13810003e+00 9.90463018e-01
      6.60275984e+00 6.27537012e-01 1.78022999e-02 1.13557000e-02
      1.24860001e+00 9.90116000e-01 6.76314020e+00 6.33387983e-01</_>
    <_>
      2.20887009e-02 1.24418996e-02 1.14560997e+00 9.90153015e-01
      6.61229992e+00 6.13972008e-01 1.88241992e-02 1.06034996e-02
      1.89481997e+00 9.84682977e-01 6.92597008e+00 5.93733013e-01
      2.38588993e-02 1.36887003e-02 1.13777995e+00 9.91378009e-01
      6.51557016e+00 6.16207004e-01 1.82511006e-02 1.15526998e-02
      1.14740002e+00 9.90624011e-01 6.71419001e+00 6.35850012e-01</_>
    <_>
      2.20018998e-02 1.26758004e-02 1.11409998e+00 9.90023971e-01
      6.60257006e+00 6.23263001e-01 1.98468994e-02 1.09614003e-02
      2.08172989e+00 9.82093990e-01 6.93426991e+00 5.76597989e-01
      1.93774998e-02 1.23709999e-02 1.08949006e+00 9.90777016e-01
      6.61174011e+00 6.47261977e-01 1.97687000e-02 1.20882997e-02
      1.33115005e+00 9.88218009e-01 6.70699978e+00 6.15915000e-01</_>
    <_>
      1.79303009e-02 9.74860974e-03 2.42736006e+00 9.79909003e-01
      7.12010002e+00 5.95579028e-01 1.60265006e-02 7.93064013e-03
      3.70414996e+00 9.69219983e-01 7.39590979e+00 5.62135994e-01
      1.93269998e-02 1.12252999e-02 1.69198000e+00 9.86918986e-01
      6.84618998e+00 6.12632990e-01 1.62172001e-02 8.44627991e-03
      2.72080994e+00 9.78654981e-01 7.26528978e+00 5.79060972e-01</_>
    <_>
      2.00258009e-02 1.06009999e-02 1.82081997e+00 9.85204995e-01
      6.92879009e+00 6.03051007e-01 1.72534995e-02 8.97909980e-03
      2.90605998e+00 9.76862013e-01 7.22851992e+00 5.83263993e-01
      2.09376998e-02 1.17127001e-02 1.57623994e+00 9.88472998e-01
      6.79870987e+00 6.37638986e-01 1.72648001e-02 9.09173954e-03
      2.27828002e+00 9.81197000e-01 7.14308977e+00 5.83194017e-01</_>
    <_>
      2.15773005e-02 1.30679002e-02 9.65138018e-01 9.91466999e-01
      6.52752018e+00 6.44541025e-01 1.87059995e-02 1.06036002e-02
      1.74243999e+00 9.86132026e-01 6.90649986e+00 6.06860995e-01
      2.27846000e-02 1.30666001e-02 1.12679994e+00 9.90647972e-01
      6.58641005e+00 6.31241977e-01 1.88261997e-02 1.17942002e-02
      1.13880002e+00 9.91077006e-01 6.69340992e+00 6.38541996e-01</_>
    <_>
      1.99811999e-02 1.22950003e-02 1.13610995e+00 9.89919007e-01
      6.63761997e+00 6.56498015e-01 1.78121999e-02 9.99070983e-03
      2.12649989e+00 9.82255995e-01 7.01752996e+00 5.83104014e-01
      2.06879992e-02 1.25035997e-02 1.21296000e+00 9.90529001e-01
      6.62435007e+00 6.16775990e-01 1.99531000e-02 1.18538002e-02
      1.53692997e+00 9.87676024e-01 6.76584005e+00 5.82141995e-01</_>
    <_>
      1.80901997e-02 9.73134954e-03 2.17656994e+00 9.82895017e-01
      7.08304977e+00 5.93208015e-01 1.55902002e-02 8.51013046e-03
      2.86104989e+00 9.78105009e-01 7.27111006e+00 5.70472002e-01
      1.62444003e-02 1.05031999e-02 1.59342003e+00 9.88600016e-01
      6.90544987e+00 6.02338016e-01 1.51115004e-02 7.97209982e-03
      2.88379002e+00 9.77108002e-01 7.29618979e+00 5.34125984e-01</_>
    <_>
      2.41362993e-02 1.22625995e-02 1.21789002e+00 9.89832997e-01
      6.70036983e+00 6.54106021e-01 1.97918005e-02 1.08265001e-02
      1.71605003e+00 9.86133993e-01 6.91334009e+00 6.13762975e-01
      2.59159002e-02 1.45065002e-02 8.73439014e-01 9.92419004e-01
      6.42126989e+00 6.66193008e-01 2.07318999e-02 1.19591998e-02
      1.29083002e+00 9.89439011e-01 6.72519016e+00 6.22651994e-01</_>
    <_>
      1.86567008e-02 1.11809997e-02 1.79850996e+00 9.83345985e-01
      6.83964014e+00 5.98560989e-01 1.88299995e-02 1.01014003e-02
      2.83737993e+00 9.76634026e-01 7.08509016e+00 5.89186013e-01
      2.27659997e-02 1.38261998e-02 1.15155995e+00 9.90445971e-01
      6.51648998e+00 6.32752001e-01 1.89680997e-02 1.08791003e-02
      1.82314003e+00 9.84682024e-01 6.91295004e+00 6.02621019e-01</_>
    <_>
      2.64963005e-02 1.33370003e-02 1.17341995e+00 9.89862978e-01
      6.61485004e+00 6.49843991e-01 2.18564998e-02 1.13415001e-02
      1.55659997e+00 9.87767994e-01 6.83656979e+00 6.24629021e-01
      2.56513003e-02 1.50327999e-02 7.14313984e-01 9.93385971e-01
      6.30157995e+00 6.89211011e-01 2.24207006e-02 1.28271999e-02
      1.14664996e+00 9.91200984e-01 6.63630009e+00 6.43115997e-01</_>
    <_>
      1.91319007e-02 1.04149999e-02 1.97556996e+00 9.82011974e-01
      6.97997999e+00 6.17547989e-01 1.69709008e-02 8.95090960e-03
      2.89269996e+00 9.77298021e-01 7.21615982e+00 5.80529988e-01
      2.11789999e-02 1.18131004e-02 1.43316996e+00 9.88381982e-01
      6.73758984e+00 6.16405010e-01 1.68357007e-02 9.28692985e-03
      2.31555009e+00 9.80162024e-01 7.12977982e+00 5.71659982e-01</_>
    <_>
      2.46223006e-02 1.40712997e-02 1.12360001e+00 9.89988029e-01
      6.52603006e+00 6.56288028e-01 2.29499005e-02 1.15775000e-02
      1.77113998e+00 9.84930992e-01 6.83625984e+00 6.25790000e-01
      2.59434003e-02 1.50811002e-02 8.65873992e-01 9.92644012e-01
      6.37833023e+00 6.63865983e-01 2.11653002e-02 1.26381004e-02
      1.07761002e+00 9.91222024e-01 6.62517977e+00 6.43207014e-01</_>
    <_>
      1.88218001e-02 1.16301998e-02 1.41697001e+00 9.86244023e-01
      6.72903013e+00 6.25048995e-01 1.94287002e-02 1.10938000e-02
      2.12540007e+00 9.81288016e-01 6.90574980e+00 5.98087013e-01
      2.25898009e-02 1.42890001e-02 8.04072976e-01 9.93173003e-01
      6.35804987e+00 6.56687021e-01 2.16317009e-02 1.20096998e-02
      1.39695001e+00 9.87666011e-01 6.73099995e+00 6.23812973e-01</_>
    <_>
      2.42653005e-02 1.34260999e-02 1.04969001e+00 9.91581023e-01
      6.52309990e+00 6.65449023e-01 2.19481997e-02 1.18725998e-02
      1.47725999e+00 9.86029029e-01 6.74435997e+00 6.30590022e-01
      2.56436002e-02 1.61122009e-02 6.95204020e-01 9.94423985e-01
      6.19040012e+00 6.82039022e-01 2.43948996e-02 1.37373004e-02
      9.91068006e-01 9.91764009e-01 6.49458981e+00 6.49996996e-01</_>
    <_>
      2.59493999e-02 1.49018997e-02 9.87342000e-01 9.91752982e-01
      6.41535997e+00 6.73014998e-01 2.50815991e-02 1.29410001e-02
      1.37021005e+00 9.88548994e-01 6.67441988e+00 6.51368022e-01
      2.67687999e-02 1.69633999e-02 6.57568991e-01 9.94557023e-01
      6.12401009e+00 6.90429986e-01 2.38371994e-02 1.37719996e-02
      9.42636013e-01 9.92004991e-01 6.50229979e+00 6.56277001e-01</_>
    <_>
      2.48393007e-02 1.31190000e-02 1.31794000e+00 9.88044977e-01
      6.69725990e+00 6.50599003e-01 2.05894001e-02 1.05416998e-02
      2.07638001e+00 9.83618975e-01 7.01040983e+00 6.28889024e-01
      2.42388994e-02 1.36936996e-02 1.10151005e+00 9.91243005e-01
      6.55530977e+00 6.32889986e-01 2.13089008e-02 1.14235003e-02
      1.34920001e+00 9.89673972e-01 6.81504011e+00 6.24475002e-01</_>
    <_>
      2.48755999e-02 1.20713003e-02 1.63066995e+00 9.86099005e-01
      6.82923985e+00 6.30275011e-01 1.83400009e-02 1.03345001e-02
      2.06782007e+00 9.83464003e-01 7.02002001e+00 6.25769973e-01
      2.29407996e-02 1.36901001e-02 9.47435021e-01 9.91285980e-01
      6.50676012e+00 6.67123973e-01 2.00411994e-02 1.17050000e-02
      1.52804005e+00 9.88566995e-01 6.83539009e+00 6.21638000e-01</_>
    <_>
      2.76909005e-02 1.39776003e-02 1.30918002e+00 9.89511013e-01
      6.59653997e+00 6.44016981e-01 2.30311006e-02 1.23595996e-02
      1.60630000e+00 9.87030029e-01 6.75447989e+00 6.41251981e-01
      2.66807005e-02 1.62237007e-02 7.01470971e-01 9.94044006e-01
      6.20491982e+00 6.90832019e-01 2.39582993e-02 1.33164003e-02
      1.22811997e+00 9.90330994e-01 6.63432980e+00 6.46266997e-01</_>
    <_>
      1.89565998e-02 1.10082002e-02 1.75948000e+00 9.84849989e-01
      6.87299013e+00 5.94052017e-01 1.89021993e-02 1.04505001e-02
      2.48699999e+00 9.79146004e-01 7.01324987e+00 5.81394017e-01
      2.17966996e-02 1.42409001e-02 9.23156023e-01 9.91635025e-01
      6.41463995e+00 6.50904000e-01 1.89140998e-02 1.08722001e-02
      1.73669004e+00 9.84726012e-01 6.90448999e+00 6.17251992e-01</_>
    <_>
      1.94394998e-02 1.07912002e-02 2.02083993e+00 9.82190013e-01
      6.92498016e+00 5.94385982e-01 1.82192009e-02 9.54886992e-03
      2.77564001e+00 9.78061020e-01 7.14436007e+00 5.77858984e-01
      1.93479992e-02 1.21902004e-02 1.05712998e+00 9.91657019e-01
      6.63200998e+00 6.51053011e-01 1.83154996e-02 9.98737011e-03
      2.25779009e+00 9.81944025e-01 7.05731010e+00 5.67632973e-01</_>
    <_>
      2.45536007e-02 1.33749004e-02 1.14266002e+00 9.90571022e-01
      6.59995985e+00 6.62384987e-01 2.09704004e-02 1.14224004e-02
      1.73158002e+00 9.84605014e-01 6.87766981e+00 6.24044001e-01
      2.45901998e-02 1.43275000e-02 8.96817982e-01 9.92353976e-01
      6.45147991e+00 6.72520995e-01 2.44020000e-02 1.31457001e-02
      1.28954005e+00 9.89836991e-01 6.65444994e+00 6.35223985e-01</_>
    <_>
      2.45996993e-02 1.37740001e-02 1.03395998e+00 9.91355002e-01
      6.53116989e+00 6.62787020e-01 2.15218998e-02 1.12218000e-02
      1.70006001e+00 9.85267997e-01 6.88300991e+00 6.25663996e-01
      2.47788001e-02 1.46709997e-02 8.79548013e-01 9.92168009e-01
      6.41587019e+00 6.86276972e-01 2.22100001e-02 1.25109004e-02
      1.13471997e+00 9.90427017e-01 6.64871979e+00 6.29146993e-01</_>
    <_>
      2.45220996e-02 1.28541002e-02 1.24609005e+00 9.89535987e-01
      6.65715981e+00 6.40432000e-01 2.17930004e-02 1.10820998e-02
      1.96820998e+00 9.82398987e-01 6.93498993e+00 6.08128011e-01
      2.45223995e-02 1.42304003e-02 9.44849014e-01 9.91751015e-01
      6.45419979e+00 6.67590022e-01 2.20752992e-02 1.23025998e-02
      1.25328004e+00 9.89296019e-01 6.72968006e+00 6.39186978e-01</_>
    <_>
      2.12507006e-02 1.21352999e-02 1.46412003e+00 9.87671971e-01
      6.73290014e+00 6.30782008e-01 1.76545996e-02 1.02663003e-02
      2.10514998e+00 9.81303990e-01 7.00306988e+00 6.24413013e-01
      2.41516996e-02 1.33920005e-02 1.13023996e+00 9.90921021e-01
      6.56866980e+00 6.51320994e-01 2.05706991e-02 1.14022000e-02
      1.53708005e+00 9.87612009e-01 6.85307980e+00 6.36870027e-01</_>
    <_>
      2.25086007e-02 1.26671996e-02 1.49731004e+00 9.86940026e-01
      6.72874022e+00 6.33818984e-01 2.04099007e-02 1.00598000e-02
      2.38106990e+00 9.79609013e-01 7.07954979e+00 5.88546991e-01
      2.37198994e-02 1.33814001e-02 1.16490996e+00 9.90453005e-01
      6.59352016e+00 6.63972974e-01 2.15450991e-02 1.08380001e-02
      1.81991005e+00 9.85011995e-01 6.96725988e+00 6.14839971e-01</_>
    <_>
      2.59035993e-02 1.46372998e-02 9.28125024e-01 9.91653025e-01
      6.42150021e+00 6.81322992e-01 2.58498006e-02 1.35816000e-02
      1.36719000e+00 9.87941980e-01 6.62304020e+00 6.51030004e-01
      2.79495995e-02 1.72674991e-02 6.78635001e-01 9.93844986e-01
      6.12068987e+00 6.86491013e-01 2.70479005e-02 1.48360999e-02
      9.16538000e-01 9.91868019e-01 6.40158987e+00 6.50318980e-01</_>
    <_>
      1.90005992e-02 1.14802001e-02 1.43835998e+00 9.87482011e-01
      6.77196980e+00 6.30463004e-01 1.79379005e-02 1.05651999e-02
      2.16461992e+00 9.81535017e-01 6.96888018e+00 6.11379981e-01
      2.22479999e-02 1.37016000e-02 8.97948980e-01 9.93071973e-01
      6.44232988e+00 6.41780972e-01 2.18966007e-02 1.28706004e-02
      1.30716002e+00 9.89660025e-01 6.63093996e+00 6.13987029e-01</_>
    <_>
      1.40992999e-02 6.65338011e-03 4.83345985e+00 9.77340996e-01
      7.85453987e+00 5.69051981e-01 1.16149997e-02 5.02183987e-03
      7.17021990e+00 9.65122998e-01 8.25454998e+00 5.01052976e-01
      1.29065001e-02 5.71318017e-03 4.35522985e+00 9.78340983e-01
      7.98579979e+00 5.28375030e-01 1.18469996e-02 4.90632001e-03
      8.24024963e+00 9.56816971e-01 8.29146957e+00 4.74482000e-01</_>
    <_>
      1.40992999e-02 6.65338011e-03 4.83345985e+00 9.77340996e-01
      7.85453987e+00 5.69051981e-01 1.16149997e-02 5.02183987e-03
      7.17021990e+00 9.65122998e-01 8.25454998e+00 5.01052976e-01
      1.29065001e-02 5.71318017e-03 4.35522985e+00 9.78340983e-01
      7.98579979e+00 5.28375030e-01 1.18469996e-02 4.90632001e-03
      8.24024963e+00 9.56816971e-01 8.29146957e+00 4.74482000e-01</_>
    <_>
      1.46081997e-02 6.25314983e-03 5.31478977e+00 9.76742029e-01
      7.95677996e+00 5.51896989e-01 1.15868999e-02 4.63123014e-03
      8.43237972e+00 9.56611991e-01 8.38263988e+00 4.77768987e-01
      1.26684997e-02 5.70748001e-03 5.59783983e+00 9.72792029e-01
      8.07376957e+00 5.20258009e-01 1.14994999e-02 4.71789995e-03
      9.44966030e+00 9.52924013e-01 8.38848019e+00 4.74216014e-01</_>
    <_>
      1.35035003e-02 6.11977978e-03 5.26143980e+00 9.78913009e-01
      7.97655010e+00 5.70508003e-01 1.09905005e-02 4.51022014e-03
      8.80313969e+00 9.58468974e-01 8.41051960e+00 4.75205988e-01
      1.24035999e-02 5.56749990e-03 5.89789009e+00 9.73181009e-01
      8.10752010e+00 5.29240012e-01 1.09550999e-02 4.56565991e-03
      9.73198986e+00 9.52701986e-01 8.42156982e+00 4.67572004e-01</_>
    <_>
      1.36722000e-02 6.29246002e-03 4.88681984e+00 9.78457987e-01
      7.91651011e+00 5.58685005e-01 1.14503996e-02 4.69260989e-03
      8.18288040e+00 9.59942997e-01 8.34057045e+00 4.78502005e-01
      1.24575002e-02 5.86903980e-03 4.96313000e+00 9.77077007e-01
      7.99111986e+00 5.24263978e-01 1.12375002e-02 4.78971004e-03
      8.16464996e+00 9.61035013e-01 8.31657982e+00 4.82190013e-01</_>
    <_>
      1.36722000e-02 6.29246002e-03 4.88681984e+00 9.78457987e-01
      7.91651011e+00 5.58685005e-01 1.14503996e-02 4.69260989e-03
      8.18288040e+00 9.59942997e-01 8.34057045e+00 4.78502005e-01
      1.24575002e-02 5.86903980e-03 4.96313000e+00 9.77077007e-01
      7.99111986e+00 5.24263978e-01 1.12375002e-02 4.78971004e-03
      8.16464996e+00 9.61035013e-01 8.31657982e+00 4.82190013e-01</_>
    <_>
      1.36978999e-02 6.58310996e-03 4.64273024e+00 9.79101002e-01
      7.83525991e+00 5.84056020e-01 1.19340001e-02 4.87359986e-03
      7.88683987e+00 9.62827981e-01 8.29232025e+00 4.88940001e-01
      1.31158996e-02 5.97801991e-03 4.57844019e+00 9.78276014e-01
      7.95228004e+00 5.33343971e-01 1.14711998e-02 4.92519978e-03
      7.82255983e+00 9.62716997e-01 8.26846027e+00 4.84681010e-01</_>
    <_>
      1.41840000e-02 6.43240009e-03 4.85754013e+00 9.78949010e-01
      7.88244009e+00 5.73707998e-01 1.16434004e-02 4.75039007e-03
      7.99036980e+00 9.60187972e-01 8.32155991e+00 4.83512014e-01
      1.31182997e-02 5.76535007e-03 5.07118988e+00 9.76159990e-01
      8.01681042e+00 5.28519988e-01 1.17354002e-02 4.85961977e-03
      8.49687958e+00 9.58589971e-01 8.29961967e+00 4.79176998e-01</_>
    <_>
      1.33055001e-02 6.43168017e-03 4.81752014e+00 9.78103995e-01
      7.86511993e+00 5.68524003e-01 1.14580002e-02 4.81273001e-03
      8.02890015e+00 9.58645999e-01 8.31958008e+00 4.98926997e-01
      1.26882996e-02 5.89396013e-03 4.96764994e+00 9.76653993e-01
      7.99090004e+00 5.40085971e-01 1.16899004e-02 4.91032982e-03
      8.66279984e+00 9.57414985e-01 8.30088043e+00 4.92361009e-01</_>
    <_>
      1.35656996e-02 6.54642005e-03 3.86869001e+00 9.82788980e-01
      7.80648994e+00 5.70917010e-01 1.27924997e-02 4.77863010e-03
      6.95319986e+00 9.65013981e-01 8.28631973e+00 4.80428994e-01
      1.32237002e-02 5.88935008e-03 4.63691998e+00 9.78313029e-01
      7.97872019e+00 5.42172015e-01 1.21072996e-02 4.76243999e-03
      8.15019989e+00 9.60547984e-01 8.32318020e+00 4.67954010e-01</_>
    <_>
      1.42614003e-02 6.29128003e-03 3.87767005e+00 9.82239008e-01
      7.86117983e+00 5.69191992e-01 1.10726003e-02 4.92706010e-03
      7.31088018e+00 9.62924004e-01 8.27976036e+00 4.99653995e-01
      1.24805998e-02 5.60670998e-03 5.94260979e+00 9.71446991e-01
      8.10149002e+00 5.29753983e-01 1.13800000e-02 4.76471987e-03
      8.82956982e+00 9.55000997e-01 8.34910965e+00 4.78083014e-01</_>
    <_>
      1.33186001e-02 6.48307987e-03 3.63913012e+00 9.82483983e-01
      7.81025982e+00 5.85632026e-01 1.15432004e-02 4.87098983e-03
      7.28247023e+00 9.65107977e-01 8.29141045e+00 5.03129005e-01
      1.29923001e-02 5.60658984e-03 6.11908007e+00 9.68918979e-01
      8.10534000e+00 5.22024989e-01 1.14978999e-02 4.73032985e-03
      9.11139965e+00 9.55420017e-01 8.36040020e+00 4.76709992e-01</_>
    <_>
      1.26537001e-02 6.39352016e-03 4.57297993e+00 9.80171025e-01
      7.89461994e+00 5.74420989e-01 1.21521000e-02 4.67777019e-03
      8.04555988e+00 9.61592972e-01 8.37434006e+00 4.67507988e-01
      1.24624996e-02 5.78514999e-03 5.11445999e+00 9.76710975e-01
      8.03106022e+00 5.36013007e-01 1.08308000e-02 4.82614012e-03
      8.49664021e+00 9.58768010e-01 8.34480953e+00 4.92623001e-01</_>
    <_>
      1.33995004e-02 6.40022987e-03 4.50047016e+00 9.79517996e-01
      7.87416983e+00 5.76214015e-01 1.15614999e-02 4.81692003e-03
      7.63003016e+00 9.61977005e-01 8.32351971e+00 4.85314995e-01
      1.25786001e-02 5.73245995e-03 5.31026983e+00 9.74698007e-01
      8.05082035e+00 5.38731992e-01 1.15160998e-02 4.76296991e-03
      9.06964016e+00 9.54860985e-01 8.35999966e+00 4.71347004e-01</_>
    <_>
      1.39416000e-02 6.36440003e-03 4.86900997e+00 9.78787005e-01
      7.91277981e+00 5.69563985e-01 1.13396998e-02 4.78764996e-03
      7.90923977e+00 9.63204980e-01 8.34926987e+00 4.87639993e-01
      1.24787996e-02 5.67833008e-03 5.49336004e+00 9.73936975e-01
      8.07818985e+00 5.36168993e-01 1.12554003e-02 4.72598011e-03
      9.10692978e+00 9.56614971e-01 8.37644958e+00 4.71852988e-01</_>
    <_>
      1.31599000e-02 6.45135995e-03 4.01767015e+00 9.82084990e-01
      7.85040998e+00 5.82382977e-01 1.17902998e-02 4.75205993e-03
      7.78296995e+00 9.62540984e-01 8.33979034e+00 4.91138995e-01
      1.25147002e-02 5.54506015e-03 5.82675982e+00 9.72883999e-01
      8.10743046e+00 5.26660979e-01 1.10734003e-02 4.59615979e-03
      9.27138996e+00 9.52960014e-01 8.40598011e+00 4.69110012e-01</_>
    <_>
      1.41164996e-02 6.64569018e-03 3.53659010e+00 9.83422995e-01
      7.79509020e+00 5.80371022e-01 1.24559002e-02 4.76494012e-03
      7.62239981e+00 9.62064028e-01 8.33086014e+00 4.87426013e-01
      1.35839004e-02 5.66346990e-03 6.24548006e+00 9.70372021e-01
      8.09757042e+00 5.06932974e-01 1.18602999e-02 4.79070004e-03
      8.89657021e+00 9.56978023e-01 8.35470009e+00 4.74673003e-01</_>
    <_>
      1.33392997e-02 6.40049018e-03 4.19770002e+00 9.82411981e-01
      7.86500978e+00 5.86216986e-01 1.16659999e-02 4.62830020e-03
      7.86666012e+00 9.62146997e-01 8.37123966e+00 4.89371985e-01
      1.28191998e-02 5.61768003e-03 6.00214005e+00 9.72445011e-01
      8.10727024e+00 5.24330974e-01 1.15758004e-02 4.71042003e-03
      9.37495041e+00 9.54798996e-01 8.39132023e+00 4.70133007e-01</_>
    <_>
      1.35551998e-02 6.65319012e-03 4.06496000e+00 9.81344998e-01
      7.79825020e+00 5.77136993e-01 1.09569002e-02 4.83334018e-03
      7.66987991e+00 9.62184012e-01 8.28643990e+00 4.70052004e-01
      1.26513001e-02 5.53809991e-03 5.23259020e+00 9.74780023e-01
      8.06556988e+00 5.23458004e-01 1.07728997e-02 4.91263997e-03
      7.87727022e+00 9.60138023e-01 8.26900005e+00 4.93790001e-01</_>
    <_>
      1.36551997e-02 6.64121006e-03 4.10827017e+00 9.81085002e-01
      7.80760002e+00 5.76740980e-01 1.11753996e-02 4.95435018e-03
      7.36709976e+00 9.64869022e-01 8.26735020e+00 4.90419000e-01
      1.26855001e-02 5.64505998e-03 5.41916990e+00 9.73887026e-01
      8.05692959e+00 5.14149010e-01 1.13535002e-02 4.95492993e-03
      8.37792015e+00 9.59510982e-01 8.27616978e+00 4.75795001e-01</_>
    <_>
      1.50354002e-02 7.47703994e-03 3.16297007e+00 9.84367013e-01
      7.62072992e+00 5.99982977e-01 1.23517001e-02 5.26456023e-03
      6.07494020e+00 9.68993008e-01 8.16051960e+00 5.07822990e-01
      1.29843000e-02 5.78295020e-03 4.54286003e+00 9.76373971e-01
      7.98060989e+00 5.40673971e-01 1.18121002e-02 5.16186981e-03
      6.88585997e+00 9.63539004e-01 8.18504047e+00 5.01590014e-01</_>
    <_>
      1.42198997e-02 6.90399017e-03 3.51900005e+00 9.83641982e-01
      7.72243977e+00 5.89293003e-01 1.23723000e-02 5.04360022e-03
      7.07099009e+00 9.64945972e-01 8.24151039e+00 4.87529010e-01
      1.22477002e-02 5.58904000e-03 4.89179993e+00 9.75440979e-01
      8.03232002e+00 5.28070986e-01 1.11590996e-02 5.01738023e-03
      7.32608986e+00 9.60515976e-01 8.23575020e+00 4.90162998e-01</_>
    <_>
      1.46043999e-02 7.03854021e-03 3.25907993e+00 9.85306025e-01
      7.70694017e+00 5.76749980e-01 1.13100000e-02 5.02518006e-03
      6.09042978e+00 9.70183015e-01 8.19668007e+00 5.06340027e-01
      1.32371001e-02 5.75381983e-03 4.59738016e+00 9.78218973e-01
      7.98926020e+00 5.41469991e-01 1.22491997e-02 4.91375010e-03
      7.14920998e+00 9.65463996e-01 8.24254990e+00 4.74711001e-01</_>
    <_>
      1.46043999e-02 7.03854021e-03 3.25907993e+00 9.85306025e-01
      7.70694017e+00 5.76749980e-01 1.13100000e-02 5.02518006e-03
      6.09042978e+00 9.70183015e-01 8.19668007e+00 5.06340027e-01
      1.32371001e-02 5.75381983e-03 4.59738016e+00 9.78218973e-01
      7.98926020e+00 5.41469991e-01 1.22491997e-02 4.91375010e-03
      7.14920998e+00 9.65463996e-01 8.24254990e+00 4.74711001e-01</_>
    <_>
      1.49036003e-02 7.44361011e-03 2.46200991e+00 9.87909973e-01
      7.57697010e+00 5.95403016e-01 1.20147001e-02 5.24515985e-03
      5.67192984e+00 9.71406996e-01 8.13197994e+00 5.18853009e-01
      1.32154003e-02 5.86804003e-03 4.76778984e+00 9.75323975e-01
      7.96870995e+00 5.37111998e-01 1.19254999e-02 5.09764999e-03
      6.67931986e+00 9.65134025e-01 8.18754005e+00 4.93297994e-01</_>
    <_>
      1.45001998e-02 7.06201000e-03 3.10577011e+00 9.84354973e-01
      7.69284010e+00 5.98213017e-01 1.18447999e-02 5.13149006e-03
      6.56057978e+00 9.67249990e-01 8.21193027e+00 4.98878002e-01
      1.32908998e-02 5.57693001e-03 5.31148005e+00 9.71938014e-01
      8.05928040e+00 5.14258981e-01 1.13864001e-02 5.03771007e-03
      7.36418009e+00 9.61959004e-01 8.23616028e+00 4.92137998e-01</_>
    <_>
      1.44851999e-02 7.05484999e-03 3.37298012e+00 9.84230995e-01
      7.71152020e+00 5.97028971e-01 1.13473004e-02 5.08669997e-03
      6.60091019e+00 9.67961013e-01 8.21642971e+00 4.88940001e-01
      1.32374000e-02 5.64552005e-03 5.02814007e+00 9.75206017e-01
      8.02900028e+00 5.12476027e-01 1.20374002e-02 4.98723984e-03
      7.30848980e+00 9.62911010e-01 8.23999977e+00 4.70835000e-01</_>
    <_>
      1.59965008e-02 7.81343039e-03 2.29906011e+00 9.88883018e-01
      7.50624990e+00 5.83733976e-01 1.25235002e-02 5.09131001e-03
      5.71807003e+00 9.70044017e-01 8.14894009e+00 5.00177026e-01
      1.35508999e-02 6.06396003e-03 4.61526012e+00 9.77509022e-01
      7.94401979e+00 5.33972979e-01 1.23752998e-02 5.27663017e-03
      6.09426022e+00 9.68750000e-01 8.12989044e+00 5.15057027e-01</_>
    <_>
      1.35283004e-02 6.95628021e-03 2.94512010e+00 9.86796975e-01
      7.67285013e+00 5.99328995e-01 1.12576997e-02 4.92030988e-03
      6.11612988e+00 9.70173001e-01 8.20911980e+00 5.02433002e-01
      1.20665999e-02 5.77312987e-03 4.43110991e+00 9.78570998e-01
      7.97546005e+00 5.40307999e-01 1.11023001e-02 5.02653001e-03
      6.66482019e+00 9.65499997e-01 8.20341969e+00 4.91661996e-01</_>
    <_>
      1.34888999e-02 6.92265015e-03 3.64122009e+00 9.83480990e-01
      7.74498987e+00 5.78822017e-01 1.11395000e-02 4.91063017e-03
      6.71244001e+00 9.67106998e-01 8.25131989e+00 5.06779015e-01
      1.23070003e-02 5.82183991e-03 4.64111996e+00 9.78313982e-01
      7.98434019e+00 5.31454027e-01 1.12274997e-02 5.03998995e-03
      7.03931999e+00 9.64689016e-01 8.21957016e+00 4.96264011e-01</_>
    <_>
      1.35687999e-02 6.82455022e-03 3.41509008e+00 9.85149026e-01
      7.75375986e+00 5.83254993e-01 1.13589000e-02 4.71947016e-03
      6.94251013e+00 9.66463983e-01 8.28269005e+00 4.85545009e-01
      1.23752998e-02 5.57815982e-03 4.79119015e+00 9.77858007e-01
      8.02628994e+00 5.29349983e-01 1.09946998e-02 4.85832011e-03
      6.96274996e+00 9.67698991e-01 8.24038029e+00 4.97036994e-01</_>
    <_>
      1.34437000e-02 7.07506016e-03 2.60818005e+00 9.87933993e-01
      7.64727020e+00 6.07324004e-01 1.16076004e-02 5.03280014e-03
      6.11336994e+00 9.69182014e-01 8.19143009e+00 4.96690005e-01
      1.21921999e-02 5.84767014e-03 4.38569021e+00 9.78384972e-01
      7.94835997e+00 5.40395021e-01 1.11744003e-02 5.12228021e-03
      6.09184980e+00 9.69551980e-01 8.15824986e+00 5.10159016e-01</_>
    <_>
      1.39343999e-02 6.68299990e-03 3.36595988e+00 9.85221982e-01
      7.76272011e+00 5.80856979e-01 1.16873002e-02 5.00606000e-03
      6.92907000e+00 9.67706025e-01 8.23801041e+00 4.85507995e-01
      1.26494002e-02 5.53040020e-03 5.03135014e+00 9.75755990e-01
      8.05725002e+00 5.20385981e-01 1.07842004e-02 4.92485985e-03
      7.18147993e+00 9.63680983e-01 8.24405003e+00 4.99361008e-01</_>
    <_>
      8.34976975e-03 3.68280010e-03 9.09519958e+00 9.52597022e-01
      8.54179955e+00 4.71560001e-01 7.85533991e-03 3.32684000e-03
      1.17500000e+01 9.38526988e-01 8.68688965e+00 4.47641999e-01
      1.04325004e-02 5.44566987e-03 4.42100000e+00 9.80144024e-01
      7.97815990e+00 5.29379010e-01 7.91778043e-03 3.32374009e-03
      1.07289000e+01 9.44271028e-01 8.65005970e+00 4.41298991e-01</_>
    <_>
      8.56337044e-03 3.45491990e-03 1.41955004e+01 9.33688998e-01
      8.73773956e+00 4.55105990e-01 7.95086008e-03 3.16088996e-03
      1.71933002e+01 9.19678986e-01 8.85324001e+00 4.38234001e-01
      9.61393025e-03 5.28044021e-03 4.23619986e+00 9.81148005e-01
      7.99009991e+00 5.40787995e-01 7.85768032e-03 3.09224008e-03
      1.41311998e+01 9.33593988e-01 8.82324982e+00 4.29821014e-01</_>
    <_>
      8.13828968e-03 3.71308997e-03 8.82524967e+00 9.57418025e-01
      8.51764011e+00 4.78013009e-01 7.87742995e-03 3.32916994e-03
      1.16885996e+01 9.41518009e-01 8.68017960e+00 4.42364991e-01
      1.06330002e-02 5.64796990e-03 4.09041977e+00 9.82165992e-01
      7.91293001e+00 5.27231991e-01 7.72446021e-03 3.36608989e-03
      9.89603996e+00 9.51211989e-01 8.63284016e+00 4.52111006e-01</_>
    <_>
      8.21273960e-03 3.39924009e-03 1.26597004e+01 9.39203978e-01
      8.69577980e+00 4.50192004e-01 7.66962999e-03 3.02710012e-03
      1.55220003e+01 9.24286008e-01 8.84539986e+00 4.36892986e-01
      9.46407020e-03 5.18709002e-03 4.25411987e+00 9.81871009e-01
      8.00588036e+00 5.26108027e-01 7.55133992e-03 3.14386003e-03
      1.22665997e+01 9.40026999e-01 8.74822998e+00 4.44117993e-01</_>
    <_>
      8.03099014e-03 3.54964007e-03 9.71098042e+00 9.50428009e-01
      8.58199024e+00 4.57978994e-01 7.32631981e-03 3.28745996e-03
      1.21764002e+01 9.38682973e-01 8.69909954e+00 4.33283001e-01
      9.73245036e-03 5.41363005e-03 4.31602001e+00 9.81235027e-01
      7.96036005e+00 5.13734996e-01 7.27282977e-03 3.38919996e-03
      1.06057997e+01 9.46169972e-01 8.63099957e+00 4.46379006e-01</_>
    <_>
      8.06131028e-03 3.30386008e-03 1.24900999e+01 9.38742995e-01
      8.71273994e+00 4.50724989e-01 7.67969992e-03 3.09535000e-03
      1.54130001e+01 9.19351995e-01 8.83316040e+00 4.27590013e-01
      9.95665975e-03 5.29517978e-03 4.52157021e+00 9.79705989e-01
      8.00174046e+00 5.07654011e-01 7.67969992e-03 3.03404010e-03
      1.25974998e+01 9.34468985e-01 8.78382969e+00 4.30211991e-01</_>
    <_>
      7.86381960e-03 3.40581010e-03 1.30443001e+01 9.40621972e-01
      8.70812988e+00 4.56225991e-01 7.18015991e-03 3.11471010e-03
      1.67684002e+01 9.23114002e-01 8.84700012e+00 4.24430996e-01
      9.22408979e-03 5.09950006e-03 4.66206980e+00 9.79870021e-01
      8.04261971e+00 5.16116023e-01 7.50418985e-03 3.20712989e-03
      1.29434004e+01 9.38115001e-01 8.75345993e+00 4.29012001e-01</_>
    <_>
      8.24480038e-03 3.66997998e-03 9.32810020e+00 9.54032004e-01
      8.53794956e+00 4.57332999e-01 7.61245983e-03 3.20005999e-03
      1.27441998e+01 9.34740007e-01 8.74040985e+00 4.44252014e-01
      1.01065999e-02 5.31144021e-03 4.35337019e+00 9.80741978e-01
      7.99475002e+00 5.30655026e-01 7.58412993e-03 3.38592008e-03
      9.51360035e+00 9.50721979e-01 8.60095024e+00 4.52562004e-01</_>
    <_>
      8.30078032e-03 3.58323008e-03 1.01712999e+01 9.47309971e-01
      8.57896996e+00 4.58925009e-01 7.57391984e-03 3.06410994e-03
      1.42384996e+01 9.21325982e-01 8.81116009e+00 4.21171993e-01
      1.08663002e-02 5.63469017e-03 4.40877008e+00 9.78188992e-01
      7.94025993e+00 5.26049018e-01 7.91260973e-03 3.29673989e-03
      1.00830002e+01 9.44061995e-01 8.61410046e+00 4.30215001e-01</_>
    <_>
      8.28273967e-03 3.72405001e-03 8.13496971e+00 9.57718015e-01
      8.47638035e+00 4.64527994e-01 7.41046993e-03 3.23811010e-03
      1.10825996e+01 9.42593992e-01 8.68733978e+00 4.42624003e-01
      1.10636996e-02 5.89727983e-03 4.03118992e+00 9.81653988e-01
      7.86476994e+00 5.48856974e-01 7.88738020e-03 3.51035991e-03
      8.58749962e+00 9.54505026e-01 8.50852966e+00 4.50787991e-01</_>
    <_>
      8.48679990e-03 3.37906997e-03 1.24368000e+01 9.35054004e-01
      8.70462990e+00 4.42532003e-01 7.52170011e-03 3.04399990e-03
      1.61744003e+01 9.21019018e-01 8.87430000e+00 4.26584005e-01
      1.03214998e-02 5.40213007e-03 4.27896976e+00 9.78868008e-01
      7.98529005e+00 5.32158017e-01 7.81937037e-03 3.30846012e-03
      1.08192997e+01 9.42596972e-01 8.66333008e+00 4.34951007e-01</_>
    <_>
      8.09357967e-03 3.35876993e-03 1.11196003e+01 9.43579972e-01
      8.65985966e+00 4.59333003e-01 7.77145987e-03 3.12006008e-03
      1.35850000e+01 9.28758025e-01 8.77742958e+00 4.24138993e-01
      1.01313004e-02 5.53537998e-03 3.88679004e+00 9.82604980e-01
      7.91090012e+00 5.15538990e-01 7.65236979e-03 3.23823001e-03
      1.16021004e+01 9.41192985e-01 8.68745041e+00 4.29253995e-01</_>
    <_>
      7.90216029e-03 3.58958007e-03 9.24864006e+00 9.52292979e-01
      8.51644039e+00 4.48253989e-01 6.96290983e-03 3.27838003e-03
      1.07187004e+01 9.41161990e-01 8.64548016e+00 4.45412993e-01
      1.15497997e-02 6.46146014e-03 2.40894008e+00 9.89457011e-01
      7.60484982e+00 5.54352999e-01 7.46159023e-03 3.59065994e-03
      8.33368969e+00 9.52802002e-01 8.46397018e+00 4.59390014e-01</_>
    <_>
      7.80293997e-03 3.38556990e-03 1.12631998e+01 9.38623011e-01
      8.62617016e+00 4.41381007e-01 7.15977000e-03 3.02942004e-03
      1.40129995e+01 9.18676972e-01 8.78668976e+00 4.21887994e-01
      1.08321998e-02 6.16216986e-03 2.76055002e+00 9.87686992e-01
      7.69648981e+00 5.46855986e-01 7.24019995e-03 3.40403989e-03
      9.57557964e+00 9.42489028e-01 8.55994034e+00 4.39038008e-01</_>
    <_>
      8.09832010e-03 3.93074984e-03 7.59895992e+00 9.63871002e-01
      8.42483044e+00 4.91371989e-01 7.39182997e-03 3.41465999e-03
      1.11745005e+01 9.44590986e-01 8.65237999e+00 4.64156002e-01
      1.00322999e-02 5.49184997e-03 4.23184013e+00 9.82042015e-01
      7.96782017e+00 5.48125982e-01 7.45191984e-03 3.61817004e-03
      8.23029041e+00 9.58962977e-01 8.49545002e+00 4.60572988e-01</_>
    <_>
      8.29984993e-03 4.03460022e-03 7.52882004e+00 9.63580012e-01
      8.39997005e+00 4.87125993e-01 7.59750977e-03 3.50807002e-03
      1.07758999e+01 9.48504984e-01 8.62281036e+00 4.70185012e-01
      1.01755997e-02 5.57356980e-03 4.14416981e+00 9.82786000e-01
      7.94138002e+00 5.46279013e-01 7.80675979e-03 3.73839005e-03
      7.92490005e+00 9.61959004e-01 8.45810032e+00 4.78850007e-01</_>
    <_>
      8.93233996e-03 3.58936004e-03 1.22416000e+01 9.39476013e-01
      8.64758968e+00 4.66886014e-01 8.29645991e-03 3.08905006e-03
      1.72444000e+01 9.19737995e-01 8.86668968e+00 4.41529989e-01
      1.06616998e-02 5.29866992e-03 4.93616009e+00 9.78830993e-01
      8.05959988e+00 5.20274997e-01 8.09886027e-03 3.39076994e-03
      1.03360004e+01 9.52042997e-01 8.63903046e+00 4.58963007e-01</_>
    <_>
      8.86278041e-03 3.91016016e-03 7.67812014e+00 9.59977984e-01
      8.42148018e+00 4.75567013e-01 8.07651971e-03 3.36076994e-03
      1.04452000e+01 9.47669029e-01 8.65707016e+00 4.36722994e-01
      1.14455996e-02 5.94158983e-03 3.10256004e+00 9.85413015e-01
      7.79344988e+00 5.60554981e-01 8.36579036e-03 3.81052005e-03
      7.64815998e+00 9.61157024e-01 8.44215012e+00 4.65234995e-01</_>
    <_>
      9.12434980e-03 3.49424011e-03 1.17997999e+01 9.41549003e-01
      8.65118980e+00 4.56375986e-01 8.22541956e-03 3.20963003e-03
      1.45972004e+01 9.28167999e-01 8.78763962e+00 4.45113003e-01
      9.74833034e-03 5.27627021e-03 4.09569979e+00 9.81369972e-01
      7.98866987e+00 5.35825014e-01 7.95284007e-03 3.30898003e-03
      1.15241003e+01 9.44911003e-01 8.68542957e+00 4.50078994e-01</_>
    <_>
      9.09479987e-03 3.57202999e-03 9.64027023e+00 9.55958009e-01
      8.59132957e+00 4.66437012e-01 8.37427005e-03 3.08534992e-03
      1.31552000e+01 9.38512981e-01 8.80502987e+00 4.34816003e-01
      1.08085005e-02 5.80083998e-03 3.40569997e+00 9.85055983e-01
      7.84821987e+00 5.55963993e-01 8.35037977e-03 3.43447994e-03
      9.09078026e+00 9.57319021e-01 8.59138012e+00 4.57394004e-01</_>
    <_>
      8.34780000e-03 3.80333001e-03 7.70598984e+00 9.62015986e-01
      8.46588993e+00 4.88653988e-01 8.03888962e-03 3.22582992e-03
      1.16468000e+01 9.42587018e-01 8.71403980e+00 4.39904004e-01
      1.12408996e-02 5.72093017e-03 3.83537006e+00 9.82567012e-01
      7.89413977e+00 5.31367004e-01 8.23996961e-03 3.59493005e-03
      7.77100992e+00 9.61838007e-01 8.49034023e+00 4.63661999e-01</_>
    <_>
      8.54214001e-03 3.70222004e-03 9.80533981e+00 9.52291012e-01
      8.56982040e+00 4.72066998e-01 7.68595003e-03 3.11117992e-03
      1.42819996e+01 9.33398008e-01 8.82660007e+00 4.38728988e-01
      1.01755997e-02 5.37869986e-03 4.59729004e+00 9.78794992e-01
      8.01301003e+00 5.24268985e-01 7.71732023e-03 3.58689995e-03
      9.01856041e+00 9.58332002e-01 8.55167007e+00 4.67615008e-01</_>
    <_>
      8.19726009e-03 3.59181990e-03 9.47809029e+00 9.54568982e-01
      8.57835960e+00 4.79371011e-01 7.68790022e-03 3.12146009e-03
      1.36170998e+01 9.34527993e-01 8.79111004e+00 4.42490995e-01
      9.87518020e-03 5.35426987e-03 4.32102013e+00 9.82044995e-01
      7.99669981e+00 5.34704983e-01 7.54133984e-03 3.48252989e-03
      8.92119980e+00 9.56854999e-01 8.57668018e+00 4.74822998e-01</_>
    <_>
      8.46248027e-03 3.44122993e-03 1.24766998e+01 9.44329977e-01
      8.70748043e+00 4.74447995e-01 7.80163985e-03 2.98902998e-03
      1.76278992e+01 9.18626010e-01 8.91469002e+00 4.34787005e-01
      9.73031018e-03 5.14414022e-03 4.65239000e+00 9.80341017e-01
      8.06017017e+00 5.53900003e-01 7.73965009e-03 3.32930009e-03
      1.12412004e+01 9.47848022e-01 8.69050980e+00 4.52499002e-01</_>
    <_>
      8.76376033e-03 3.65424994e-03 9.22054005e+00 9.53392982e-01
      8.54969025e+00 4.66313004e-01 7.96035957e-03 3.17200995e-03
      1.37799997e+01 9.29494977e-01 8.77680016e+00 4.35364991e-01
      9.77525022e-03 5.32385986e-03 4.35094976e+00 9.82334018e-01
      8.00070953e+00 5.34857988e-01 8.19033012e-03 3.47353006e-03
      8.99186993e+00 9.52766001e-01 8.56204987e+00 4.53193009e-01</_>
    <_>
      1.42676001e-02 6.49781991e-03 4.34658003e+00 9.80239987e-01
      7.83085012e+00 5.72997987e-01 1.13586001e-02 5.20636979e-03
      7.38290024e+00 9.59379017e-01 8.19495010e+00 4.88077998e-01
      1.29896998e-02 5.57164988e-03 5.20501995e+00 9.73819017e-01
      8.05811977e+00 5.18236995e-01 1.11803999e-02 4.84851003e-03
      7.72298002e+00 9.60372984e-01 8.29189968e+00 4.86582994e-01</_>
    <_>
      1.50097003e-02 6.91857003e-03 2.95279002e+00 9.87655997e-01
      7.68865013e+00 5.95314980e-01 1.19463997e-02 5.20475022e-03
      6.51087999e+00 9.67235029e-01 8.16734982e+00 4.90386009e-01
      1.31385997e-02 5.77207003e-03 4.50492001e+00 9.79156017e-01
      7.97347021e+00 5.52088022e-01 1.18445996e-02 5.05315978e-03
      6.10604000e+00 9.72045004e-01 8.18239975e+00 5.00042975e-01</_>
    <_>
      1.40527003e-02 6.57750014e-03 4.01245022e+00 9.82110977e-01
      7.79933977e+00 5.75884998e-01 1.14575997e-02 5.16392989e-03
      7.05229998e+00 9.66435015e-01 8.19511986e+00 4.91845995e-01
      1.23025998e-02 5.52927004e-03 4.82589006e+00 9.77653980e-01
      8.04691982e+00 5.27604997e-01 1.11560002e-02 4.95656021e-03
      7.25583982e+00 9.66733992e-01 8.25646019e+00 4.95543987e-01</_>
    <_>
      1.32697998e-02 6.42296020e-03 3.96746993e+00 9.83560026e-01
      7.81580019e+00 5.83230019e-01 1.14842998e-02 5.08718984e-03
      7.35570002e+00 9.65636015e-01 8.21940994e+00 4.76704001e-01
      1.20146004e-02 5.42001007e-03 4.66920996e+00 9.78744984e-01
      8.05274010e+00 5.37497997e-01 1.09309005e-02 4.91967006e-03
      7.26567984e+00 9.65323985e-01 8.26564026e+00 4.78287011e-01</_>
    <_>
      1.39010996e-02 6.59713987e-03 3.79169989e+00 9.84097004e-01
      7.79991007e+00 5.72762012e-01 1.15238996e-02 5.15950983e-03
      7.53552008e+00 9.64356005e-01 8.20258999e+00 4.90808994e-01
      1.26251001e-02 5.44263003e-03 5.48740005e+00 9.74686980e-01
      8.08570957e+00 5.17951012e-01 1.14786997e-02 4.86226985e-03
      7.83365011e+00 9.61884975e-01 8.29071999e+00 4.74352002e-01</_>
    <_>
      1.42809004e-02 6.70887996e-03 3.33405995e+00 9.85623002e-01
      7.74288988e+00 5.88477015e-01 1.19842999e-02 5.18502016e-03
      6.95378017e+00 9.65968013e-01 8.17675972e+00 4.73022014e-01
      1.29666999e-02 5.41139999e-03 4.81612015e+00 9.76819992e-01
      8.05375004e+00 5.29587984e-01 1.20283002e-02 4.87668021e-03
      6.85481024e+00 9.66709018e-01 8.25790024e+00 4.80015993e-01</_>
    <_>
      1.40353004e-02 6.75567007e-03 3.49562001e+00 9.84580994e-01
      7.73988008e+00 5.86229026e-01 1.18385004e-02 5.28622977e-03
      6.89958000e+00 9.66096997e-01 8.15826988e+00 4.91492003e-01
      1.31997000e-02 5.46807982e-03 5.11195993e+00 9.76071000e-01
      8.06184959e+00 5.26147008e-01 1.16528999e-02 4.99969022e-03
      7.21198988e+00 9.64407980e-01 8.23933029e+00 4.91762996e-01</_>
    <_>
      1.38226002e-02 6.66385982e-03 3.37087989e+00 9.85038996e-01
      7.77042007e+00 5.93780994e-01 1.17002996e-02 5.09297987e-03
      7.51954985e+00 9.63759005e-01 8.21770000e+00 4.69904989e-01
      1.22151999e-02 5.41386008e-03 5.29315996e+00 9.76033986e-01
      8.07322979e+00 5.20392001e-01 1.17466999e-02 4.78550978e-03
      7.45635986e+00 9.63177025e-01 8.29148960e+00 4.71576005e-01</_>
    <_>
      1.52933002e-02 6.74855011e-03 2.73534012e+00 9.88156021e-01
      7.70396996e+00 5.95396996e-01 1.22667002e-02 5.15074981e-03
      6.54252005e+00 9.68110025e-01 8.17006969e+00 4.95965987e-01
      1.28456997e-02 5.72940009e-03 4.92008018e+00 9.75955009e-01
      7.99035978e+00 5.44872999e-01 1.16440998e-02 5.10771014e-03
      6.35726023e+00 9.69740987e-01 8.18941021e+00 5.00401974e-01</_>
    <_>
      1.39888003e-02 6.41294010e-03 3.79101992e+00 9.84223008e-01
      7.83106995e+00 5.74047029e-01 1.13826003e-02 5.18803019e-03
      7.43724012e+00 9.64002013e-01 8.21142960e+00 4.82740998e-01
      1.27715003e-02 5.42645995e-03 5.47455978e+00 9.74291980e-01
      8.08743954e+00 5.27552009e-01 1.11568002e-02 4.79807984e-03
      7.79632998e+00 9.62751985e-01 8.30012035e+00 4.88445014e-01</_>
    <_>
      1.41164996e-02 6.38211984e-03 4.07428980e+00 9.83622015e-01
      7.84465981e+00 5.88841021e-01 1.14086997e-02 5.05932979e-03
      7.90738010e+00 9.64573979e-01 8.24559975e+00 4.90922004e-01
      1.25358999e-02 5.43991011e-03 5.29254007e+00 9.76163983e-01
      8.07312965e+00 5.30019999e-01 1.13231000e-02 4.85404022e-03
      7.63787985e+00 9.65228975e-01 8.29001045e+00 4.83429998e-01</_>
    <_>
      1.48107000e-02 6.56543020e-03 3.44371009e+00 9.85400021e-01
      7.78020000e+00 5.74283004e-01 1.14537999e-02 5.27571980e-03
      6.80596018e+00 9.67579007e-01 8.15345955e+00 4.99100000e-01
      1.26970001e-02 5.63562987e-03 5.24139023e+00 9.74982023e-01
      8.03563976e+00 5.28217018e-01 1.16784004e-02 4.90265992e-03
      7.35173988e+00 9.63133991e-01 8.25926971e+00 4.80827004e-01</_>
    <_>
      1.40268998e-02 6.79280004e-03 3.73492002e+00 9.83902991e-01
      7.76468992e+00 5.80603004e-01 1.19915996e-02 4.95694997e-03
      7.21515989e+00 9.63398993e-01 8.21825981e+00 4.69983011e-01
      1.32854003e-02 5.56439999e-03 4.61831999e+00 9.77595985e-01
      8.01508045e+00 5.30250013e-01 1.12945996e-02 4.89225984e-03
      6.90122986e+00 9.65201974e-01 8.24505997e+00 4.91513014e-01</_>
    <_>
      1.50188999e-02 6.53298013e-03 3.95423007e+00 9.81383026e-01
      7.81227016e+00 5.77950001e-01 1.17942002e-02 5.18186018e-03
      7.02647018e+00 9.61782992e-01 8.18682957e+00 4.87967998e-01
      1.30719002e-02 5.67424996e-03 4.77824020e+00 9.74725008e-01
      8.00059986e+00 5.28921008e-01 1.18891001e-02 4.97017987e-03
      7.30949020e+00 9.62538004e-01 8.25228024e+00 4.81207013e-01</_>
    <_>
      1.63956005e-02 7.73202023e-03 2.26252007e+00 9.89354014e-01
      7.52501011e+00 6.12250984e-01 1.33090001e-02 5.52666979e-03
      5.36837006e+00 9.72335994e-01 8.06896973e+00 4.98129010e-01
      1.44491997e-02 6.30328013e-03 4.03944016e+00 9.80332971e-01
      7.87633991e+00 5.61469018e-01 1.27592999e-02 5.36203990e-03
      5.32685995e+00 9.71642971e-01 8.10774040e+00 5.03066003e-01</_>
    <_>
      1.56848002e-02 7.30068004e-03 3.29128003e+00 9.84867990e-01
      7.69034004e+00 5.83655000e-01 1.27247004e-02 5.24959015e-03
      6.22945023e+00 9.66314018e-01 8.17002010e+00 4.79411006e-01
      1.38843004e-02 5.90942986e-03 4.31180000e+00 9.78550017e-01
      7.95011997e+00 5.51903009e-01 1.28257005e-02 5.05755981e-03
      6.69314003e+00 9.66457009e-01 8.23470974e+00 4.91623998e-01</_>
    <_>
      1.40580004e-02 6.73779007e-03 4.17595005e+00 9.79134023e-01
      7.79284000e+00 5.83513021e-01 1.20529002e-02 5.05275000e-03
      6.95542002e+00 9.61506009e-01 8.22222042e+00 4.97705996e-01
      1.35265999e-02 6.12920988e-03 4.30172014e+00 9.79017019e-01
      7.92557001e+00 5.56967974e-01 1.21443998e-02 5.09373005e-03
      7.46808004e+00 9.59012985e-01 8.25133038e+00 4.94785011e-01</_>
    <_>
      1.35070002e-02 6.63009007e-03 3.94389009e+00 9.80731010e-01
      7.79432011e+00 5.78553021e-01 1.22549003e-02 4.99932002e-03
      6.55218983e+00 9.65004981e-01 8.22980976e+00 5.05751014e-01
      1.32990004e-02 5.92991989e-03 4.17398024e+00 9.80952978e-01
      7.94878006e+00 5.55092990e-01 1.13038998e-02 4.84071020e-03
      7.17007017e+00 9.62902009e-01 8.28355026e+00 4.95146990e-01</_>
    <_>
      1.44469002e-02 6.87487982e-03 4.59749985e+00 9.77367997e-01
      7.77715015e+00 5.85348010e-01 1.24559999e-02 5.43981977e-03
      6.37738991e+00 9.67589021e-01 8.11258030e+00 5.10145009e-01
      1.42203998e-02 6.07411982e-03 3.56016994e+00 9.82207000e-01
      7.88343000e+00 5.47451973e-01 1.20609999e-02 5.10240998e-03
      7.07149982e+00 9.64331985e-01 8.22218990e+00 4.95436996e-01</_>
    <_>
      1.45084001e-02 6.96477015e-03 3.73543000e+00 9.82114971e-01
      7.72419977e+00 5.87283015e-01 1.23349000e-02 5.23072015e-03
      6.28162003e+00 9.67451990e-01 8.15454960e+00 5.10773003e-01
      1.38950003e-02 6.11414015e-03 3.90057993e+00 9.80786979e-01
      7.88862991e+00 5.67008018e-01 1.24896001e-02 5.05272998e-03
      6.57668018e+00 9.64845002e-01 8.21014977e+00 5.01780987e-01</_>
    <_>
      1.49940997e-02 6.62348000e-03 4.17785978e+00 9.80605006e-01
      7.81999016e+00 5.87755024e-01 1.22627998e-02 5.08551020e-03
      6.50379992e+00 9.66915011e-01 8.19324017e+00 4.92215991e-01
      1.35535998e-02 5.98555990e-03 4.00274992e+00 9.80688989e-01
      7.93132019e+00 5.40575981e-01 1.19147999e-02 4.98721004e-03
      6.87498999e+00 9.65928972e-01 8.24680996e+00 5.00945985e-01</_>
    <_>
      1.33557003e-02 6.85916003e-03 4.28246021e+00 9.79538977e-01
      7.78622007e+00 5.89951992e-01 1.23003004e-02 5.03596989e-03
      7.11618996e+00 9.62706983e-01 8.24094963e+00 4.90691990e-01
      1.39133995e-02 5.93149010e-03 4.08667994e+00 9.80704010e-01
      7.94887018e+00 5.50081015e-01 1.23982998e-02 4.85796016e-03
      7.59345007e+00 9.60856020e-01 8.30836010e+00 4.77721989e-01</_>
    <_>
      1.35164997e-02 6.70491019e-03 4.73480988e+00 9.77041006e-01
      7.83271980e+00 5.68608999e-01 1.18968999e-02 5.08236978e-03
      7.10988998e+00 9.62773025e-01 8.23707962e+00 5.02578974e-01
      1.32847996e-02 6.15291018e-03 4.04038000e+00 9.80850995e-01
      7.92194986e+00 5.64127982e-01 1.20895002e-02 4.90741013e-03
      7.60119009e+00 9.60964978e-01 8.29642010e+00 5.05460978e-01</_>
    <_>
      1.30372001e-02 6.70253998e-03 4.15546989e+00 9.79831994e-01
      7.78726006e+00 5.87665975e-01 1.24608995e-02 5.04453015e-03
      7.04149008e+00 9.61991012e-01 8.24438953e+00 4.97808009e-01
      1.43293999e-02 5.92926005e-03 4.32430983e+00 9.78193998e-01
      7.95887995e+00 5.51479995e-01 1.14449998e-02 4.90859989e-03
      7.44799995e+00 9.59909976e-01 8.28415966e+00 4.96717006e-01</_>
    <_>
      1.19650997e-02 6.48787012e-03 2.39626002e+00 9.90610003e-01
      7.69729996e+00 5.74483991e-01 9.51667037e-03 4.23017982e-03
      9.24825954e+00 9.59531009e-01 8.47426987e+00 4.92958993e-01
      1.03083998e-02 5.14772022e-03 7.48672009e+00 9.69862998e-01
      8.24116039e+00 5.42133987e-01 9.36680008e-03 4.23132023e-03
      7.85721016e+00 9.64556992e-01 8.43933010e+00 4.93923008e-01</_>
    <_>
      1.45990001e-02 7.58842984e-03 2.51764989e+00 9.86072004e-01
      7.49769020e+00 5.86301982e-01 1.25596002e-02 5.36660990e-03
      5.85887003e+00 9.62987006e-01 8.03987980e+00 4.76711005e-01
      1.29596004e-02 6.37613004e-03 4.59563017e+00 9.73371029e-01
      7.79869986e+00 5.54494977e-01 1.14879999e-02 5.34819020e-03
      6.18489981e+00 9.61700976e-01 8.05793953e+00 5.04629016e-01</_>
    <_>
      1.57078002e-02 7.87341967e-03 2.47960997e+00 9.86253977e-01
      7.46633005e+00 6.05473995e-01 1.17445998e-02 5.46209980e-03
      5.23123980e+00 9.68810976e-01 8.00685024e+00 4.96100992e-01
      1.35963000e-02 6.36515999e-03 4.66509008e+00 9.73199010e-01
      7.81723022e+00 5.40081024e-01 1.11320000e-02 5.57084009e-03
      5.80333996e+00 9.61691022e-01 8.00133991e+00 5.19419014e-01</_>
    <_>
      1.44820996e-02 7.33193988e-03 2.75805998e+00 9.84139025e-01
      7.54454994e+00 5.64134002e-01 1.17876995e-02 5.47238020e-03
      5.78982019e+00 9.61778998e-01 8.02505016e+00 4.96605992e-01
      1.27013000e-02 6.37779012e-03 4.40284014e+00 9.74125028e-01
      7.77929020e+00 5.46124995e-01 1.19772004e-02 5.35167987e-03
      6.25590992e+00 9.59872007e-01 8.05088043e+00 4.95656013e-01</_>
    <_>
      1.38370004e-02 7.10827997e-03 3.22546005e+00 9.82322991e-01
      7.61441994e+00 5.64507008e-01 1.12450002e-02 5.28154988e-03
      5.73245001e+00 9.63531017e-01 8.05618000e+00 4.97280985e-01
      1.27042001e-02 6.28978992e-03 4.08752012e+00 9.76033986e-01
      7.79202986e+00 5.34662008e-01 1.12504000e-02 5.27154980e-03
      6.02763987e+00 9.60937023e-01 8.05943966e+00 4.76348013e-01</_>
    <_>
      1.36521002e-02 7.33840000e-03 2.58871007e+00 9.85349000e-01
      7.53424978e+00 5.82756996e-01 1.17044998e-02 5.26518002e-03
      5.09012985e+00 9.67790008e-01 8.01272011e+00 4.84867990e-01
      1.26595004e-02 6.34911004e-03 4.04977989e+00 9.76282001e-01
      7.77298021e+00 5.43519974e-01 1.16593000e-02 5.10971993e-03
      6.20208979e+00 9.61978972e-01 8.08740044e+00 4.98484999e-01</_>
    <_>
      1.30249998e-02 6.79324009e-03 3.56638002e+00 9.79619026e-01
      7.69729996e+00 5.63733995e-01 1.12862997e-02 5.00370981e-03
      5.86151981e+00 9.63567019e-01 8.10361004e+00 4.85747993e-01
      1.26790004e-02 6.02851994e-03 4.17372990e+00 9.74483013e-01
      7.83345985e+00 5.33197999e-01 1.07485000e-02 4.92632017e-03
      6.71112013e+00 9.56959009e-01 8.15272999e+00 4.85478997e-01</_>
    <_>
      1.53623996e-02 8.08838010e-03 2.13024998e+00 9.87034976e-01
      7.36778021e+00 5.93526006e-01 1.25754997e-02 6.13366999e-03
      4.04292011e+00 9.75130022e-01 7.78030014e+00 4.94268000e-01
      1.32509004e-02 6.64982991e-03 3.48664999e+00 9.77469027e-01
      7.65450001e+00 5.49858987e-01 1.10729998e-02 5.70278987e-03
      5.03466988e+00 9.68048990e-01 7.91253996e+00 5.12284994e-01</_>
    <_>
      1.41331004e-02 7.29769981e-03 2.73270011e+00 9.84273016e-01
      7.55124998e+00 5.59370995e-01 1.14583001e-02 5.80913993e-03
      4.58265018e+00 9.71826017e-01 7.88918018e+00 4.96977001e-01
      1.26293004e-02 6.43078983e-03 3.85356998e+00 9.76481020e-01
      7.72766018e+00 5.38223982e-01 1.11168995e-02 5.42740012e-03
      6.04201984e+00 9.61070001e-01 8.00619984e+00 4.85184997e-01</_>
    <_>
      1.45447999e-02 7.49542005e-03 2.70116997e+00 9.84251022e-01
      7.47902012e+00 5.57905972e-01 1.14673004e-02 5.72990021e-03
      4.33390999e+00 9.68948007e-01 7.85720015e+00 5.01469016e-01
      1.34842005e-02 6.87303999e-03 3.00575995e+00 9.82160985e-01
      7.60123014e+00 5.34143984e-01 1.13770002e-02 5.55983000e-03
      4.60406017e+00 9.69729006e-01 7.90077019e+00 4.96486992e-01</_>
    <_>
      1.41057000e-02 7.91420974e-03 2.21705008e+00 9.86182988e-01
      7.37869978e+00 5.78522027e-01 1.17036998e-02 5.73879993e-03
      4.27924013e+00 9.73488986e-01 7.86584997e+00 5.25269985e-01
      1.33822998e-02 6.82805013e-03 3.17948008e+00 9.80777979e-01
      7.64090014e+00 5.59868991e-01 1.12955999e-02 5.49330981e-03
      4.38732004e+00 9.72227991e-01 7.90386009e+00 5.08764982e-01</_>
    <_>
      1.45947998e-02 7.89429992e-03 2.31908011e+00 9.87258017e-01
      7.40969992e+00 5.88553011e-01 1.17680002e-02 5.73087018e-03
      4.38320017e+00 9.72774982e-01 7.90958023e+00 5.19562006e-01
      1.28354002e-02 6.55834982e-03 3.70644999e+00 9.79062021e-01
      7.74080992e+00 5.41127026e-01 1.15385000e-02 5.37646981e-03
      5.54418993e+00 9.64591980e-01 8.00067997e+00 4.96856987e-01</_>
    <_>
      1.38103999e-02 7.05061015e-03 3.31041002e+00 9.81022000e-01
      7.65348005e+00 5.76184988e-01 1.15000997e-02 5.24776988e-03
      5.78391981e+00 9.65651989e-01 8.06400013e+00 4.99152988e-01
      1.33207003e-02 6.18267013e-03 4.52966976e+00 9.72558975e-01
      7.84193993e+00 5.14245987e-01 1.07541000e-02 5.12961997e-03
      6.38467979e+00 9.60069001e-01 8.10093975e+00 4.95480001e-01</_>
    <_>
      1.39557999e-02 7.46162003e-03 3.17486000e+00 9.81261015e-01
      7.55238008e+00 5.71740985e-01 1.15238996e-02 5.47405984e-03
      5.23734999e+00 9.67024028e-01 7.97621012e+00 4.94551003e-01
      1.33523997e-02 6.40148995e-03 4.02888012e+00 9.75794017e-01
      7.73457003e+00 5.29455006e-01 1.13386996e-02 5.28491009e-03
      6.20459986e+00 9.60326016e-01 8.03176022e+00 4.90159005e-01</_>
    <_>
      1.46540003e-02 7.55769992e-03 2.99359012e+00 9.81792986e-01
      7.51468992e+00 5.74720979e-01 1.16109001e-02 5.54253021e-03
      4.82363987e+00 9.69874024e-01 7.93556976e+00 5.06763995e-01
      1.31531004e-02 6.37413980e-03 3.87079000e+00 9.75377023e-01
      7.72318983e+00 5.55512011e-01 1.14246001e-02 5.41386008e-03
      6.10240984e+00 9.60417986e-01 8.00067997e+00 4.89493996e-01</_>
    <_>
      1.32986000e-02 7.12314015e-03 3.07013988e+00 9.81324017e-01
      7.58832979e+00 5.82117975e-01 1.10291000e-02 5.46889985e-03
      4.82058001e+00 9.68546987e-01 7.95731020e+00 5.17068028e-01
      1.38614997e-02 6.63824985e-03 4.02591991e+00 9.74618971e-01
      7.73913002e+00 5.18745005e-01 1.10291000e-02 5.22870990e-03
      5.98445988e+00 9.61597025e-01 8.03518963e+00 4.86182004e-01</_>
    <_>
      1.41820004e-02 6.96115009e-03 2.97218990e+00 9.83573973e-01
      7.65054989e+00 5.69171011e-01 1.18052000e-02 5.30873006e-03
      5.95413017e+00 9.63662028e-01 8.09068966e+00 4.98645008e-01
      1.27333999e-02 6.17600000e-03 4.33267021e+00 9.73273993e-01
      7.85618019e+00 5.43304980e-01 1.11862002e-02 5.31121017e-03
      5.95999002e+00 9.64626014e-01 8.09160995e+00 5.07669985e-01</_>
    <_>
      1.28456997e-02 6.48985012e-03 3.23572993e+00 9.82375026e-01
      7.74157000e+00 5.61218977e-01 1.13412999e-02 5.19020995e-03
      6.21271992e+00 9.63783979e-01 8.12592030e+00 4.92514998e-01
      1.25828004e-02 5.92879998e-03 4.63805008e+00 9.74012971e-01
      7.90565014e+00 5.34502983e-01 1.12573002e-02 4.92708990e-03
      6.59574986e+00 9.61022019e-01 8.18525982e+00 4.91501004e-01</_>
    <_>
      1.28840003e-02 6.84551010e-03 3.46028996e+00 9.80374992e-01
      7.69763994e+00 5.54578006e-01 1.05136996e-02 5.13161998e-03
      5.95674992e+00 9.63824987e-01 8.08710957e+00 5.15434027e-01
      1.20994998e-02 6.08902005e-03 4.61080980e+00 9.71478999e-01
      7.84412003e+00 5.32630026e-01 1.03359995e-02 5.09000011e-03
      6.56962013e+00 9.58629012e-01 8.10319996e+00 4.90940988e-01</_>
    <_>
      1.31524000e-02 6.94354018e-03 2.96216989e+00 9.83322024e-01
      7.62782001e+00 5.64782977e-01 1.12418998e-02 5.17959008e-03
      5.71631002e+00 9.65853989e-01 8.06828976e+00 5.03793001e-01
      1.19687002e-02 5.98662021e-03 4.16774988e+00 9.75843012e-01
      7.84139013e+00 5.39958000e-01 1.08736996e-02 5.24407998e-03
      6.02907991e+00 9.62643027e-01 8.05974960e+00 4.91576999e-01</_>
    <_>
      1.53623000e-02 7.97038991e-03 1.65901005e+00 9.90383983e-01
      7.31107998e+00 6.16881013e-01 1.16274003e-02 5.97433001e-03
      3.77766991e+00 9.75077987e-01 7.80282021e+00 5.18442988e-01
      1.38245998e-02 6.46843016e-03 3.42102003e+00 9.79745984e-01
      7.72264004e+00 5.53315997e-01 1.17186001e-02 5.72967017e-03
      4.35122013e+00 9.71979976e-01 7.87888002e+00 5.20394981e-01</_>
    <_>
      1.32392002e-02 6.67151995e-03 3.52339005e+00 9.82065022e-01
      7.73042011e+00 5.75784028e-01 1.11499997e-02 4.96627018e-03
      6.75946999e+00 9.59778011e-01 8.20351028e+00 4.80854005e-01
      1.24704996e-02 5.62812015e-03 4.70217991e+00 9.72285986e-01
      7.97554016e+00 5.33465981e-01 1.11063002e-02 4.97268001e-03
      6.70454979e+00 9.61027026e-01 8.19787979e+00 4.89535004e-01</_>
    <_>
      1.27264000e-02 6.41307980e-03 4.35879993e+00 9.76466000e-01
      7.82339001e+00 5.74759007e-01 1.08588999e-02 4.68401983e-03
      6.44734001e+00 9.61808026e-01 8.21802998e+00 4.83148992e-01
      1.21462997e-02 5.82034001e-03 4.31438017e+00 9.74502027e-01
      7.89904022e+00 5.38298011e-01 1.07961996e-02 4.78922017e-03
      7.90105009e+00 9.54227984e-01 8.24349022e+00 4.73114997e-01</_>
    <_>
      1.22290002e-02 6.32878998e-03 4.11468983e+00 9.76352990e-01
      7.81368017e+00 5.44440985e-01 1.11606997e-02 5.06005995e-03
      6.53395987e+00 9.60323989e-01 8.16184044e+00 4.69821990e-01
      1.18356999e-02 5.64802997e-03 4.68113995e+00 9.71830010e-01
      7.93275023e+00 5.27068019e-01 1.05982004e-02 4.95172013e-03
      7.80089998e+00 9.52811003e-01 8.19888973e+00 4.75766003e-01</_>
    <_>
      1.27454996e-02 6.14784006e-03 4.69151020e+00 9.73213017e-01
      7.87265015e+00 5.50843000e-01 1.06512001e-02 4.74765012e-03
      7.76870012e+00 9.54144001e-01 8.24866009e+00 4.53103989e-01
      1.22220004e-02 5.58579015e-03 5.69521999e+00 9.67651010e-01
      8.00117970e+00 5.09195983e-01 1.01253996e-02 4.76637995e-03
      8.27318001e+00 9.50632989e-01 8.25901031e+00 4.69902009e-01</_>
    <_>
      1.19714998e-02 6.12766994e-03 4.41739988e+00 9.75320995e-01
      7.85576010e+00 5.47867000e-01 9.99671035e-03 4.76452988e-03
      7.16747999e+00 9.57020998e-01 8.22579956e+00 4.84223008e-01
      1.12862997e-02 5.63252997e-03 5.20333004e+00 9.69249010e-01
      7.95681000e+00 5.22423983e-01 9.96560976e-03 4.77296999e-03
      7.89525986e+00 9.51629996e-01 8.22616005e+00 4.74110007e-01</_>
    <_>
      1.36062000e-02 7.06003979e-03 2.74924994e+00 9.84201014e-01
      7.58494997e+00 5.75281978e-01 1.09032001e-02 5.38749015e-03
      5.28207016e+00 9.66480970e-01 8.02429008e+00 5.00129998e-01
      1.17304996e-02 6.00975007e-03 4.29678011e+00 9.73829985e-01
      7.84394979e+00 5.45831978e-01 1.11351004e-02 5.17093018e-03
      6.59684992e+00 9.59307015e-01 8.12310028e+00 4.91546988e-01</_>
    <_>
      1.31283002e-02 7.19089014e-03 2.99507999e+00 9.83110011e-01
      7.59955978e+00 5.77495992e-01 1.11651001e-02 5.20539004e-03
      5.93525982e+00 9.63886976e-01 8.08753014e+00 5.00860989e-01
      1.19954003e-02 6.16719993e-03 4.43487978e+00 9.74686027e-01
      7.82644987e+00 5.54861009e-01 1.07271001e-02 5.08305989e-03
      6.50962019e+00 9.60069001e-01 8.12650967e+00 5.00540018e-01</_>
    <_>
      1.31606003e-02 7.04126991e-03 2.81755996e+00 9.84260976e-01
      7.59432983e+00 5.74746013e-01 1.11665996e-02 5.10133989e-03
      5.64275980e+00 9.65452015e-01 8.08166981e+00 4.74730015e-01
      1.22880004e-02 6.19038008e-03 4.26281977e+00 9.75919008e-01
      7.81197023e+00 5.39295971e-01 1.09326998e-02 4.98411013e-03
      6.34554005e+00 9.60227013e-01 8.12677002e+00 4.82297987e-01</_>
    <_>
      1.37347998e-02 6.95437007e-03 3.19481993e+00 9.81060982e-01
      7.63782978e+00 5.70083022e-01 1.15072001e-02 5.09990007e-03
      5.76300001e+00 9.63908970e-01 8.07966995e+00 4.90076989e-01
