<?xml version="1.0"?>
<opencv_storage>
<opencv_ml_svm>
  <format>3</format>
  <svmType>C_SVC</svmType>
  <kernel>
    <type>RBF</type>
    <gamma>3.3750000000000002e-02</gamma></kernel>
  <C>1.2500000000000000e+01</C>
  <term_criteria><epsilon>1.1920928955078125e-07</epsilon>
    <iterations>1000</iterations></term_criteria>
  <var_count>24</var_count>
  <class_count>2</class_count>
  <class_labels type_id="opencv-matrix">
    <rows>2</rows>
    <cols>1</cols>
    <dt>i</dt>
    <data>
      0 1</data></class_labels>
  <sv_total>350</sv_total>
  <support_vectors>
    <_>
      7.32761016e-03 3.64864990e-03 1.15101995e+01 9.59405005e-01
      8.65526962e+00 4.71632987e-01 6.12141984e-03 3.09348991e-03
      1.60907001e+01 9.35055971e-01 8.88319016e+00 4.26364988e-01
      8.11120030e-03 3.85945011e-03 8.13061047e+00 9.68684971e-01
      8.51585007e+00 4.88040000e-01 6.39658980e-03 3.21943010e-03
      1.43403997e+01 9.44981992e-01 8.83860970e+00 4.38282996e-01</_>
    <_>
      1.02730999e-02 5.95664978e-03 2.35372996e+00 9.90930021e-01
      7.59820986e+00 5.54616988e-01 9.84648988e-03 5.88215981e-03
      2.56726003e+00 9.89005983e-01 7.60797977e+00 5.17727971e-01
      1.51861999e-02 9.17707011e-03 9.12558973e-01 9.96765018e-01
      6.99569988e+00 6.45228028e-01 9.71135031e-03 5.41744009e-03
      3.18201995e+00 9.87666011e-01 7.79557991e+00 5.04833996e-01</_>
    <_>
      8.21228046e-03 3.90622998e-03 1.00172997e+01 9.61373985e-01
      8.56324959e+00 4.77795005e-01 6.95967022e-03 3.55074997e-03
      1.07287998e+01 9.55673993e-01 8.64923954e+00 4.50966001e-01
      9.63427033e-03 5.19345002e-03 3.91000009e+00 9.84306991e-01
      8.01636982e+00 5.31450987e-01 6.69737021e-03 3.41513008e-03
      1.07095003e+01 9.52684999e-01 8.68124962e+00 4.53958005e-01</_>
    <_>
      8.52159038e-03 4.12329007e-03 6.18710995e+00 9.75889027e-01
      8.39105034e+00 5.05385995e-01 7.38894986e-03 3.78920999e-03
      6.74658012e+00 9.72037017e-01 8.46920013e+00 4.86939013e-01
      1.09074004e-02 5.98471984e-03 2.43908000e+00 9.90989983e-01
      7.74042988e+00 5.52125990e-01 7.61767011e-03 3.66498996e-03
      7.26595020e+00 9.70584989e-01 8.51589012e+00 4.77050990e-01</_>
    <_>
      1.01800002e-02 4.71678004e-03 4.33634996e+00 9.83304977e-01
      8.15966034e+00 5.37560999e-01 8.70158989e-03 4.28265985e-03
      4.75969982e+00 9.79754984e-01 8.25030994e+00 5.14002979e-01
      1.18217003e-02 6.73309993e-03 1.64093006e+00 9.93874013e-01
      7.51636982e+00 6.10790014e-01 8.59239977e-03 4.24878020e-03
      4.72240019e+00 9.80533004e-01 8.25594997e+00 5.17156005e-01</_>
    <_>
      7.72425020e-03 4.01302986e-03 7.18818998e+00 9.71156001e-01
      8.43918037e+00 4.58337992e-01 6.13868004e-03 3.17672011e-03
      1.11667004e+01 9.55946982e-01 8.75067997e+00 4.16646004e-01
      8.66581034e-03 4.49432991e-03 6.32647991e+00 9.72768009e-01
      8.27097034e+00 4.80123013e-01 6.33464009e-03 3.57172010e-03
      8.73937988e+00 9.64599013e-01 8.58327961e+00 4.70795989e-01</_>
    <_>
      8.47854000e-03 4.62055020e-03 4.09920979e+00 9.84858990e-01
      8.16209984e+00 5.41308999e-01 7.24141998e-03 3.77018005e-03
      8.74701023e+00 9.65897024e-01 8.53792000e+00 4.72746998e-01
      9.57193971e-03 5.03135007e-03 5.94069004e+00 9.76523995e-01
      8.15954971e+00 5.31750977e-01 7.72072002e-03 3.78295989e-03
      7.00745010e+00 9.72455978e-01 8.47931957e+00 4.72770989e-01</_>
    <_>
      1.05197998e-02 4.84512001e-03 5.05978012e+00 9.79750991e-01
      8.18712997e+00 5.20587981e-01 8.17358028e-03 3.98217980e-03
      6.71090984e+00 9.70947981e-01 8.41713047e+00 4.91683006e-01
      1.06320996e-02 5.45031019e-03 3.93236995e+00 9.83564973e-01
      7.98461008e+00 5.54140985e-01 8.56634043e-03 4.01226990e-03
      7.33217001e+00 9.68438983e-01 8.44818020e+00 4.80419993e-01</_>
    <_>
      6.55314978e-03 3.45593994e-03 9.46553040e+00 9.56391990e-01
      8.60484028e+00 4.22713995e-01 5.85131999e-03 2.63020000e-03
      1.85324001e+01 9.18928981e-01 9.02353001e+00 3.90148997e-01
      6.89786021e-03 3.60536994e-03 1.14111996e+01 9.46943998e-01
      8.58660984e+00 4.21036005e-01 5.90921007e-03 2.85704993e-03
      1.53016005e+01 9.30871010e-01 8.88755989e+00 3.88074011e-01</_>
    <_>
      6.72859000e-03 3.29407002e-03 1.11301003e+01 9.54023004e-01
      8.72099972e+00 4.49414015e-01 5.21682017e-03 2.58008996e-03
      2.53129997e+01 8.94101024e-01 9.14365005e+00 3.78870994e-01
      6.25339989e-03 3.15737003e-03 1.97353001e+01 9.14227009e-01
      8.86692047e+00 4.22699988e-01 5.40059991e-03 2.65947008e-03
      2.35200996e+01 8.99514019e-01 9.09142017e+00 3.89075011e-01</_>
    <_>
      6.73581008e-03 3.60476994e-03 6.08679008e+00 9.76777971e-01
      8.40834999e+00 4.51148987e-01 6.08999003e-03 3.20422999e-03
      9.58117962e+00 9.62548018e-01 8.69454002e+00 4.09646004e-01
      8.92732013e-03 4.38100984e-03 5.84869003e+00 9.77306008e-01
      8.29563999e+00 5.09963989e-01 5.80601022e-03 3.29542998e-03
      8.40637016e+00 9.68065977e-01 8.61507034e+00 4.33010995e-01</_>
    <_>
      6.75158994e-03 3.36725009e-03 7.57825994e+00 9.72124994e-01
      8.59401035e+00 4.47975010e-01 6.01628004e-03 3.15269991e-03
      1.03613997e+01 9.60402012e-01 8.76607037e+00 4.22477007e-01
      8.48704018e-03 4.52776998e-03 4.16399002e+00 9.86262023e-01
      8.17525959e+00 5.17081022e-01 5.77120995e-03 3.22852004e-03
      7.63312006e+00 9.70555007e-01 8.60445976e+00 4.36385006e-01</_>
    <_>
      6.90892991e-03 3.08571011e-03 1.09428997e+01 9.62665021e-01
      8.83920956e+00 4.47209001e-01 5.57535002e-03 2.83788005e-03
      1.35021000e+01 9.54890013e-01 8.97196960e+00 4.41608012e-01
      7.89899006e-03 3.97861004e-03 6.38941002e+00 9.80054021e-01
      8.44019032e+00 5.10919988e-01 5.83670987e-03 2.93741003e-03
      1.26747999e+01 9.57624972e-01 8.90281963e+00 4.34316009e-01</_>
    <_>
      7.41779013e-03 3.94091988e-03 5.76846981e+00 9.78838980e-01
      8.37876034e+00 4.67673987e-01 7.37761986e-03 3.76319000e-03
      7.16389990e+00 9.74528015e-01 8.47848988e+00 4.68625993e-01
      8.38761032e-03 4.67912015e-03 3.86350012e+00 9.85484004e-01
      8.10426044e+00 5.11506021e-01 6.34391000e-03 3.45374993e-03
      8.03411007e+00 9.70493019e-01 8.59786034e+00 4.42539006e-01</_>
    <_>
      8.05331022e-03 3.90058011e-03 7.17739010e+00 9.75704014e-01
      8.48661041e+00 5.03000021e-01 6.23997999e-03 3.55532998e-03
      8.62384987e+00 9.66906011e-01 8.60879993e+00 4.54789996e-01
      8.97436030e-03 4.66284994e-03 4.52702999e+00 9.84993994e-01
      8.16156960e+00 5.24675012e-01 6.28930982e-03 3.61906993e-03
      8.68492031e+00 9.66657996e-01 8.58384991e+00 4.66529012e-01</_>
    <_>
      8.00987985e-03 4.13289014e-03 5.24666023e+00 9.82456982e-01
      8.35243034e+00 5.05344987e-01 6.71883998e-03 3.61740007e-03
      6.73154020e+00 9.76126015e-01 8.53295994e+00 4.74299997e-01
      9.96585004e-03 5.02271997e-03 3.27749991e+00 9.89507973e-01
      8.02272987e+00 5.44068992e-01 6.92608021e-03 3.75567004e-03
      6.40713978e+00 9.77542996e-01 8.47795963e+00 4.82560009e-01</_>
    <_>
      9.21708997e-03 4.61426983e-03 8.72327042e+00 9.75376010e-01
      8.39365959e+00 5.32006979e-01 7.27522979e-03 3.55765992e-03
      9.82433987e+00 9.70263004e-01 8.67208958e+00 5.04585981e-01
      9.53381974e-03 5.06976014e-03 4.07889986e+00 9.87568974e-01
      8.10377026e+00 5.52192986e-01 7.17527978e-03 3.68227996e-03
      9.71741009e+00 9.71821010e-01 8.62938023e+00 5.19032001e-01</_>
    <_>
      8.73120036e-03 4.09810012e-03 7.98901987e+00 9.72817004e-01
      8.46576977e+00 4.99087006e-01 7.08254986e-03 3.42531991e-03
      9.74363995e+00 9.64384019e-01 8.67724037e+00 4.63084996e-01
      9.07666981e-03 4.71307989e-03 5.14522982e+00 9.81009007e-01
      8.19886017e+00 5.22975981e-01 7.04935007e-03 3.50350002e-03
      1.07793999e+01 9.59738016e-01 8.65445995e+00 4.63833988e-01</_>
    <_>
      9.23686009e-03 4.76336014e-03 4.25474977e+00 9.85346019e-01
      8.12866974e+00 5.28743029e-01 8.53070989e-03 4.10684012e-03
      5.56544018e+00 9.78760004e-01 8.33216000e+00 4.73304003e-01
      9.80694033e-03 5.86212985e-03 2.50572991e+00 9.91482019e-01
      7.77380991e+00 5.77764988e-01 8.38704966e-03 4.28631017e-03
      6.16376019e+00 9.77567017e-01 8.30922985e+00 5.09175003e-01</_>
    <_>
      9.18161031e-03 4.72741993e-03 5.34430981e+00 9.82311010e-01
      8.22371960e+00 5.34093022e-01 7.20694987e-03 3.70633998e-03
      7.00651979e+00 9.75125015e-01 8.49135017e+00 4.69464988e-01
      9.01476014e-03 4.96248016e-03 3.50458002e+00 9.87926006e-01
      8.04148006e+00 5.41056991e-01 7.71394977e-03 3.70214996e-03
      7.09704018e+00 9.73716974e-01 8.48431969e+00 4.79755014e-01</_>
    <_>
      9.73396003e-03 4.78556985e-03 5.12290001e+00 9.84049976e-01
      8.21743011e+00 5.18454015e-01 7.66870985e-03 3.75421997e-03
      6.49795008e+00 9.76620972e-01 8.47037029e+00 4.72896010e-01
      9.29654017e-03 5.06898016e-03 3.17933989e+00 9.88982975e-01
      7.99980021e+00 5.57596028e-01 7.97704980e-03 3.81381996e-03
      6.68552017e+00 9.74218011e-01 8.45203972e+00 4.74487007e-01</_>
    <_>
      8.48480966e-03 3.98153020e-03 7.46236992e+00 9.74784017e-01
      8.46173000e+00 5.09082973e-01 6.29770989e-03 3.39028006e-03
      9.91899014e+00 9.64590013e-01 8.67617035e+00 4.47299004e-01
      8.48480966e-03 4.20304993e-03 5.84897995e+00 9.80536997e-01
      8.34414959e+00 5.05558014e-01 6.46534981e-03 3.43775004e-03
      9.59595013e+00 9.66852009e-01 8.63729954e+00 4.48924005e-01</_>
    <_>
      9.50287003e-03 4.80013015e-03 5.27249002e+00 9.82809007e-01
      8.21942043e+00 5.17147005e-01 7.35272979e-03 3.77826998e-03
      6.89093018e+00 9.76121008e-01 8.49263954e+00 4.79754001e-01
      9.22849961e-03 4.73474991e-03 4.22251987e+00 9.85917985e-01
      8.15044975e+00 5.25744975e-01 7.66939996e-03 3.67040001e-03
      7.75755978e+00 9.73830998e-01 8.54479980e+00 4.76500005e-01</_>
    <_>
      7.57485023e-03 3.80372000e-03 9.85422039e+00 9.56112027e-01
      8.58477974e+00 4.49297011e-01 6.04823977e-03 3.08631011e-03
      1.34970999e+01 9.45154011e-01 8.83294964e+00 4.21424001e-01
      8.10393970e-03 4.11154982e-03 8.65857029e+00 9.63868976e-01
      8.41631985e+00 4.83924001e-01 6.19880017e-03 3.32707004e-03
      1.41393995e+01 9.42207992e-01 8.78040028e+00 4.31659997e-01</_>
    <_>
      9.25454963e-03 4.31131013e-03 1.05889997e+01 9.56448972e-01
      8.51064968e+00 5.01691997e-01 7.23097008e-03 3.46029992e-03
      1.31473999e+01 9.40271974e-01 8.72747993e+00 4.47077990e-01
      9.49868001e-03 4.72053001e-03 7.11759996e+00 9.69862998e-01
      8.25881004e+00 4.99974012e-01 7.38879992e-03 3.55922990e-03
      1.35453997e+01 9.39098001e-01 8.71426964e+00 4.58873987e-01</_>
    <_>
      4.96610999e-03 2.35987990e-03 1.85272007e+01 9.10875022e-01
      9.08786011e+00 3.65763009e-01 4.69717011e-03 2.37183995e-03
      1.76587009e+01 9.16337013e-01 9.08979034e+00 3.72754991e-01
      8.13139975e-03 4.44470998e-03 4.76567984e+00 9.80612993e-01
      8.17739010e+00 5.03304005e-01 4.56793001e-03 2.22748006e-03
      2.16184006e+01 8.97090971e-01 9.16944027e+00 3.56359005e-01</_>
    <_>
      6.08289987e-03 3.52757005e-03 9.24713993e+00 9.57386971e-01
      8.56252003e+00 4.22735006e-01 5.83563978e-03 3.17298993e-03
      1.07610998e+01 9.53849018e-01 8.70244980e+00 3.98710996e-01
      8.00430030e-03 4.65724012e-03 4.35696983e+00 9.81896996e-01
      8.09125042e+00 4.79970008e-01 6.83700992e-03 3.45677999e-03
      1.29193001e+01 9.47794020e-01 8.65970039e+00 4.24663991e-01</_>
    <_>
      7.27614993e-03 3.96009022e-03 1.00775003e+01 9.46866989e-01
      8.40738010e+00 4.34556007e-01 6.68345997e-03 3.50238010e-03
      1.07212000e+01 9.33187008e-01 8.52795029e+00 4.02433991e-01
      9.47440043e-03 5.65445982e-03 4.34472990e+00 9.77301002e-01
      7.83425999e+00 4.78561997e-01 7.15147005e-03 3.73801007e-03
      1.34671001e+01 9.20381010e-01 8.51447010e+00 4.04103011e-01</_>
    <_>
      5.64870005e-03 3.02225002e-03 1.38859997e+01 9.51672018e-01
      8.89251041e+00 4.29574996e-01 5.04192011e-03 2.64802994e-03
      1.45007000e+01 9.46031988e-01 9.01702023e+00 4.05187011e-01
      7.10408017e-03 3.84952012e-03 6.16336012e+00 9.79658008e-01
      8.44781017e+00 4.97631013e-01 5.47335017e-03 2.82151997e-03
      1.86158009e+01 9.36258018e-01 8.99781990e+00 4.20177013e-01</_>
    <_>
      9.03807022e-03 4.47453978e-03 5.32590008e+00 9.80333984e-01
      8.24308014e+00 5.03544986e-01 7.23034982e-03 3.80845997e-03
      7.16697979e+00 9.70650017e-01 8.47519970e+00 4.49519008e-01
      1.02313999e-02 5.33768022e-03 3.16142988e+00 9.87846971e-01
      7.94417000e+00 5.36426008e-01 7.73510989e-03 4.15667007e-03
      6.13238001e+00 9.75401998e-01 8.34076977e+00 4.70490992e-01</_>
    <_>
      8.40418972e-03 4.23086016e-03 5.77772999e+00 9.78543997e-01
      8.32320023e+00 4.92574990e-01 6.98550977e-03 3.65241989e-03
      9.00605011e+00 9.64421988e-01 8.59615040e+00 4.33153987e-01
      8.93170014e-03 4.79548005e-03 4.34974003e+00 9.83355999e-01
      8.13574982e+00 5.08213997e-01 7.54415989e-03 4.05021012e-03
      7.21134996e+00 9.71454024e-01 8.41203976e+00 4.64668006e-01</_>
    <_>
      1.05659999e-02 5.62178018e-03 3.87561011e+00 9.86078024e-01
      7.91303015e+00 5.48937976e-01 8.51405971e-03 4.46983986e-03
      5.01149988e+00 9.80320990e-01 8.20946980e+00 5.03741980e-01
      1.20122004e-02 6.56259013e-03 2.02995992e+00 9.92910981e-01
      7.61379004e+00 5.77700019e-01 9.81123000e-03 4.94029978e-03
      4.60982990e+00 9.81736004e-01 8.08390045e+00 5.30565977e-01</_>
    <_>
      1.13759004e-02 6.30117022e-03 1.99196005e+00 9.91510987e-01
      7.62772989e+00 5.90083003e-01 9.17901006e-03 4.79228981e-03
      3.73329997e+00 9.84356999e-01 8.00168037e+00 5.03010988e-01
      1.05371997e-02 6.00463012e-03 2.75330997e+00 9.89120007e-01
      7.71822023e+00 5.60634971e-01 9.10586957e-03 4.79680998e-03
      3.97371006e+00 9.82813001e-01 8.01204014e+00 4.94670004e-01</_>
    <_>
      7.89702963e-03 4.26645996e-03 4.32098007e+00 9.84431028e-01
      8.22486973e+00 4.96313989e-01 6.27569016e-03 3.63067002e-03
      6.04734993e+00 9.79010999e-01 8.45401955e+00 4.62792009e-01
      8.32570996e-03 4.87009995e-03 3.32985997e+00 9.87654984e-01
      7.99413013e+00 5.21954000e-01 6.78896019e-03 3.86478007e-03
      4.93863010e+00 9.82708991e-01 8.36394978e+00 4.68769014e-01</_>
    <_>
      1.10617001e-02 6.00356003e-03 2.02261996e+00 9.92417991e-01
      7.69142008e+00 5.53635001e-01 9.39507969e-03 5.39758988e-03
      2.86557007e+00 9.89247024e-01 7.84614992e+00 5.27722001e-01
      1.16044004e-02 6.89963019e-03 1.72768998e+00 9.94002998e-01
      7.50284004e+00 5.97679973e-01 9.38017014e-03 5.10007003e-03
      2.89570999e+00 9.88183975e-01 7.90301991e+00 5.14878988e-01</_>
    <_>
      6.84968010e-03 3.65902996e-03 6.95237017e+00 9.72634017e-01
      8.50382042e+00 4.58815008e-01 5.94889978e-03 3.02175991e-03
      1.01205997e+01 9.59851980e-01 8.76035976e+00 4.10326988e-01
      7.69648980e-03 4.15745005e-03 5.41202021e+00 9.80619013e-01
      8.29218960e+00 4.79335994e-01 6.31297985e-03 3.20733991e-03
      9.71100998e+00 9.64991987e-01 8.71691036e+00 4.21651006e-01</_>
    <_>
      9.05640982e-03 4.42855991e-03 5.57541990e+00 9.78196025e-01
      8.29403019e+00 5.14796019e-01 7.20039010e-03 3.60845006e-03
      7.66149998e+00 9.70681012e-01 8.54382038e+00 4.50190991e-01
      8.85827001e-03 4.96969977e-03 4.01085997e+00 9.85303998e-01
      8.06289005e+00 5.16067028e-01 7.64732016e-03 3.99084995e-03
      7.46253014e+00 9.71539974e-01 8.44902039e+00 4.76363987e-01</_>
    <_>
      7.22789019e-03 3.75803001e-03 1.04944000e+01 9.54585016e-01
      8.58450031e+00 4.69700992e-01 6.53509982e-03 3.04025994e-03
      1.67607002e+01 9.29951012e-01 8.92115974e+00 4.23191994e-01
      7.76284002e-03 3.85858002e-03 9.28493023e+00 9.60950971e-01
      8.53096008e+00 4.65494007e-01 6.48376998e-03 3.25816008e-03
      1.54158001e+01 9.34090018e-01 8.82129002e+00 4.30245012e-01</_>
    <_>
      8.58896039e-03 4.27686004e-03 9.73173046e+00 9.55069005e-01
      8.41366959e+00 4.78040010e-01 6.98227994e-03 3.58830998e-03
      1.21899004e+01 9.46695030e-01 8.64336967e+00 4.41199005e-01
      8.81087966e-03 4.63666022e-03 6.75992012e+00 9.69174027e-01
      8.24744987e+00 4.84165996e-01 7.23588979e-03 3.70712997e-03
      1.28961000e+01 9.44114029e-01 8.60307026e+00 4.47679996e-01</_>
    <_>
      9.00615007e-03 5.72788995e-03 2.42841005e+00 9.90557015e-01
      7.63704014e+00 5.40364027e-01 8.20896029e-03 5.43014985e-03
      3.03000998e+00 9.87887979e-01 7.72162008e+00 5.05293012e-01
      1.36662005e-02 8.42844043e-03 1.04771996e+00 9.96234000e-01
      7.15186024e+00 6.45662010e-01 8.95258039e-03 5.44433016e-03
      3.13598990e+00 9.86935973e-01 7.77079010e+00 5.08809984e-01</_>
    <_>
      7.06026005e-03 3.80821992e-03 6.30886984e+00 9.75436985e-01
      8.38696957e+00 4.61919010e-01 6.96903002e-03 3.69956996e-03
      7.72796011e+00 9.69039977e-01 8.46094036e+00 4.33391988e-01
      9.62118991e-03 5.46571985e-03 2.86333990e+00 9.88435984e-01
      7.85291004e+00 5.33150971e-01 7.00241979e-03 3.61081003e-03
      7.86686993e+00 9.68935013e-01 8.50069046e+00 4.46920991e-01</_>
    <_>
      7.90342037e-03 3.84562998e-03 7.10771990e+00 9.72217977e-01
      8.44402027e+00 4.66481000e-01 6.65656989e-03 3.55984992e-03
      8.31978035e+00 9.65174019e-01 8.54633999e+00 4.54746008e-01
      1.02123003e-02 5.28148003e-03 3.99570990e+00 9.82415974e-01
      7.99203014e+00 4.96439010e-01 6.85966993e-03 3.61095998e-03
      8.55095959e+00 9.65310991e-01 8.53911018e+00 4.55972999e-01</_>
    <_>
      8.17164034e-03 4.19045985e-03 4.78916979e+00 9.82589006e-01
      8.31060028e+00 4.90978986e-01 6.55297982e-03 3.08525003e-03
      1.05267000e+01 9.60462987e-01 8.80739975e+00 4.29592013e-01
      7.32506020e-03 3.76010011e-03 6.90201998e+00 9.74143982e-01
      8.48711014e+00 4.69197989e-01 6.46755006e-03 3.29103996e-03
      7.96612978e+00 9.70766008e-01 8.63704014e+00 4.42815006e-01</_>
    <_>
      9.82735027e-03 5.42649021e-03 2.43425012e+00 9.91261005e-01
      7.85800982e+00 5.49911976e-01 6.81508007e-03 3.80401011e-03
      5.36358023e+00 9.79975998e-01 8.37236977e+00 4.59008008e-01
      7.82112963e-03 4.41631023e-03 4.15795994e+00 9.85804975e-01
      8.16250992e+00 5.01936972e-01 7.05108978e-03 3.88374995e-03
      4.98882008e+00 9.82354999e-01 8.32693958e+00 4.67519999e-01</_>
    <_>
      8.18035007e-03 4.42097988e-03 4.15536022e+00 9.84467983e-01
      8.18770027e+00 4.96518999e-01 7.03254016e-03 3.67209991e-03
      6.29023981e+00 9.75676000e-01 8.45481968e+00 4.44884986e-01
      8.49848986e-03 4.54935990e-03 4.11373997e+00 9.85701025e-01
      8.15674019e+00 5.19030988e-01 6.83940016e-03 3.72374011e-03
      6.42119980e+00 9.76637006e-01 8.45785046e+00 4.56566006e-01</_>
    <_>
      7.87765998e-03 4.18735016e-03 4.93658018e+00 9.84695017e-01
      8.33399963e+00 5.15452027e-01 6.81017013e-03 3.34377005e-03
      8.20499992e+00 9.71498013e-01 8.67105007e+00 4.52690989e-01
      8.33932962e-03 4.49670991e-03 5.39126015e+00 9.81290996e-01
      8.26368999e+00 5.18876016e-01 6.90458016e-03 3.45323002e-03
      8.27418041e+00 9.72814023e-01 8.63881016e+00 4.53469992e-01</_>
    <_>
      1.06654996e-02 5.09402016e-03 5.32065010e+00 9.79933977e-01
      8.10447025e+00 5.31874001e-01 7.68369995e-03 4.23305994e-03
      7.45273018e+00 9.68680024e-01 8.34329033e+00 4.89567012e-01
      9.48894024e-03 5.31151984e-03 3.75290990e+00 9.84793007e-01
      7.96655989e+00 5.15248001e-01 8.02467018e-03 4.49379999e-03
      5.76391983e+00 9.74126995e-01 8.21135998e+00 4.78331000e-01</_>
    <_>
      1.38641000e-02 7.13262009e-03 3.12070990e+00 9.83417988e-01
      7.63135004e+00 5.63656986e-01 1.06819998e-02 5.68303000e-03
      4.13845015e+00 9.77985978e-01 7.87674999e+00 5.02532005e-01
      1.26948999e-02 6.80520991e-03 3.36230993e+00 9.83033001e-01
      7.66351986e+00 5.53375006e-01 1.05860000e-02 5.68692992e-03
      5.90793991e+00 9.70212996e-01 7.97047997e+00 5.18355012e-01</_>
    <_>
      1.43881002e-02 7.80951977e-03 2.54169011e+00 9.86523986e-01
      7.44351006e+00 5.90893984e-01 1.06686996e-02 6.10593986e-03
      3.46211004e+00 9.80693996e-01 7.72972012e+00 5.34569979e-01
      1.32322004e-02 7.23884022e-03 2.40941000e+00 9.86934006e-01
      7.48785019e+00 5.81921995e-01 1.17653003e-02 6.10068021e-03
      4.34059000e+00 9.76813972e-01 7.79981995e+00 5.30028999e-01</_>
    <_>
      8.00453965e-03 4.18483000e-03 4.07453012e+00 9.87877011e-01
      8.27692032e+00 5.02981007e-01 6.69203978e-03 3.41030001e-03
      7.20024014e+00 9.77585018e-01 8.62547016e+00 4.57888991e-01
      8.23536981e-03 4.30744980e-03 4.90566015e+00 9.84667003e-01
      8.30243015e+00 5.20312011e-01 6.64738007e-03 3.47708003e-03
      6.61419010e+00 9.79246974e-01 8.58775997e+00 4.69469011e-01</_>
    <_>
      7.44308019e-03 4.17714985e-03 3.89652991e+00 9.87861991e-01
      8.25164032e+00 5.21264017e-01 5.92005998e-03 3.18464008e-03
      6.75117016e+00 9.77083027e-01 8.63306999e+00 4.44047987e-01
      7.79245002e-03 4.13392996e-03 4.27741003e+00 9.86492991e-01
      8.28015995e+00 5.10020018e-01 6.29570009e-03 3.38645000e-03
      5.91178989e+00 9.80805993e-01 8.54588985e+00 4.58591014e-01</_>
    <_>
      9.45704989e-03 4.29352978e-03 8.35295010e+00 9.66301024e-01
      8.44355011e+00 5.06814003e-01 6.40675984e-03 3.19980993e-03
      1.42094002e+01 9.42305028e-01 8.84317017e+00 4.39752996e-01
      8.11333023e-03 4.00702981e-03 9.60184002e+00 9.64587986e-01
      8.50343990e+00 5.01296997e-01 6.84140995e-03 3.29437992e-03
      1.26513004e+01 9.50053990e-01 8.77773952e+00 4.50406998e-01</_>
    <_>
      1.38266003e-02 7.54407980e-03 1.97327995e+00 9.90697980e-01
      7.43767023e+00 5.90290010e-01 1.15518002e-02 5.76950004e-03
      3.78806996e+00 9.81473982e-01 7.85493994e+00 5.37096024e-01
      1.33221000e-02 7.34933000e-03 2.64240003e+00 9.87631023e-01
      7.48823977e+00 5.84758997e-01 1.12057999e-02 5.99846011e-03
      3.43724990e+00 9.82901990e-01 7.80295992e+00 5.35781980e-01</_>
    <_>
      1.34202996e-02 6.48598000e-03 3.65037990e+00 9.82043028e-01
      7.77694988e+00 5.57079971e-01 8.80201999e-03 4.63062013e-03
      7.16166019e+00 9.64136004e-01 8.23515034e+00 4.76482004e-01
      1.08268997e-02 5.64680016e-03 5.43299007e+00 9.74085987e-01
      7.95543003e+00 5.35508990e-01 9.60342959e-03 4.92839981e-03
      6.72985983e+00 9.67841983e-01 8.17105007e+00 5.05146980e-01</_>
    <_>
      7.93799013e-03 4.35918011e-03 5.84837008e+00 9.71553981e-01
      8.24738979e+00 4.81844991e-01 7.39938999e-03 3.92992003e-03
      8.05383968e+00 9.59708989e-01 8.41938019e+00 4.44555998e-01
      1.09483004e-02 5.85890003e-03 3.56375003e+00 9.83976007e-01
      7.82028008e+00 5.46151996e-01 7.80866994e-03 4.28806990e-03
      7.01268005e+00 9.65267003e-01 8.29975986e+00 4.67534989e-01</_>
    <_>
      8.01767968e-03 4.12312988e-03 7.93898010e+00 9.59290981e-01
      8.39070034e+00 4.57675993e-01 7.29550002e-03 3.63345002e-03
      1.07999001e+01 9.43880975e-01 8.58703041e+00 4.35112000e-01
      1.08901998e-02 5.71504980e-03 4.61768007e+00 9.76329982e-01
      7.91267014e+00 5.20576000e-01 7.66109023e-03 4.14913008e-03
      8.86748981e+00 9.51734006e-01 8.39235973e+00 4.52569991e-01</_>
    <_>
      1.20034004e-02 6.01192983e-03 3.97043991e+00 9.75166023e-01
      7.79457998e+00 5.40112019e-01 1.00897001e-02 5.34716994e-03
      5.02477980e+00 9.67692018e-01 7.94384003e+00 4.82118994e-01
      1.48122003e-02 8.55659042e-03 1.89398003e+00 9.89517987e-01
      7.22252989e+00 5.82888007e-01 1.09826997e-02 5.85264992e-03
      4.58649015e+00 9.70836997e-01 7.81828022e+00 5.14841020e-01</_>
    <_>
      1.69718005e-02 9.80675966e-03 1.76415002e+00 9.87972975e-01
      7.05690002e+00 5.99884987e-01 1.68117005e-02 9.00959037e-03
      2.29252005e+00 9.84054029e-01 7.19322014e+00 5.65083981e-01
      2.10995004e-02 1.12161003e-02 1.28807998e+00 9.91814017e-01
      6.84159994e+00 6.15320027e-01 1.55034000e-02 8.65415018e-03
      2.64999008e+00 9.79336023e-01 7.22202015e+00 5.41930974e-01</_>
    <_>
      9.63792019e-03 5.10801980e-03 3.34688997e+00 9.88548994e-01
      7.98507023e+00 5.33082008e-01 7.94497970e-03 4.55386005e-03
      4.41154003e+00 9.83870029e-01 8.14480972e+00 5.23213983e-01
      1.00258999e-02 5.93646988e-03 2.37480998e+00 9.91621971e-01
      7.74533987e+00 5.76677024e-01 7.52389990e-03 4.50586015e-03
      4.54316998e+00 9.81517971e-01 8.13628960e+00 4.86445010e-01</_>
    <_>
      1.16568003e-02 6.59024017e-03 2.05012989e+00 9.91509974e-01
      7.55485010e+00 5.78985989e-01 1.04093999e-02 5.90236019e-03
      2.57279992e+00 9.89160001e-01 7.71889019e+00 5.56652009e-01
      1.22539001e-02 7.53975008e-03 1.29815996e+00 9.95200992e-01
      7.32749987e+00 6.24774992e-01 9.36153997e-03 5.49214985e-03
      2.94421005e+00 9.88469005e-01 7.81469011e+00 5.17858028e-01</_>
    <_>
      1.25249997e-02 6.42282981e-03 3.81884003e+00 9.84391987e-01
      7.77149010e+00 5.71067989e-01 1.13145001e-02 5.83108002e-03
      4.40674019e+00 9.81858015e-01 7.89236021e+00 5.52393973e-01
      1.26253003e-02 7.36780977e-03 2.07629991e+00 9.92102027e-01
      7.48460007e+00 5.83648026e-01 1.00138998e-02 5.26966015e-03
      4.97676992e+00 9.79010999e-01 8.01651955e+00 5.21338999e-01</_>
    <_>
      9.14546009e-03 5.26812021e-03 2.59770989e+00 9.91959989e-01
      7.87588978e+00 5.60711026e-01 8.23218003e-03 4.51595010e-03
      3.62032008e+00 9.88518000e-01 8.08358002e+00 5.10034978e-01
      1.10526001e-02 6.59709983e-03 1.51762998e+00 9.94955003e-01
      7.51581001e+00 5.92215002e-01 8.10066983e-03 4.65124007e-03
      3.03990006e+00 9.90072012e-01 8.02176952e+00 5.22693992e-01</_>
    <_>
      4.39446000e-03 2.14383006e-03 2.07842007e+01 9.25688028e-01
      9.30064964e+00 3.65455002e-01 4.19856003e-03 2.05227011e-03
      2.16515007e+01 9.26204979e-01 9.37302017e+00 3.72031003e-01
      6.83279987e-03 3.85669991e-03 6.05752993e+00 9.79941010e-01
      8.44773006e+00 4.79290992e-01 4.12775017e-03 2.09494005e-03
      2.33904991e+01 9.12923992e-01 9.32831001e+00 3.59519005e-01</_>
    <_>
      6.11399999e-03 3.42734996e-03 1.00341997e+01 9.58249986e-01
      8.62854004e+00 4.36094999e-01 5.50450990e-03 2.63911998e-03
      1.90011005e+01 9.17331994e-01 9.01679039e+00 3.82847995e-01
      6.47298992e-03 3.53909004e-03 1.28108997e+01 9.44558978e-01
      8.64698029e+00 4.42992002e-01 5.65160019e-03 2.61819991e-03
      1.93656998e+01 9.14847016e-01 9.04652977e+00 3.95666003e-01</_>
    <_>
      6.50444021e-03 3.26584000e-03 9.99446011e+00 9.59181011e-01
      8.69810963e+00 4.40934986e-01 5.71659999e-03 2.91185989e-03
      1.58181000e+01 9.33098018e-01 8.91679001e+00 4.16108012e-01
      7.02978019e-03 3.48803005e-03 1.10917997e+01 9.49458003e-01
      8.64138985e+00 4.36764985e-01 5.51661011e-03 2.87075993e-03
      1.72192993e+01 9.27819014e-01 8.96304035e+00 4.05770987e-01</_>
    <_>
      7.08405999e-03 3.56019009e-03 6.67586994e+00 9.77559984e-01
      8.55346966e+00 4.52019006e-01 6.52687997e-03 3.33624007e-03
      8.77528954e+00 9.68738973e-01 8.68910027e+00 4.39556986e-01
      8.47683009e-03 4.55131987e-03 4.49494982e+00 9.84333992e-01
      8.20732975e+00 5.09832025e-01 6.14813017e-03 3.34381009e-03
      8.67448997e+00 9.70408022e-01 8.69073963e+00 4.42891002e-01</_>
    <_>
      4.95570991e-03 2.53881002e-03 1.33148003e+01 9.55380976e-01
      9.05541992e+00 4.02631998e-01 4.79430985e-03 2.31015007e-03
      1.77896004e+01 9.42384005e-01 9.23760033e+00 3.81940991e-01
      7.79923005e-03 4.26921016e-03 3.70652008e+00 9.88915980e-01
      8.22644997e+00 5.25237024e-01 4.85009002e-03 2.57384009e-03
      1.14032001e+01 9.65071023e-01 8.97154999e+00 4.13576990e-01</_>
    <_>
      5.48009994e-03 3.24164005e-03 6.61363983e+00 9.78911996e-01
      8.58312988e+00 4.56903011e-01 5.51661011e-03 2.93249008e-03
      8.63010979e+00 9.72572029e-01 8.77904034e+00 4.25096989e-01
      8.57065991e-03 4.98375017e-03 2.86232996e+00 9.90626991e-01
      7.96746016e+00 5.47435999e-01 5.72708994e-03 3.15632997e-03
      8.08201027e+00 9.75088000e-01 8.66156006e+00 4.38362986e-01</_>
    <_>
      6.97878981e-03 3.73956002e-03 5.35701990e+00 9.80841994e-01
      8.37430954e+00 4.66262996e-01 6.36429992e-03 3.44028999e-03
      6.24541998e+00 9.78599012e-01 8.52795029e+00 4.72914994e-01
      1.11705000e-02 6.04024017e-03 2.05299997e+00 9.93830025e-01
      7.69794989e+00 5.89527011e-01 6.73650997e-03 3.64630995e-03
      5.99222994e+00 9.79672015e-01 8.42720985e+00 4.61517006e-01</_>
    <_>
      8.53813998e-03 4.40749014e-03 6.37688017e+00 9.72891986e-01
      8.30033970e+00 4.85404998e-01 7.33913016e-03 3.87203996e-03
      8.86079025e+00 9.63289022e-01 8.50399971e+00 4.52825010e-01
      8.39918014e-03 4.49895021e-03 5.76140022e+00 9.75428998e-01
      8.25817013e+00 4.93781000e-01 6.76734000e-03 3.51570989e-03
      9.99699974e+00 9.58884001e-01 8.62563038e+00 4.37254012e-01</_>
    <_>
      1.19538996e-02 6.34148996e-03 4.18198013e+00 9.74721014e-01
      7.75158024e+00 5.31572998e-01 9.85622033e-03 5.44235995e-03
      6.52957010e+00 9.61050987e-01 7.99795008e+00 4.77921993e-01
      1.19538996e-02 6.18082983e-03 5.32060003e+00 9.67984021e-01
      7.83091021e+00 5.10586977e-01 1.02222003e-02 5.35028009e-03
      8.36112022e+00 9.52054024e-01 8.07577991e+00 4.68585014e-01</_>
    <_>
      5.75442007e-03 2.81208009e-03 1.43064003e+01 9.36502993e-01
      8.89307022e+00 3.94192994e-01 4.99348016e-03 2.49916990e-03
      1.75711002e+01 9.20135975e-01 9.05436993e+00 3.63570005e-01
      9.02079977e-03 4.92942007e-03 4.61404991e+00 9.82291996e-01
      8.09158993e+00 5.00746012e-01 5.69895981e-03 2.85371998e-03
      1.36761999e+01 9.38769996e-01 8.87716007e+00 4.00303006e-01</_>
    <_>
      6.13187021e-03 3.03524989e-03 1.60764999e+01 9.26536977e-01
      8.86872005e+00 4.07498002e-01 5.61921997e-03 2.69888993e-03
      1.90275993e+01 9.18129027e-01 9.01885033e+00 4.00254995e-01
      8.66953004e-03 4.67828009e-03 4.55958986e+00 9.82020020e-01
      8.11781025e+00 5.05719006e-01 6.45700004e-03 3.07321991e-03
      1.66893005e+01 9.19775009e-01 8.85801029e+00 4.03627008e-01</_>
    <_>
      1.39875999e-02 7.29295006e-03 2.83874989e+00 9.83384013e-01
      7.45805979e+00 5.57871997e-01 1.29944002e-02 6.76220004e-03
      3.12819004e+00 9.79327977e-01 7.55747986e+00 5.32332003e-01
      1.69968009e-02 9.69830994e-03 1.36643004e+00 9.92663980e-01
      7.00616980e+00 6.05204999e-01 1.08136004e-02 6.50497014e-03
      3.53008008e+00 9.75225985e-01 7.59254980e+00 5.26354015e-01</_>
    <_>
      9.13412031e-03 4.57648002e-03 5.55435991e+00 9.79547977e-01
      8.28127003e+00 5.17733991e-01 7.98049010e-03 3.93830007e-03
      7.62219000e+00 9.71889019e-01 8.50387001e+00 4.77073997e-01
      9.70800035e-03 5.22205979e-03 4.73241997e+00 9.83487010e-01
      8.08049011e+00 5.38299024e-01 7.61186006e-03 3.88563005e-03
      8.48209000e+00 9.66610014e-01 8.52659035e+00 4.58530009e-01</_>
    <_>
      9.96190030e-03 5.08450018e-03 4.48023987e+00 9.82620001e-01
      8.11618042e+00 5.26068985e-01 8.18523020e-03 4.31247009e-03
      5.76004982e+00 9.77943003e-01 8.32427979e+00 5.05271971e-01
      1.04387999e-02 5.35053993e-03 3.80718994e+00 9.86832976e-01
      8.00090027e+00 5.52883029e-01 7.67493993e-03 3.98711022e-03
      6.75346994e+00 9.73275006e-01 8.43062973e+00 4.70802009e-01</_>
    <_>
      5.23485010e-03 2.61462992e-03 1.87234993e+01 9.34134007e-01
      9.11003017e+00 3.85250986e-01 4.58814995e-03 2.27917009e-03
      2.18064003e+01 9.23129976e-01 9.27114964e+00 3.73315990e-01
      6.67259982e-03 3.63901001e-03 6.88387012e+00 9.74645019e-01
      8.51490974e+00 4.48543996e-01 4.40482982e-03 2.23675999e-03
      1.87348995e+01 9.33027029e-01 9.24466991e+00 3.79381001e-01</_>
    <_>
      5.34838019e-03 2.52359011e-03 2.43845997e+01 8.60014975e-01
      9.08251953e+00 3.50178987e-01 5.01490990e-03 2.46581994e-03
      2.68355007e+01 8.53039980e-01 9.13173962e+00 3.51383001e-01
      8.28406028e-03 4.30341018e-03 5.97719002e+00 9.70059991e-01
      8.21327972e+00 4.59145010e-01 5.21931006e-03 2.53523001e-03
      2.50065002e+01 8.73126984e-01 9.08306980e+00 3.55605006e-01</_>
    <_>
      6.56733010e-03 3.18817003e-03 1.29008999e+01 9.28165019e-01
      8.66991997e+00 3.83978009e-01 6.17119996e-03 3.01478012e-03
      1.44413004e+01 9.18097973e-01 8.75932980e+00 3.92462999e-01
      1.00125996e-02 5.50614018e-03 3.52245998e+00 9.82393980e-01
      7.83175993e+00 5.20770013e-01 6.10915013e-03 3.21328011e-03
      1.30924997e+01 9.26433027e-01 8.67928028e+00 3.98824006e-01</_>
    <_>
      8.24140012e-03 4.10928996e-03 7.64110994e+00 9.70382988e-01
      8.42047977e+00 4.79178011e-01 6.95485994e-03 3.70264007e-03
      1.03977003e+01 9.54468012e-01 8.59395981e+00 4.43309993e-01
      9.07013007e-03 4.32096981e-03 5.84870005e+00 9.75688994e-01
      8.30222988e+00 4.86939996e-01 7.05335988e-03 3.48477997e-03
      1.05326996e+01 9.56278980e-01 8.65110016e+00 4.32880998e-01</_>
    <_>
      7.63243996e-03 3.83177004e-03 9.06832981e+00 9.66320992e-01
      8.54156017e+00 4.67276990e-01 6.77677011e-03 3.53446999e-03
      1.21981001e+01 9.52160001e-01 8.69556999e+00 4.42373008e-01
      8.55130982e-03 4.19434998e-03 7.70640993e+00 9.68990982e-01
      8.44099998e+00 4.90355015e-01 6.40944997e-03 3.27189011e-03
      1.36555996e+01 9.46300983e-01 8.79551029e+00 4.37332004e-01</_>
    <_>
      1.06688002e-02 5.21739991e-03 7.82824993e+00 9.74840999e-01
      8.12670994e+00 5.34995973e-01 1.04711996e-02 5.12026995e-03
      7.67737007e+00 9.74372983e-01 8.14927006e+00 5.38501024e-01
      1.43994996e-02 8.02699011e-03 1.54797995e+00 9.94502008e-01
      7.33850002e+00 6.67481005e-01 1.02950996e-02 4.87749977e-03
      8.80043983e+00 9.70923007e-01 8.24833012e+00 5.42403996e-01</_>
    <_>
      5.35106985e-03 2.66632996e-03 1.39920998e+01 9.49217975e-01
      9.04389000e+00 4.17284012e-01 4.79815993e-03 2.17629992e-03
      1.87863998e+01 9.32837009e-01 9.28956032e+00 3.57737988e-01
      6.39508991e-03 3.23913991e-03 8.44186020e+00 9.70574975e-01
      8.70882988e+00 4.51218009e-01 4.57374007e-03 2.17817002e-03
      1.71707001e+01 9.40419972e-01 9.25282001e+00 3.79727989e-01</_>
    <_>
      5.72051015e-03 2.85789999e-03 1.12196999e+01 9.59473014e-01
      8.92251968e+00 4.32276011e-01 5.19204000e-03 2.42871000e-03
      1.57384996e+01 9.45026994e-01 9.16242981e+00 3.94293994e-01
      6.30126987e-03 3.26450006e-03 1.00390997e+01 9.63163972e-01
      8.77904034e+00 4.53814000e-01 4.95852018e-03 2.28467002e-03
      1.82714996e+01 9.37321007e-01 9.26552010e+00 3.92765999e-01</_>
    <_>
      6.70727994e-03 3.40910000e-03 7.72328997e+00 9.72492993e-01
      8.64239979e+00 4.72341001e-01 5.97801991e-03 3.03575001e-03
      1.11981001e+01 9.61825013e-01 8.85161972e+00 4.30070013e-01
      7.00017018e-03 3.82924010e-03 7.70820999e+00 9.73959982e-01
      8.51136017e+00 4.89095986e-01 5.96561003e-03 2.99403002e-03
      1.37117996e+01 9.51143980e-01 8.90178013e+00 4.23747987e-01</_>
    <_>
      8.72032996e-03 4.26091021e-03 7.32052994e+00 9.74691987e-01
      8.41685963e+00 5.06042004e-01 7.40225008e-03 3.73631995e-03
      8.39029026e+00 9.68537986e-01 8.56188965e+00 4.89771008e-01
      9.89944953e-03 5.15992008e-03 4.25722980e+00 9.85302985e-01
      8.07783031e+00 5.25723994e-01 7.05849985e-03 3.56153003e-03
      9.25465965e+00 9.66557026e-01 8.63376999e+00 4.73109990e-01</_>
    <_>
      8.19987990e-03 4.64393990e-03 3.67338991e+00 9.87989008e-01
      8.11590004e+00 5.11237979e-01 7.13462988e-03 3.98374023e-03
      6.05070019e+00 9.78377998e-01 8.39634991e+00 4.75912988e-01
      7.81396031e-03 4.35752980e-03 4.07104015e+00 9.85687971e-01
      8.19303989e+00 4.99760985e-01 7.16271996e-03 3.84497992e-03
      5.97078991e+00 9.79481995e-01 8.43352985e+00 4.79362994e-01</_>
    <_>
      7.30876019e-03 3.63347004e-03 1.07489004e+01 9.57633018e-01
      8.62767982e+00 4.65095013e-01 6.64782012e-03 3.31684994e-03
      1.34675999e+01 9.44909990e-01 8.77165031e+00 4.36060011e-01
      8.61134008e-03 4.07180004e-03 9.33848953e+00 9.59360003e-01
      8.50234032e+00 4.87590998e-01 6.13925001e-03 2.96490989e-03
      1.75580006e+01 9.24866974e-01 8.93811989e+00 4.08693999e-01</_>
    <_>
      7.30453990e-03 4.08921996e-03 6.06791019e+00 9.80103016e-01
      8.41868973e+00 5.03003001e-01 6.03464991e-03 3.12312995e-03
      9.53164005e+00 9.66561973e-01 8.80041027e+00 4.23258007e-01
      7.70393014e-03 3.99672985e-03 6.02544022e+00 9.81024981e-01
      8.47082043e+00 4.90112007e-01 5.89186978e-03 3.04978993e-03
      9.31161976e+00 9.68897998e-01 8.82487965e+00 4.33930010e-01</_>
    <_>
      9.15457029e-03 4.71874001e-03 5.90532017e+00 9.80328023e-01
      8.27208996e+00 5.39851010e-01 7.21732015e-03 3.65337008e-03
      9.04312992e+00 9.66394007e-01 8.65178967e+00 4.77290988e-01
      9.17829014e-03 4.35535982e-03 6.70651007e+00 9.75591004e-01
      8.40159988e+00 5.20760000e-01 7.17939995e-03 3.43792001e-03
      1.03303003e+01 9.61826026e-01 8.74468994e+00 4.63645011e-01</_>
    <_>
      8.49660020e-03 4.41457005e-03 5.53474998e+00 9.77334023e-01
      8.26235008e+00 5.02915025e-01 7.84881040e-03 3.93809006e-03
      8.44242954e+00 9.63348985e-01 8.49295998e+00 4.56835985e-01
      8.61017033e-03 4.88007022e-03 4.82664013e+00 9.79393005e-01
      8.11435032e+00 5.10532975e-01 7.30032008e-03 3.76907992e-03
      8.32474995e+00 9.66229022e-01 8.54181004e+00 4.68097001e-01</_>
    <_>
      7.60870008e-03 3.83251999e-03 7.25482988e+00 9.74511981e-01
      8.53337955e+00 4.85139012e-01 6.26474014e-03 3.16832005e-03
      1.05820999e+01 9.62620020e-01 8.81202984e+00 4.42308992e-01
      7.19851023e-03 3.70942010e-03 6.89323997e+00 9.76438999e-01
      8.55101967e+00 4.79326993e-01 5.71261020e-03 2.95232004e-03
      1.15105000e+01 9.57580984e-01 8.88858986e+00 4.17234004e-01</_>
    <_>
      8.96560960e-03 4.73784981e-03 4.40662003e+00 9.83250976e-01
      8.14605045e+00 5.26965976e-01 7.55668012e-03 4.12695995e-03
      5.45280981e+00 9.77667987e-01 8.31602001e+00 4.74106014e-01
      9.26399045e-03 5.15687978e-03 2.74629998e+00 9.89718020e-01
      7.92580986e+00 5.39870977e-01 7.33412011e-03 3.85473995e-03
      5.81408978e+00 9.78884995e-01 8.40981960e+00 4.70880002e-01</_>
    <_>
      9.29190032e-03 3.96431983e-03 9.57231998e+00 9.57508981e-01
      8.56027985e+00 4.83631998e-01 8.40141997e-03 3.89263988e-03
      1.04357996e+01 9.52623010e-01 8.58191967e+00 4.63880986e-01
      9.92527045e-03 5.11628995e-03 3.83571005e+00 9.83695984e-01
      8.04920959e+00 5.43157995e-01 8.33116006e-03 3.58640007e-03
      1.22886000e+01 9.41591978e-01 8.71580982e+00 4.34836000e-01</_>
    <_>
      9.32153966e-03 3.98227014e-03 8.21376991e+00 9.64599013e-01
      8.52752018e+00 4.78724986e-01 8.36861972e-03 3.81900999e-03
      9.69073009e+00 9.57948029e-01 8.58633995e+00 4.64944988e-01
      1.00758998e-02 5.29651996e-03 4.00043011e+00 9.83130991e-01
      8.02867031e+00 5.38345993e-01 7.92920962e-03 3.38635989e-03
      1.07368002e+01 9.53842998e-01 8.73069954e+00 4.41529989e-01</_>
    <_>
      9.86893009e-03 4.03631013e-03 1.14383001e+01 9.52677011e-01
      8.61464977e+00 4.69269991e-01 8.81455000e-03 3.77935008e-03
      1.31183996e+01 9.43735003e-01 8.68865967e+00 4.71316993e-01
      1.04697002e-02 5.06231003e-03 4.82107019e+00 9.81064022e-01
      8.14466000e+00 5.17288029e-01 7.99822994e-03 3.59470001e-03
      1.28702002e+01 9.43406999e-01 8.74674034e+00 4.44808990e-01</_>
    <_>
      8.40585027e-03 4.44302987e-03 4.75320005e+00 9.79106009e-01
      8.12077999e+00 4.75553006e-01 7.18956022e-03 4.22492996e-03
      5.43135023e+00 9.75265026e-01 8.23200035e+00 4.71118987e-01
      1.05699003e-02 5.64078987e-03 3.35695004e+00 9.84281003e-01
      7.82755995e+00 5.28916001e-01 7.37826014e-03 3.90364998e-03
      7.34396982e+00 9.66154993e-01 8.36516953e+00 4.38892007e-01</_>
    <_>
      8.10244028e-03 4.35099006e-03 8.11975956e+00 9.60283995e-01
      8.34119987e+00 4.58532006e-01 7.52347009e-03 3.99992010e-03
      8.61795998e+00 9.58541989e-01 8.42947006e+00 4.49138999e-01
      9.67667997e-03 5.06755011e-03 5.04649019e+00 9.75727975e-01
      8.08032036e+00 5.06871998e-01 7.09319022e-03 3.67509993e-03
      1.24088001e+01 9.41433012e-01 8.60416985e+00 4.44153994e-01</_>
    <_>
      7.86766969e-03 4.17027017e-03 6.68836021e+00 9.68066990e-01
      8.31731033e+00 4.63613003e-01 7.21263001e-03 3.99946002e-03
      7.26829004e+00 9.66387987e-01 8.37434006e+00 4.45885986e-01
      9.22683999e-03 5.21164015e-03 3.57701993e+00 9.82481003e-01
      7.93129015e+00 5.22337019e-01 7.62925018e-03 3.77023011e-03
      1.00965996e+01 9.53764021e-01 8.50496006e+00 4.33586001e-01</_>
    <_>
      9.39279981e-03 5.46360994e-03 3.89652991e+00 9.81971025e-01
      7.75664997e+00 5.05677998e-01 9.32918955e-03 5.29165007e-03
      4.49984980e+00 9.76670027e-01 7.81874990e+00 4.78911012e-01
      1.18169002e-02 7.02528981e-03 1.81859004e+00 9.91698027e-01
      7.36998987e+00 5.74571013e-01 8.00281018e-03 4.67289006e-03
      4.88865995e+00 9.78038013e-01 7.98148012e+00 4.85754997e-01</_>
    <_>
      7.71848997e-03 4.30731010e-03 6.98499012e+00 9.64607000e-01
      8.23540974e+00 4.66390014e-01 6.59511006e-03 3.81830009e-03
      8.12012959e+00 9.54294980e-01 8.36141014e+00 4.24777001e-01
      9.90676042e-03 5.60439005e-03 3.47883010e+00 9.84314978e-01
      7.80480003e+00 5.22426009e-01 7.54415989e-03 4.03183978e-03
      9.19869041e+00 9.51422989e-01 8.34453011e+00 4.25206006e-01</_>
    <_>
      8.88030976e-03 4.65016998e-03 5.72252989e+00 9.66883004e-01
      8.05455971e+00 4.74483013e-01 8.65476020e-03 4.79899999e-03
      6.53939009e+00 9.61739004e-01 8.05268002e+00 4.60034996e-01
      1.21048000e-02 7.32888980e-03 1.88587999e+00 9.90869999e-01
      7.31611013e+00 5.73068976e-01 8.51236004e-03 4.67390986e-03
      6.43521023e+00 9.65282977e-01 8.07826996e+00 4.74779010e-01</_>
    <_>
      8.06554966e-03 4.66691982e-03 5.35166979e+00 9.70439017e-01
      8.06569004e+00 4.54636991e-01 6.91113016e-03 3.73697001e-03
      9.19666004e+00 9.44263995e-01 8.35540009e+00 4.22524005e-01
      7.57125998e-03 4.55331011e-03 6.01443005e+00 9.65241015e-01
      8.02789021e+00 4.60642010e-01 6.85692998e-03 3.89943994e-03
      8.39651012e+00 9.51677024e-01 8.29269028e+00 4.17302012e-01</_>
    <_>
      7.79626006e-03 4.30571008e-03 6.79109001e+00 9.63199019e-01
      8.23956013e+00 4.48395014e-01 6.81622978e-03 3.46033997e-03
      1.22636995e+01 9.31936979e-01 8.53540039e+00 4.00242001e-01
      7.85776041e-03 4.28282982e-03 8.25860023e+00 9.53495979e-01
      8.22257996e+00 4.58191007e-01 6.61581988e-03 3.39149009e-03
      1.19647999e+01 9.38081980e-01 8.57400990e+00 4.24596995e-01</_>
    <_>
      8.70519038e-03 4.46831994e-03 5.74847984e+00 9.69316006e-01
      8.13251019e+00 4.55951989e-01 7.12051988e-03 3.79697001e-03
      9.32575989e+00 9.49100971e-01 8.35227966e+00 4.18291986e-01
      8.23729020e-03 4.50015999e-03 6.32246017e+00 9.64016020e-01
      8.08189011e+00 4.69381005e-01 7.22379982e-03 3.76707991e-03
      9.68941021e+00 9.47120011e-01 8.38640022e+00 4.19793993e-01</_>
    <_>
      6.93988986e-03 3.84505000e-03 8.78057003e+00 9.55030978e-01
      8.39797020e+00 4.26609010e-01 5.68789011e-03 3.02657997e-03
      1.47951002e+01 9.13958013e-01 8.74330044e+00 3.73041987e-01
      7.27241999e-03 3.65462992e-03 1.01766005e+01 9.47095990e-01
      8.50000954e+00 4.32242990e-01 5.76806022e-03 2.93172011e-03
      1.45934000e+01 9.11388993e-01 8.77274036e+00 3.82355005e-01</_>
    <_>
      8.32608994e-03 4.89254016e-03 5.34965992e+00 9.63949025e-01
      8.02138996e+00 4.72492993e-01 7.85848033e-03 3.95637983e-03
      9.49781036e+00 9.41613019e-01 8.37366962e+00 4.17786002e-01
      8.98837019e-03 5.22451987e-03 6.15252018e+00 9.60699975e-01
      7.99197006e+00 4.59850997e-01 8.08417983e-03 3.93135007e-03
      9.67646980e+00 9.39661026e-01 8.37876987e+00 4.21972990e-01</_>
    <_>
      1.17180003e-02 6.17477996e-03 4.25303984e+00 9.79614019e-01
      7.76512003e+00 5.61361015e-01 8.50907993e-03 4.86129988e-03
      4.95421982e+00 9.72663999e-01 8.02515984e+00 4.78695005e-01
      1.08658997e-02 6.18012995e-03 3.19127989e+00 9.84323978e-01
      7.66324997e+00 5.15248001e-01 1.01416996e-02 5.57680987e-03
      6.64371014e+00 9.63671982e-01 7.90790987e+00 5.04492998e-01</_>
    <_>
      9.26536042e-03 5.32128988e-03 3.89441991e+00 9.82614994e-01
      7.88942003e+00 5.14953971e-01 7.71324988e-03 4.27239016e-03
      6.05574989e+00 9.70996976e-01 8.21407032e+00 4.46015000e-01
      8.61196034e-03 5.17795002e-03 3.54110003e+00 9.82882977e-01
      7.88404989e+00 5.07350981e-01 9.15122963e-03 5.04230009e-03
      5.82885981e+00 9.73815024e-01 8.02427006e+00 4.90808010e-01</_>
    <_>
      1.06723001e-02 5.76644018e-03 4.39055014e+00 9.78309989e-01
      7.83767986e+00 5.27539015e-01 8.08684994e-03 4.45117988e-03
      5.89101982e+00 9.68168020e-01 8.15964985e+00 4.64681000e-01
      9.76862013e-03 5.71868988e-03 3.55469990e+00 9.81344998e-01
      7.78196001e+00 5.00000000e-01 9.30495001e-03 5.24645997e-03
      6.75928020e+00 9.65292990e-01 7.99819994e+00 4.93483990e-01</_>
    <_>
      7.06605986e-03 3.88006005e-03 8.49365044e+00 9.56722975e-01
      8.39813995e+00 4.23776001e-01 5.68383979e-03 3.02907010e-03
      1.52130003e+01 9.17427003e-01 8.77013016e+00 3.58615994e-01
      6.34580990e-03 3.60210007e-03 8.70648003e+00 9.56728995e-01
      8.48320007e+00 4.18224990e-01 6.34999992e-03 3.33435996e-03
      1.05499001e+01 9.41208005e-01 8.56949043e+00 3.96537989e-01</_>
    <_>
      7.83297978e-03 4.40916000e-03 6.33846998e+00 9.71897006e-01
      8.24841022e+00 4.65539008e-01 6.90364977e-03 3.73573997e-03
      9.07291031e+00 9.56443012e-01 8.47752953e+00 4.22394007e-01
      8.25640000e-03 4.77124006e-03 5.06300020e+00 9.76301014e-01
      8.08899975e+00 4.65941995e-01 7.38866022e-03 3.88349011e-03
      8.94112015e+00 9.57355976e-01 8.41405010e+00 4.38793004e-01</_>
    <_>
      7.49118999e-03 3.77103989e-03 8.59354019e+00 9.55474973e-01
      8.49083042e+00 4.42526013e-01 6.64782012e-03 3.19014001e-03
      1.19328003e+01 9.36591983e-01 8.75175953e+00 3.98855001e-01
      8.41571018e-03 4.61064000e-03 6.06015015e+00 9.72051024e-01
      8.23316956e+00 4.75371987e-01 6.63997000e-03 3.16023990e-03
      1.17656002e+01 9.42897975e-01 8.73894024e+00 4.10050988e-01</_>
    <_>
      6.98874006e-03 3.61528993e-03 1.18957996e+01 9.42272007e-01
      8.61670017e+00 4.39716995e-01 6.55703992e-03 3.24740005e-03
      1.44140997e+01 9.28357005e-01 8.76395035e+00 4.07009989e-01
      8.45757965e-03 4.60548000e-03 5.49338007e+00 9.72581983e-01
      8.20100975e+00 4.87832993e-01 6.69337017e-03 3.17519996e-03
      1.50598001e+01 9.27141011e-01 8.79697990e+00 4.07900006e-01</_>
    <_>
      7.85339996e-03 3.83826997e-03 9.63237000e+00 9.52930987e-01
      8.50788021e+00 4.56734002e-01 6.83681993e-03 3.38255009e-03
      1.25312996e+01 9.34498012e-01 8.70267963e+00 4.21422005e-01
      8.53172969e-03 4.57978016e-03 5.96482992e+00 9.70431030e-01
      8.22317028e+00 4.89096999e-01 7.08902022e-03 3.38765001e-03
      1.29567003e+01 9.35397983e-01 8.70965004e+00 4.23290998e-01</_>
    <_>
      5.62597020e-03 3.29874991e-03 1.01459999e+01 9.48584020e-01
      8.54697037e+00 3.99868011e-01 6.14146981e-03 3.31316004e-03
      1.05544004e+01 9.45936024e-01 8.59410000e+00 4.01825011e-01
      9.60886013e-03 5.62317017e-03 3.24575996e+00 9.85177994e-01
      7.80259991e+00 4.99718010e-01 5.14217000e-03 2.98077008e-03
      1.23455000e+01 9.38250005e-01 8.68842983e+00 3.85980994e-01</_>
    <_>
      6.01613987e-03 3.10645998e-03 1.49406996e+01 9.18102026e-01
      8.70234013e+00 3.79189014e-01 5.81223005e-03 3.06187989e-03
      1.43083000e+01 9.22622025e-01 8.72630978e+00 3.79155993e-01
      9.80694033e-03 5.78588014e-03 3.13229990e+00 9.83937979e-01
      7.74954987e+00 5.16256988e-01 5.25978999e-03 2.86300993e-03
      1.61060009e+01 9.12469029e-01 8.79036999e+00 3.73104990e-01</_>
    <_>
      5.54951001e-03 2.97926995e-03 1.34291000e+01 9.25552011e-01
      8.74246979e+00 3.84921998e-01 5.54491999e-03 3.02464003e-03
      1.40867004e+01 9.28659976e-01 8.76597977e+00 3.77279013e-01
      9.31700040e-03 5.12289023e-03 4.87719011e+00 9.76121008e-01
      8.02050018e+00 4.88804996e-01 5.28038014e-03 2.91288993e-03
      1.59408998e+01 9.14632022e-01 8.80702019e+00 3.66218001e-01</_>
    <_>
      8.65443982e-03 4.84370999e-03 4.55773020e+00 9.79435027e-01
      8.04880047e+00 4.86351013e-01 6.96119992e-03 3.82447010e-03
      8.68039989e+00 9.58347976e-01 8.40044022e+00 3.99967015e-01
      8.01985990e-03 4.63098986e-03 4.71061993e+00 9.76993024e-01
      8.07824993e+00 4.73753005e-01 7.35444017e-03 4.09456994e-03
      6.20145988e+00 9.70755994e-01 8.26856041e+00 4.47416008e-01</_>
    <_>
      8.89306981e-03 5.12702018e-03 5.08233976e+00 9.76072013e-01
      8.02070999e+00 5.01311004e-01 7.51568004e-03 4.22574999e-03
      7.30748987e+00 9.62925971e-01 8.28192043e+00 4.38971996e-01
      9.48590040e-03 5.58577012e-03 3.65345001e+00 9.83209014e-01
      7.84649992e+00 4.96491998e-01 7.72072002e-03 4.32546018e-03
      6.63781977e+00 9.66014028e-01 8.24448013e+00 4.63079005e-01</_>
    <_>
      9.27617028e-03 5.18043013e-03 5.72730017e+00 9.73008990e-01
      8.04358006e+00 4.87596989e-01 8.02265014e-03 4.26336005e-03
      7.33189011e+00 9.65173006e-01 8.30978012e+00 4.46170986e-01
      8.63782968e-03 5.41773997e-03 3.47027993e+00 9.83447015e-01
      7.84868002e+00 5.19385993e-01 8.22130032e-03 4.25535999e-03
      7.74423981e+00 9.61503029e-01 8.31177998e+00 4.47652012e-01</_>
    <_>
      8.16878024e-03 4.89941984e-03 4.57756996e+00 9.75668013e-01
      7.99133015e+00 4.61026013e-01 7.80258002e-03 4.34726989e-03
      5.34316015e+00 9.72458005e-01 8.13815975e+00 4.66329008e-01
      1.08909002e-02 6.26194011e-03 2.45728993e+00 9.87195015e-01
      7.58089018e+00 5.27063012e-01 8.50198045e-03 4.41823015e-03
      6.27029991e+00 9.68144000e-01 8.18719959e+00 4.49230999e-01</_>
    <_>
      7.70859001e-03 4.01574979e-03 7.74071980e+00 9.59663987e-01
      8.36030960e+00 4.41058993e-01 6.23037992e-03 3.40933003e-03
      9.68095016e+00 9.51159000e-01 8.56408978e+00 4.08019990e-01
      8.57084990e-03 4.95492015e-03 4.56884003e+00 9.77634013e-01
      8.01152039e+00 4.83498991e-01 6.67398982e-03 3.65759991e-03
      9.15515041e+00 9.54320014e-01 8.47698975e+00 4.23184007e-01</_>
    <_>
      7.22747995e-03 3.76037997e-03 9.82616997e+00 9.46693003e-01
      8.49363041e+00 4.34370995e-01 6.82822010e-03 3.51234991e-03
      1.22893000e+01 9.36716974e-01 8.61672020e+00 4.01627004e-01
      9.37614962e-03 5.55902999e-03 3.41890001e+00 9.81958985e-01
      7.82147980e+00 5.06410003e-01 6.86884020e-03 3.66494991e-03
      1.02868004e+01 9.44332004e-01 8.51368046e+00 4.13435012e-01</_>
    <_>
      1.30954999e-02 8.00145976e-03 2.79526997e+00 9.79462028e-01
      7.30328989e+00 5.38891971e-01 1.15504004e-02 6.45875977e-03
      4.06291008e+00 9.68316019e-01 7.59102011e+00 4.94401008e-01
      1.42216999e-02 8.08074046e-03 2.42429996e+00 9.82335985e-01
      7.23269987e+00 5.48623979e-01 1.18736001e-02 6.71172002e-03
      4.30072021e+00 9.67428982e-01 7.56113005e+00 4.99191999e-01</_>
    <_>
      1.43665001e-02 7.65387015e-03 2.70843005e+00 9.80935991e-01
      7.34317017e+00 5.39116979e-01 1.09726004e-02 6.42878981e-03
      3.65221000e+00 9.70744014e-01 7.59276009e+00 5.09159029e-01
      1.29930004e-02 7.86470994e-03 2.39256001e+00 9.81895983e-01
      7.26132011e+00 5.45368016e-01 1.24604004e-02 6.70373999e-03
      4.14794016e+00 9.68308985e-01 7.57470989e+00 5.02481997e-01</_>
    <_>
      1.42697003e-02 8.44222028e-03 2.21695995e+00 9.85252976e-01
      7.22570992e+00 5.78670979e-01 1.17576001e-02 6.94893021e-03
      3.58713007e+00 9.70950007e-01 7.48562002e+00 5.03328025e-01
      1.68265998e-02 8.73511005e-03 2.31660008e+00 9.82680976e-01
      7.13745022e+00 5.46200991e-01 1.18997004e-02 7.19982013e-03
      3.31430006e+00 9.76493001e-01 7.43501997e+00 5.35045981e-01</_>
    <_>
      5.78677002e-03 3.39889992e-03 1.18969002e+01 9.36330974e-01
      8.48573971e+00 3.96369010e-01 5.98197989e-03 3.35528003e-03
      1.27138996e+01 9.29157019e-01 8.54901028e+00 3.69801015e-01
      1.01504996e-02 6.07061014e-03 3.02081990e+00 9.86585975e-01
      7.72669983e+00 5.52693009e-01 5.51804993e-03 3.18183005e-03
      1.34184999e+01 9.22253013e-01 8.60371971e+00 3.88206005e-01</_>
    <_>
      8.86833016e-03 4.87595005e-03 5.47738981e+00 9.69034016e-01
      8.03015995e+00 4.70815986e-01 8.59599002e-03 4.48933011e-03
      7.50544024e+00 9.58905995e-01 8.20909977e+00 4.35413986e-01
      9.85126011e-03 5.64482994e-03 3.81558990e+00 9.78308976e-01
      7.80926991e+00 4.89596993e-01 7.85074010e-03 4.24255012e-03
      7.55629015e+00 9.55739021e-01 8.27581978e+00 4.42211002e-01</_>
    <_>
      1.24289999e-02 7.84903020e-03 2.30025005e+00 9.83168006e-01
      7.21992016e+00 5.41343987e-01 1.16349999e-02 6.86514005e-03
      3.22335005e+00 9.77550030e-01 7.44934988e+00 5.00913024e-01
      1.38676995e-02 7.84431957e-03 1.97770000e+00 9.88031983e-01
      7.22976017e+00 5.67115009e-01 1.08653000e-02 6.33133017e-03
      3.64291000e+00 9.74409997e-01 7.57227993e+00 4.76253986e-01</_>
    <_>
      1.14968996e-02 6.28018985e-03 4.51342010e+00 9.64425027e-01
      7.67227983e+00 4.87578988e-01 9.85816959e-03 5.25262998e-03
      5.71711016e+00 9.56220984e-01 7.92561007e+00 4.56295013e-01
      1.15446998e-02 6.43634005e-03 4.01757002e+00 9.69666004e-01
      7.66183996e+00 4.77800995e-01 1.00587998e-02 4.91541997e-03
      7.56694984e+00 9.38039005e-01 8.07761002e+00 4.39772993e-01</_>
    <_>
      1.32598002e-02 7.41806021e-03 3.00042009e+00 9.84598994e-01
      7.45629978e+00 5.72103977e-01 1.07244998e-02 6.15896983e-03
      3.55198002e+00 9.81187999e-01 7.68595982e+00 5.30273020e-01
      1.39886998e-02 8.24058987e-03 1.77479994e+00 9.91126001e-01
      7.21401978e+00 5.80603004e-01 1.04286000e-02 6.26057992e-03
      3.27310991e+00 9.82204020e-01 7.64310980e+00 5.18441975e-01</_>
    <_>
      1.43002002e-02 7.59543991e-03 2.92968011e+00 9.82949018e-01
      7.41517019e+00 5.52673995e-01 1.23714004e-02 6.43471023e-03
      3.86542010e+00 9.75410998e-01 7.65914011e+00 5.12205005e-01
      1.43002002e-02 8.20089970e-03 2.14299989e+00 9.87654984e-01
      7.25968981e+00 5.68765998e-01 1.12533001e-02 6.35126978e-03
      3.73319006e+00 9.77011025e-01 7.65635014e+00 5.04383028e-01</_>
    <_>
      1.31742004e-02 7.24051008e-03 3.18112993e+00 9.78395998e-01
      7.48593998e+00 5.42876005e-01 1.14492001e-02 6.12096023e-03
      4.15861988e+00 9.72204983e-01 7.71513987e+00 5.03189981e-01
      1.38304997e-02 8.51035025e-03 2.06560993e+00 9.87109005e-01
      7.20951986e+00 5.60819983e-01 1.07500004e-02 5.91300987e-03
      3.61941004e+00 9.76824999e-01 7.71499014e+00 5.06447971e-01</_>
    <_>
      1.17843999e-02 6.79037021e-03 2.83858991e+00 9.83020008e-01
      7.44131994e+00 5.19316018e-01 1.08019998e-02 5.98690007e-03
      3.74650002e+00 9.76777971e-01 7.65590000e+00 4.94657993e-01
      1.53294997e-02 8.59677978e-03 1.63055003e+00 9.91544008e-01
      7.20016003e+00 6.16728008e-01 1.04299001e-02 6.17981981e-03
      3.14741993e+00 9.80557978e-01 7.59273005e+00 5.13114989e-01</_>
    <_>
      1.19150002e-02 6.44284021e-03 3.21490002e+00 9.79919016e-01
      7.54907990e+00 5.23597002e-01 1.01802005e-02 5.81945013e-03
      4.05651999e+00 9.74125981e-01 7.72189999e+00 4.92760003e-01
      1.44269001e-02 8.63972958e-03 1.68795002e+00 9.90868986e-01
      7.18875980e+00 5.93536019e-01 1.01150004e-02 5.78462984e-03
      3.58966994e+00 9.77675974e-01 7.69507980e+00 5.19828022e-01</_>
    <_>
      9.70393978e-03 6.18377002e-03 2.85516000e+00 9.84663010e-01
      7.62158012e+00 5.23927987e-01 9.01314989e-03 5.11064008e-03
      4.17195988e+00 9.77026999e-01 7.93337011e+00 4.84311014e-01
      9.97862034e-03 6.15178980e-03 2.77397990e+00 9.85617995e-01
      7.64454985e+00 5.29923975e-01 9.10727028e-03 5.03680017e-03
      4.77274990e+00 9.74116027e-01 7.99594021e+00 4.83500004e-01</_>
    <_>
      1.96396001e-02 1.17798001e-02 1.35181999e+00 9.87677991e-01
      6.70459986e+00 6.25434995e-01 1.90676004e-02 1.03832996e-02
      2.07954001e+00 9.77312982e-01 6.88057995e+00 5.42437017e-01
      2.17873994e-02 1.31288003e-02 1.13671005e+00 9.90294993e-01
      6.56506014e+00 6.26904011e-01 1.84327997e-02 1.06138997e-02
      2.12109995e+00 9.79403973e-01 6.89964008e+00 5.73517025e-01</_>
    <_>
      1.07739996e-02 6.32594014e-03 2.41887999e+00 9.88341987e-01
      7.59052992e+00 5.58143020e-01 8.88872985e-03 4.98978002e-03
      4.26282978e+00 9.80184972e-01 7.97524977e+00 4.96041000e-01
      1.02212997e-02 5.91310998e-03 3.33866000e+00 9.82873976e-01
      7.73076010e+00 5.31063020e-01 8.81011970e-03 4.79996996e-03
      4.70245981e+00 9.76369023e-01 8.03839016e+00 4.96571988e-01</_>
    <_>
      1.03444997e-02 6.24741009e-03 3.84368992e+00 9.69850004e-01
      7.58445978e+00 5.03360987e-01 9.46237985e-03 5.35135996e-03
      6.43477011e+00 9.45236981e-01 7.84564018e+00 4.40032989e-01
      1.15486002e-02 6.57207007e-03 4.09098005e+00 9.68659997e-01
      7.56005001e+00 5.01707017e-01 9.31106042e-03 5.15958015e-03
      6.12509012e+00 9.50863004e-01 7.87921000e+00 4.46574003e-01</_>
    <_>
      1.02690002e-02 5.56126982e-03 5.16644001e+00 9.62853014e-01
      7.81209993e+00 4.61530000e-01 8.51333980e-03 4.70342999e-03
      7.50392008e+00 9.44849014e-01 8.02101994e+00 4.13958013e-01
      9.54025984e-03 5.66258980e-03 4.99519014e+00 9.62765992e-01
      7.79417992e+00 4.88047987e-01 8.13775975e-03 4.48880997e-03
      8.59613991e+00 9.34037030e-01 8.13467026e+00 4.27455008e-01</_>
    <_>
      1.22737996e-02 7.52166985e-03 3.62160993e+00 9.67550993e-01
      7.32313013e+00 5.00573993e-01 1.11982003e-02 6.43189996e-03
      5.47045994e+00 9.43367004e-01 7.56546021e+00 4.61937010e-01
      1.36941997e-02 8.24084971e-03 3.55417991e+00 9.66085017e-01
      7.23884010e+00 5.04387975e-01 1.11982003e-02 6.45399978e-03
      5.50648022e+00 9.45299983e-01 7.58544016e+00 4.69704986e-01</_>
    <_>
      8.42696987e-03 4.52675018e-03 7.53668022e+00 9.52784002e-01
      8.19268036e+00 4.33418989e-01 7.16292020e-03 3.63316992e-03
      1.18699999e+01 9.31163013e-01 8.52398014e+00 4.06439990e-01
      8.36087018e-03 4.40730993e-03 8.26585960e+00 9.48118985e-01
      8.25469971e+00 4.52609986e-01 6.74670981e-03 3.42781004e-03
      1.28746996e+01 9.21097994e-01 8.59327030e+00 3.95550013e-01</_>
    <_>
      9.40474030e-03 5.22143999e-03 5.80482006e+00 9.64178979e-01
      7.98668003e+00 4.45271999e-01 7.39538018e-03 3.95639986e-03
      9.11170959e+00 9.46112990e-01 8.36367989e+00 4.17640001e-01
      8.52597971e-03 4.65027010e-03 6.82994986e+00 9.56879973e-01
      8.12331963e+00 4.61376995e-01 7.25858985e-03 3.71086993e-03
      1.00958004e+01 9.41682994e-01 8.45022964e+00 4.25895989e-01</_>
    <_>
      1.00617995e-02 6.03060005e-03 3.24053001e+00 9.82979000e-01
      7.63399982e+00 5.15397012e-01 9.00932960e-03 5.10327984e-03
      4.22010994e+00 9.75998998e-01 7.87189007e+00 4.81314003e-01
      1.23086004e-02 7.18375016e-03 1.78697002e+00 9.91998017e-01
      7.38223982e+00 5.73238015e-01 9.34750959e-03 5.34615014e-03
      3.71111012e+00 9.81278002e-01 7.82151985e+00 5.13224006e-01</_>
    <_>
      9.37983021e-03 5.42186992e-03 4.06470013e+00 9.76321995e-01
      7.81627989e+00 4.90469992e-01 8.28245003e-03 4.66842996e-03
      5.38171005e+00 9.66643989e-01 8.02882004e+00 4.54257011e-01
      1.07193999e-02 6.67137001e-03 2.10248995e+00 9.88906980e-01
      7.49528980e+00 5.65262020e-01 8.87264963e-03 4.85560019e-03
      4.72741985e+00 9.74162996e-01 7.97620010e+00 4.83794987e-01</_>
    <_>
      1.08206999e-02 6.44548004e-03 3.23971009e+00 9.81328011e-01
      7.52139997e+00 5.13402998e-01 1.02708004e-02 5.49351005e-03
      4.75406981e+00 9.68686998e-01 7.80327988e+00 4.82324004e-01
      1.33980000e-02 7.84024037e-03 1.65091002e+00 9.91640985e-01
      7.24688005e+00 5.90103984e-01 1.06851002e-02 6.38552010e-03
      3.01006007e+00 9.82679009e-01 7.55112982e+00 5.39030015e-01</_>
    <_>
      2.22851001e-02 1.46832000e-02 6.73681974e-01 9.95072007e-01
      6.26237011e+00 6.76578999e-01 2.35565994e-02 1.49526997e-02
      7.61108994e-01 9.93211985e-01 6.27353001e+00 6.55634999e-01
      2.50298996e-02 1.60396993e-02 6.24252021e-01 9.95486021e-01
      6.13822985e+00 6.93458021e-01 2.38432996e-02 1.56140998e-02
      8.16917002e-01 9.92738008e-01 6.23055983e+00 6.37603998e-01</_>
    <_>
      9.30385012e-03 5.62376995e-03 3.72485995e+00 9.82245982e-01
      7.77811003e+00 5.20309985e-01 8.65199044e-03 4.81681991e-03
      4.35507011e+00 9.80033994e-01 7.99136019e+00 4.81727988e-01
      1.00157997e-02 5.71727008e-03 2.55295992e+00 9.88470018e-01
      7.73430014e+00 5.52025974e-01 7.65467016e-03 4.46347985e-03
      5.29975986e+00 9.75392997e-01 8.08775997e+00 4.56333995e-01</_>
    <_>
      1.03144003e-02 5.91664016e-03 2.90696001e+00 9.86079991e-01
      7.71993017e+00 5.49744010e-01 9.45186988e-03 5.40436991e-03
      3.25263000e+00 9.85417008e-01 7.82180023e+00 5.08772016e-01
      1.28883999e-02 7.26178009e-03 1.47915995e+00 9.93773997e-01
      7.38194990e+00 5.95817029e-01 8.41031969e-03 4.92885988e-03
      3.63808990e+00 9.83138978e-01 7.95280981e+00 4.99500990e-01</_>
    <_>
      1.10056000e-02 6.54831994e-03 2.62926006e+00 9.87990022e-01
      7.57836008e+00 5.49965978e-01 1.04847997e-02 5.82526997e-03
      2.56419992e+00 9.88840997e-01 7.70799017e+00 5.46856999e-01
      1.42745003e-02 8.39613006e-03 1.13162005e+00 9.95405018e-01
      7.18596983e+00 6.37701988e-01 1.01239998e-02 5.47019998e-03
      3.15727997e+00 9.86015975e-01 7.82838011e+00 5.27041018e-01</_>
    <_>
      1.20053003e-02 7.71747995e-03 1.84849000e+00 9.90921974e-01
      7.25051022e+00 5.68547010e-01 1.10755004e-02 6.01988006e-03
      4.59487009e+00 9.73612010e-01 7.77630997e+00 4.99891996e-01
      1.39116999e-02 7.34880986e-03 2.78360009e+00 9.86159980e-01
      7.49313021e+00 5.69185019e-01 1.09957000e-02 6.61208993e-03
      2.59681010e+00 9.85647023e-01 7.52910995e+00 5.43218017e-01</_>
    <_>
      9.48065985e-03 5.26157999e-03 4.18436003e+00 9.77432013e-01
      7.86949015e+00 4.89708006e-01 8.71853996e-03 4.49925987e-03
      6.50659990e+00 9.68276024e-01 8.18943024e+00 4.48148012e-01
      9.34476964e-03 5.51069994e-03 3.86128998e+00 9.79660988e-01
      7.83641005e+00 4.89681989e-01 7.52975978e-03 4.39060992e-03
      6.06679010e+00 9.67049003e-01 8.14509964e+00 4.49225008e-01</_>
    <_>
      8.06710962e-03 4.28930996e-03 5.60139990e+00 9.73792017e-01
      8.20586967e+00 4.85572010e-01 7.03254016e-03 3.64309992e-03
      9.16067028e+00 9.60487008e-01 8.46679020e+00 4.38894987e-01
      9.11733042e-03 4.37291013e-03 6.02299023e+00 9.72447991e-01
      8.19709015e+00 4.88920987e-01 7.07732001e-03 3.66588007e-03
      8.82161045e+00 9.58471000e-01 8.44371986e+00 4.29630011e-01</_>
    <_>
      8.89742002e-03 5.03834989e-03 3.72317004e+00 9.84660983e-01
      7.95907021e+00 5.29716015e-01 8.01296998e-03 4.82024020e-03
      5.10093021e+00 9.78830993e-01 8.06400967e+00 4.96528000e-01
      1.07161002e-02 6.26106001e-03 2.11455989e+00 9.91957009e-01
      7.60580015e+00 5.68139017e-01 8.68843030e-03 5.00631984e-03
      4.36231995e+00 9.81863976e-01 7.99804020e+00 4.99152988e-01</_>
    <_>
      9.74598993e-03 5.49945980e-03 3.50505996e+00 9.84673023e-01
      7.83241987e+00 5.27866006e-01 8.91221967e-03 5.01646008e-03
      4.56954002e+00 9.80230987e-01 7.98835993e+00 4.98905003e-01
      1.13444002e-02 6.84227003e-03 1.75038004e+00 9.92999971e-01
      7.42991018e+00 5.91947973e-01 8.71971995e-03 5.30757010e-03
      3.92000008e+00 9.82716978e-01 7.87540007e+00 5.06730020e-01</_>
    <_>
      1.78018995e-02 9.06880014e-03 2.99464989e+00 9.75924015e-01
      7.22098017e+00 5.65339029e-01 1.35041997e-02 7.32793007e-03
      3.63097000e+00 9.66756999e-01 7.40708017e+00 5.17925978e-01
      1.73186995e-02 1.06566995e-02 1.76452994e+00 9.84053016e-01
      6.82393980e+00 6.03560984e-01 1.28357997e-02 7.73226982e-03
      3.41431999e+00 9.69627976e-01 7.32918978e+00 5.09796977e-01</_>
    <_>
      1.58648994e-02 9.40431003e-03 2.54106998e+00 9.79463995e-01
      7.08470011e+00 5.93924999e-01 1.34846000e-02 7.52692018e-03
      3.71221995e+00 9.66953993e-01 7.35831022e+00 5.15447021e-01
      1.63240992e-02 1.00552002e-02 1.97092998e+00 9.85008001e-01
      6.94405985e+00 5.98685980e-01 1.36451004e-02 7.81354960e-03
      3.40094995e+00 9.69546974e-01 7.29977989e+00 5.31792998e-01</_>
    <_>
      1.54370004e-02 8.88617989e-03 3.38440990e+00 9.81644988e-01
      7.21616983e+00 6.00983977e-01 1.39245000e-02 7.73150008e-03
      4.42341995e+00 9.74500000e-01 7.43710995e+00 5.51945984e-01
      1.68923009e-02 9.41084046e-03 1.72959006e+00 9.90454972e-01
      7.07703018e+00 6.03223026e-01 1.42689003e-02 7.98915979e-03
      3.71972990e+00 9.76755023e-01 7.32788992e+00 5.59966981e-01</_>
    <_>
      1.67609006e-02 1.02110999e-02 9.96581972e-01 9.95244980e-01
      6.88444996e+00 6.51084006e-01 1.13981999e-02 6.92175003e-03
      2.42862010e+00 9.86810029e-01 7.44563007e+00 5.58130980e-01
      1.16141001e-02 7.03755999e-03 2.17676997e+00 9.87767994e-01
      7.42677021e+00 5.85996985e-01 1.04013002e-02 6.29532989e-03
      2.84847999e+00 9.83389020e-01 7.57806015e+00 5.17925978e-01</_>
    <_>
      1.27884001e-02 7.51062017e-03 1.34503996e+00 9.96567011e-01
      7.35513020e+00 6.46642983e-01 1.01412004e-02 6.26819022e-03
      1.65646994e+00 9.95414972e-01 7.58767986e+00 6.06315017e-01
      1.15518002e-02 7.28328014e-03 1.14080000e+00 9.97093976e-01
      7.35358000e+00 6.48871005e-01 1.03113996e-02 6.11494016e-03
      1.90768003e+00 9.94669974e-01 7.66369009e+00 6.10327005e-01</_>
    <_>
      1.98394004e-02 1.29247000e-02 1.23807001e+00 9.89535987e-01
      6.53485012e+00 6.33875012e-01 1.91197004e-02 1.11665996e-02
      1.90559995e+00 9.81536984e-01 6.79980993e+00 6.09462023e-01
      2.46500000e-02 1.47246001e-02 1.31581998e+00 9.88937020e-01
      6.43796015e+00 6.29890978e-01 2.15236004e-02 1.17103001e-02
      1.99330997e+00 9.81782973e-01 6.76542997e+00 5.56855023e-01</_>
    <_>
      2.23596003e-02 1.42788999e-02 8.85111988e-01 9.92362976e-01
      6.36816978e+00 6.62424982e-01 1.81469005e-02 1.09960996e-02
      1.74765003e+00 9.80530977e-01 6.74205017e+00 5.89568019e-01
      1.99312009e-02 1.20572997e-02 1.55377996e+00 9.83757973e-01
      6.64384985e+00 5.91543972e-01 1.72064994e-02 1.07099004e-02
      1.88339996e+00 9.77680027e-01 6.78709984e+00 5.73467016e-01</_>
    <_>
      1.93985999e-02 1.12332003e-02 1.96696997e+00 9.72729027e-01
      6.71089983e+00 5.74465990e-01 1.73045993e-02 9.99697018e-03
      2.96912003e+00 9.64877009e-01 6.92085981e+00 5.50706029e-01
      2.02702992e-02 1.27192996e-02 1.35031998e+00 9.83864009e-01
      6.51445007e+00 6.09818995e-01 1.93096008e-02 1.19200004e-02
      1.85490000e+00 9.77205992e-01 6.66251993e+00 5.69387019e-01</_>
    <_>
      1.96400993e-02 1.13570001e-02 1.41182005e+00 9.88352001e-01
      6.74075985e+00 6.32752001e-01 1.54938996e-02 9.40799993e-03
      1.92246997e+00 9.82056022e-01 6.96906996e+00 5.72215974e-01
      2.02012006e-02 1.18004996e-02 1.16911995e+00 9.90980029e-01
      6.67513990e+00 6.43350005e-01 1.63870994e-02 9.59661976e-03
      1.85991001e+00 9.84839022e-01 6.94420004e+00 5.92607021e-01</_>
    <_>
      2.24699005e-02 1.25436001e-02 1.75618994e+00 9.79240000e-01
      6.64106989e+00 6.20379984e-01 1.80179998e-02 1.07340999e-02
      2.26694012e+00 9.74849999e-01 6.86605978e+00 5.67466974e-01
      2.24699005e-02 1.33149000e-02 1.26115000e+00 9.87855971e-01
      6.52487993e+00 6.39452994e-01 1.86234992e-02 1.09563004e-02
      2.27367997e+00 9.74608004e-01 6.81902981e+00 5.78773975e-01</_>
    <_>
      2.25249007e-02 1.34047000e-02 1.50267005e+00 9.81486022e-01
      6.49084997e+00 6.16627991e-01 2.14409996e-02 1.21769998e-02
      2.65469003e+00 9.62440014e-01 6.71143007e+00 5.60346007e-01
      2.56807003e-02 1.52308000e-02 1.76021004e+00 9.80293989e-01
      6.39157009e+00 6.42480016e-01 2.20486000e-02 1.25644999e-02
      2.58454990e+00 9.62727010e-01 6.68171978e+00 5.88028014e-01</_>
    <_>
      2.12267991e-02 1.26822004e-02 1.41618001e+00 9.84844029e-01
      6.55044985e+00 6.21812999e-01 1.92118995e-02 1.18806995e-02
      1.71604002e+00 9.80818987e-01 6.64454985e+00 5.82647979e-01
      2.38630008e-02 1.54184997e-02 7.07000017e-01 9.93546009e-01
      6.21897984e+00 6.87256992e-01 1.92775000e-02 1.19273001e-02
      1.67212999e+00 9.82738018e-01 6.63115978e+00 5.92796028e-01</_>
    <_>
      1.99746005e-02 1.19984001e-02 1.55224001e+00 9.84081984e-01
      6.64500999e+00 5.95009029e-01 1.83387008e-02 1.06677003e-02
      1.86501002e+00 9.80831981e-01 6.81105995e+00 5.79324007e-01
      2.33724006e-02 1.52754001e-02 8.17183971e-01 9.92784023e-01
      6.27832985e+00 6.52746975e-01 1.81230009e-02 1.09008001e-02
      1.69507003e+00 9.85292017e-01 6.78001022e+00 5.85548997e-01</_>
    <_>
      1.46081997e-02 9.57976002e-03 1.64098001e+00 9.86615002e-01
      6.89422989e+00 5.74702024e-01 1.37804002e-02 8.76296964e-03
      2.28027010e+00 9.82258022e-01 7.06337976e+00 5.31211972e-01
      1.74180008e-02 1.05427997e-02 1.18381000e+00 9.92143989e-01
      6.79392004e+00 6.16859972e-01 1.28348004e-02 8.13448988e-03
      2.09298992e+00 9.83300984e-01 7.14989996e+00 5.49925983e-01</_>
    <_>
      2.35753004e-02 1.33178001e-02 1.15268004e+00 9.91878986e-01
      6.51681995e+00 6.13797009e-01 1.69309005e-02 1.02398004e-02
      1.66569996e+00 9.85234022e-01 6.84462023e+00 5.95205009e-01
      2.23284997e-02 1.26807997e-02 1.11163998e+00 9.91111994e-01
      6.59828997e+00 6.30864024e-01 1.76762007e-02 1.03802001e-02
      1.67106998e+00 9.85095978e-01 6.83211994e+00 5.87096989e-01</_>
    <_>
      1.85594000e-02 1.06490003e-02 1.69171000e+00 9.89417017e-01
      6.93170977e+00 6.11490011e-01 1.48886004e-02 8.53239000e-03
      2.21048999e+00 9.83242989e-01 7.21702003e+00 5.72100997e-01
      1.87803991e-02 1.11130001e-02 1.34732997e+00 9.90670025e-01
      6.83900976e+00 6.36672974e-01 1.59696005e-02 8.31986032e-03
      2.50215006e+00 9.81077015e-01 7.25580978e+00 5.56598008e-01</_>
    <_>
      1.95726994e-02 1.22181000e-02 1.39294004e+00 9.87417996e-01
      6.57122993e+00 6.10341012e-01 1.60812009e-02 1.07509000e-02
      2.07410002e+00 9.78900015e-01 6.75288010e+00 5.35893977e-01
      2.25018002e-02 1.41831003e-02 8.78278017e-01 9.92447019e-01
      6.30750990e+00 6.52454972e-01 1.64874997e-02 1.11207999e-02
      1.73535001e+00 9.85181987e-01 6.69093990e+00 5.74428976e-01</_>
    <_>
      1.02276001e-02 5.46409981e-03 7.79548979e+00 9.54789996e-01
      7.95277023e+00 5.22732973e-01 8.35059024e-03 4.57926001e-03
      7.64960003e+00 9.56552029e-01 8.17385006e+00 4.85327989e-01
      1.06570004e-02 5.79083012e-03 3.37286997e+00 9.81351972e-01
      7.76468992e+00 5.37065029e-01 8.60062987e-03 4.41587018e-03
      9.45668030e+00 9.47706997e-01 8.26039982e+00 4.70977992e-01</_>
    <_>
      1.19236996e-02 5.46741020e-03 8.49415016e+00 9.46447015e-01
      8.16036987e+00 5.08765996e-01 1.08078001e-02 4.79009002e-03
      1.04621000e+01 9.31520998e-01 8.30576038e+00 4.82712001e-01
      1.30142001e-02 6.58622989e-03 5.64529991e+00 9.65712011e-01
      7.80869007e+00 5.12997985e-01 1.04366997e-02 4.69698012e-03
      1.12638998e+01 9.21015024e-01 8.33796978e+00 4.65943009e-01</_>
    <_>
      8.49056989e-03 4.15296992e-03 7.22615004e+00 9.64515984e-01
      8.35468960e+00 4.77907985e-01 6.86223991e-03 3.70797003e-03
      1.04279003e+01 9.50609028e-01 8.54979038e+00 4.45322007e-01
      8.89865961e-03 4.67775995e-03 6.51747990e+00 9.69924986e-01
      8.22523022e+00 4.94994998e-01 7.07056979e-03 3.74396006e-03
      1.04696999e+01 9.47867990e-01 8.55372047e+00 4.40991014e-01</_>
    <_>
      1.29206004e-02 6.71875011e-03 4.96104002e+00 9.71193016e-01
      7.77783012e+00 5.36475003e-01 1.21085001e-02 5.74654015e-03
      6.84463978e+00 9.56248999e-01 7.98823023e+00 4.98468995e-01
      1.42109003e-02 7.54468981e-03 4.20341015e+00 9.74346995e-01
      7.56965017e+00 5.82333982e-01 1.14120999e-02 5.61433984e-03
      7.84953022e+00 9.48984981e-01 8.03394985e+00 5.07135987e-01</_>
    <_>
      1.82272997e-02 9.37347021e-03 1.85424995e+00 9.87821996e-01
      7.15244007e+00 6.21765971e-01 1.61300991e-02 8.30497034e-03
      2.09800005e+00 9.86193001e-01 7.31072998e+00 6.00899994e-01
      1.86228994e-02 1.04785003e-02 1.25619996e+00 9.91991997e-01
      6.91742992e+00 6.32523000e-01 1.55550996e-02 8.01686011e-03
      2.77463007e+00 9.81564999e-01 7.39931011e+00 5.67300022e-01</_>
    <_>
      1.45466998e-02 8.21375009e-03 2.97095990e+00 9.80266988e-01
      7.37591982e+00 5.65254986e-01 1.35056004e-02 6.89698989e-03
      4.74758005e+00 9.65125024e-01 7.62915993e+00 5.13664007e-01
      1.43518997e-02 8.51684995e-03 2.46908998e+00 9.83617008e-01
      7.26149988e+00 5.80081999e-01 1.26601001e-02 6.52675005e-03
      4.23426008e+00 9.68479991e-01 7.65130997e+00 5.14019012e-01</_>
    <_>
      1.82900000e-02 1.11431004e-02 1.51226997e+00 9.88281012e-01
      6.83555984e+00 6.33949995e-01 1.86567008e-02 1.06178997e-02
      1.95221996e+00 9.85575974e-01 6.97722006e+00 6.23193979e-01
      2.18745004e-02 1.24834003e-02 1.20059001e+00 9.90438998e-01
      6.67057991e+00 6.18225992e-01 1.69922002e-02 1.00304000e-02
      2.13727999e+00 9.83395994e-01 7.05934000e+00 5.90888023e-01</_>
    <_>
      1.70744993e-02 8.05228017e-03 4.33147001e+00 9.62490976e-01
      7.46365976e+00 5.25364995e-01 1.29592000e-02 6.77719014e-03
      5.10172987e+00 9.58193004e-01 7.61794996e+00 5.04567027e-01
      1.59805994e-02 8.78109038e-03 2.80663991e+00 9.75625992e-01
      7.21712017e+00 5.56766987e-01 1.28424997e-02 6.64460985e-03
      5.36361980e+00 9.54147995e-01 7.66210985e+00 4.96785015e-01</_>
    <_>
      7.67609989e-03 4.64627985e-03 3.96748996e+00 9.81454015e-01
      8.06945992e+00 4.94080007e-01 7.57125998e-03 4.01732977e-03
      7.09678984e+00 9.67738986e-01 8.34576988e+00 4.38879997e-01
      8.38704966e-03 4.78238007e-03 4.42964983e+00 9.78223979e-01
      8.01185036e+00 4.88586992e-01 7.24103022e-03 4.01015021e-03
      6.65359020e+00 9.68594015e-01 8.32026005e+00 4.54055011e-01</_>
    <_>
      9.66313016e-03 4.61078016e-03 6.85726976e+00 9.65126991e-01
      8.22136021e+00 4.98627990e-01 7.81035004e-03 3.91709991e-03
      1.15139999e+01 9.37638998e-01 8.49178982e+00 4.38582987e-01
      9.73952003e-03 4.84356005e-03 8.20853996e+00 9.57077980e-01
      8.20139027e+00 4.85859990e-01 7.65840989e-03 3.68222990e-03
      1.16413002e+01 9.36510026e-01 8.56408024e+00 4.21584994e-01</_>
    <_>
      9.83079989e-03 4.69814008e-03 6.85751009e+00 9.77352023e-01
      8.29920006e+00 5.16713977e-01 7.84881040e-03 4.17301012e-03
      6.72876978e+00 9.75134015e-01 8.39507961e+00 4.83063012e-01
      1.08158998e-02 5.39558986e-03 2.98607993e+00 9.89650011e-01
      7.92017984e+00 5.63483000e-01 7.57915014e-03 3.97882983e-03
      7.82295990e+00 9.72257972e-01 8.46436977e+00 4.74330008e-01</_>
    <_>
      1.22456998e-02 6.31276984e-03 5.18430996e+00 9.70759988e-01
      7.82045984e+00 5.31219006e-01 1.13998000e-02 5.95105020e-03
      5.27710009e+00 9.70095992e-01 7.85589981e+00 5.17359018e-01
      1.48035996e-02 8.91429000e-03 1.92009997e+00 9.89737988e-01
      7.24176979e+00 6.07953012e-01 1.12599004e-02 5.53744007e-03
      6.52385998e+00 9.63410974e-01 8.00611973e+00 5.11745989e-01</_>
    <_>
      9.11975000e-03 4.37836023e-03 8.90944958e+00 9.60525990e-01
      8.41475010e+00 4.86146986e-01 7.53954984e-03 3.80553002e-03
      1.32769003e+01 9.34451997e-01 8.62191963e+00 4.34776992e-01
      9.65427980e-03 4.96469019e-03 8.38339043e+00 9.62597013e-01
      8.23077965e+00 4.99451995e-01 7.40052992e-03 3.74789000e-03
      1.26309004e+01 9.34243023e-01 8.61787033e+00 4.39482987e-01</_>
    <_>
      1.52962999e-02 8.19205958e-03 3.43646002e+00 9.76080000e-01
      7.44231987e+00 5.86382985e-01 1.37366997e-02 7.25232018e-03
      3.92814994e+00 9.73012984e-01 7.58694983e+00 5.44744015e-01
      1.70871001e-02 1.01161003e-02 1.76803994e+00 9.87764001e-01
      7.04722023e+00 6.06249988e-01 1.27760004e-02 6.81322999e-03
      4.42292023e+00 9.68523026e-01 7.67499018e+00 5.30928016e-01</_>
    <_>
      1.29990000e-02 6.71789981e-03 4.60490990e+00 9.75948989e-01
      7.75487995e+00 5.52075028e-01 1.16641996e-02 5.49426023e-03
      6.54766989e+00 9.63666022e-01 8.03544998e+00 5.14651000e-01
      1.36911003e-02 7.23166019e-03 2.88515997e+00 9.83847022e-01
      7.56286001e+00 5.69940984e-01 1.10964999e-02 5.41506987e-03
      5.35907984e+00 9.69317019e-01 7.98512983e+00 5.23925006e-01</_>
    <_>
      1.51974000e-02 7.78697990e-03 2.99048996e+00 9.83323991e-01
      7.47049999e+00 5.73530972e-01 1.39191998e-02 6.50185021e-03
      4.73947001e+00 9.71050978e-01 7.75684977e+00 5.47181010e-01
      1.62665006e-02 8.53218976e-03 3.08984995e+00 9.80211973e-01
      7.35507011e+00 5.81296980e-01 1.32544003e-02 6.68708002e-03
      4.76885986e+00 9.73471999e-01 7.72503996e+00 5.37092984e-01</_>
    <_>
      1.68343000e-02 8.94351024e-03 2.95599008e+00 9.81818974e-01
      7.28518009e+00 5.75257003e-01 1.48531999e-02 7.91941024e-03
      3.96068001e+00 9.74922001e-01 7.45544004e+00 5.90260983e-01
      1.69053003e-02 9.26009007e-03 2.08704996e+00 9.87824976e-01
      7.17018986e+00 6.08817995e-01 1.42171998e-02 7.32207019e-03
      3.65098000e+00 9.76550996e-01 7.56738997e+00 5.68347991e-01</_>
    <_>
      1.86077002e-02 9.30621009e-03 2.40368009e+00 9.83883023e-01
      7.18846989e+00 6.08451009e-01 1.76359005e-02 8.56497046e-03
      3.34039998e+00 9.76271987e-01 7.32452011e+00 5.89579999e-01
      1.88132003e-02 1.04074003e-02 1.56269002e+00 9.88557994e-01
      6.97536993e+00 6.46947980e-01 1.59994997e-02 7.84367975e-03
      3.16861010e+00 9.78048027e-01 7.44254017e+00 5.63046992e-01</_>
    <_>
      1.48293003e-02 7.34461984e-03 4.39230013e+00 9.74942982e-01
      7.63542986e+00 5.51218987e-01 1.26719000e-02 6.16772007e-03
      6.24615002e+00 9.58782017e-01 7.85656977e+00 5.12085021e-01
      1.45659000e-02 7.61443982e-03 3.51542997e+00 9.78350997e-01
      7.52200985e+00 5.70160985e-01 1.26205999e-02 6.04271004e-03
      6.38964987e+00 9.57699001e-01 7.89572001e+00 5.06145000e-01</_>
    <_>
      1.58529002e-02 8.93959962e-03 2.81833005e+00 9.81212974e-01
      7.28642988e+00 5.84423006e-01 1.39875999e-02 7.60310981e-03
      3.64851999e+00 9.74839985e-01 7.48648024e+00 5.70927024e-01
      2.00031009e-02 1.03615001e-02 2.31366992e+00 9.83355999e-01
      7.09434986e+00 5.88856995e-01 1.54219000e-02 7.70892017e-03
      4.28798008e+00 9.71861005e-01 7.54214001e+00 5.63809991e-01</_>
    <_>
      1.39448997e-02 6.54149987e-03 6.11733007e+00 9.61538970e-01
      7.78699017e+00 5.34530997e-01 1.20732998e-02 5.93581004e-03
      6.93115997e+00 9.52748001e-01 7.85351992e+00 5.09212971e-01
      1.55637003e-02 8.96723010e-03 2.14087009e+00 9.86240983e-01
      7.17905998e+00 6.04238987e-01 1.20259002e-02 5.82231022e-03
      5.95483017e+00 9.58092988e-01 7.86994982e+00 5.11502028e-01</_>
    <_>
      1.11315995e-02 5.41030988e-03 8.46564007e+00 9.58343029e-01
      8.18424034e+00 5.07829010e-01 9.33239982e-03 4.60436987e-03
      1.43415003e+01 9.22816992e-01 8.38624954e+00 4.67918992e-01
      1.13474997e-02 5.71021019e-03 8.43138027e+00 9.58949983e-01
      8.07448959e+00 5.26808977e-01 9.47387982e-03 4.58661001e-03
      1.15451002e+01 9.39517021e-01 8.38004017e+00 4.69601989e-01</_>
    <_>
      1.11443996e-02 5.12092980e-03 8.74508953e+00 9.60120022e-01
      8.23103046e+00 5.36961019e-01 1.02278003e-02 4.99531021e-03
      9.53557968e+00 9.54135001e-01 8.23781013e+00 4.97649997e-01
      1.33290002e-02 6.12792978e-03 4.44362020e+00 9.79376018e-01
      7.89120007e+00 5.61204016e-01 9.70873982e-03 4.66895988e-03
      1.08141003e+01 9.46653008e-01 8.33932018e+00 4.96473998e-01</_>
    <_>
      1.13471998e-02 5.18401992e-03 7.07740021e+00 9.71478999e-01
      8.21848965e+00 5.33649027e-01 1.00362003e-02 5.07498020e-03
      7.39735985e+00 9.67823982e-01 8.19956017e+00 5.15681028e-01
      1.33872004e-02 6.56628003e-03 3.64861989e+00 9.85211015e-01
      7.78022003e+00 5.84576011e-01 1.00191003e-02 4.57323994e-03
      9.51881027e+00 9.56761003e-01 8.38901043e+00 4.96255994e-01</_>
    <_>
      2.32974999e-02 8.29572044e-03 3.07696991e+01 9.48064029e-01
      8.24921036e+00 4.71073985e-01 2.34916005e-02 7.99784996e-03
      4.10546989e+01 9.36939001e-01 8.35013008e+00 4.37326014e-01
      2.59127002e-02 1.00533003e-02 1.31728001e+01 9.79963005e-01
      7.79531002e+00 5.78423977e-01 2.34945007e-02 7.10351020e-03
      4.27279015e+01 9.35581028e-01 8.47751045e+00 4.49072987e-01</_>
    <_>
      1.00427000e-02 4.37430013e-03 7.08488989e+00 9.81941998e-01
      8.47212982e+00 5.52217007e-01 9.31019988e-03 3.97058995e-03
      7.99787998e+00 9.79453027e-01 8.57071972e+00 5.31926990e-01
      1.10491998e-02 5.97868022e-03 1.84122002e+00 9.95477021e-01
      7.84530020e+00 6.33942008e-01 9.36446991e-03 3.94205004e-03
      7.66816998e+00 9.79614973e-01 8.61664963e+00 5.24280012e-01</_>
    <_>
      1.27320997e-02 5.97921992e-03 4.17358017e+00 9.84799027e-01
      7.95592022e+00 5.85094988e-01 1.20005999e-02 5.74553013e-03
      4.30063009e+00 9.84408021e-01 8.00621986e+00 5.86015999e-01
      1.43211996e-02 7.33581977e-03 1.41064000e+00 9.95346010e-01
      7.48363018e+00 6.31259024e-01 1.18576996e-02 5.10335015e-03
      4.97674990e+00 9.81831014e-01 8.20271015e+00 5.55360973e-01</_>
    <_>
      1.01642003e-02 4.85369004e-03 6.57458019e+00 9.81293023e-01
      8.32925987e+00 5.37277997e-01 7.96850026e-03 3.98709020e-03
      1.11612997e+01 9.62284982e-01 8.56949043e+00 4.54347998e-01
      9.39710997e-03 4.51608002e-03 6.08239985e+00 9.82061982e-01
      8.32546043e+00 5.08557022e-01 7.84302037e-03 3.85174993e-03
      8.18177032e+00 9.73007977e-01 8.59109974e+00 4.59237009e-01</_>
    <_>
      8.57784972e-03 4.21818020e-03 6.23060989e+00 9.87697005e-01
      8.47861004e+00 5.60579002e-01 7.93651026e-03 3.80973006e-03
      6.58993006e+00 9.87026989e-01 8.60052013e+00 5.42001009e-01
      9.41863004e-03 5.09922998e-03 2.42763996e+00 9.95208979e-01
      8.08413029e+00 6.01198018e-01 7.21724983e-03 3.58128990e-03
      7.33819008e+00 9.84380007e-01 8.69239044e+00 5.21104991e-01</_>
    <_>
      1.43533004e-02 7.48512009e-03 2.66942000e+00 9.88709986e-01
      7.57878017e+00 6.16837978e-01 1.32627003e-02 6.68331003e-03
      3.09855008e+00 9.87682998e-01 7.73858976e+00 6.09005988e-01
      1.50017999e-02 7.58183002e-03 1.84356999e+00 9.92757022e-01
      7.49563980e+00 6.51654005e-01 1.20716002e-02 5.86191984e-03
      3.92856002e+00 9.83026028e-01 7.94620991e+00 5.88608980e-01</_>
    <_>
      3.29340994e-02 1.45423999e-02 1.28178997e+01 9.77033019e-01
      7.10501003e+00 5.39150000e-01 2.98260003e-02 1.54291997e-02
      1.46680002e+01 9.72277999e-01 6.97697020e+00 5.60473979e-01
      3.43095995e-02 1.67306997e-02 7.89106989e+00 9.85203981e-01
      6.81069994e+00 6.24230981e-01 3.21572982e-02 1.37902005e-02
      2.19538002e+01 9.56255019e-01 7.26265001e+00 5.39982021e-01</_>
    <_>
      1.58620998e-02 8.15028045e-03 4.65786982e+00 9.84997988e-01
      7.63380003e+00 5.75393021e-01 1.26499003e-02 6.58993982e-03
      5.14022017e+00 9.80800986e-01 7.82657003e+00 5.44373989e-01
      1.54264001e-02 7.61626987e-03 3.88017011e+00 9.87312973e-01
      7.62276983e+00 5.69046974e-01 1.34806996e-02 5.84281981e-03
      7.92973995e+00 9.70335007e-01 8.03501987e+00 5.03697991e-01</_>
    <_>
      1.75595991e-02 8.88948981e-03 3.82378006e+00 9.85864997e-01
      7.41573000e+00 6.01508021e-01 1.41500998e-02 6.94883009e-03
      4.77763987e+00 9.80139017e-01 7.68109989e+00 5.47770023e-01
      1.53893000e-02 8.39652028e-03 3.59896994e+00 9.86328006e-01
      7.39806986e+00 5.86067975e-01 1.50134005e-02 6.67436002e-03
      7.19969988e+00 9.70574975e-01 7.79563999e+00 5.21314025e-01</_>
    <_>
      1.15152998e-02 5.55420015e-03 5.29975986e+00 9.82883990e-01
      8.12166977e+00 5.52244008e-01 1.10533005e-02 4.87142010e-03
      6.04302979e+00 9.80452001e-01 8.29887009e+00 5.42698026e-01
      1.28049999e-02 6.36989018e-03 2.21410990e+00 9.92549002e-01
      7.76613998e+00 6.07913971e-01 1.06637003e-02 4.62889019e-03
      6.68134022e+00 9.78037000e-01 8.36740971e+00 5.18220007e-01</_>
    <_>
      1.22287003e-02 6.40753005e-03 4.05874014e+00 9.83031988e-01
      7.81325006e+00 6.02545977e-01 1.21531002e-02 5.96698979e-03
      4.95147991e+00 9.79553998e-01 7.97788000e+00 5.66349983e-01
      1.38996998e-02 7.38494983e-03 2.15250993e+00 9.91459012e-01
      7.57325983e+00 6.22789979e-01 1.20532997e-02 5.59236016e-03
      5.69261980e+00 9.76897001e-01 8.08343983e+00 5.56643009e-01</_>
    <_>
      1.80489998e-02 1.02471001e-02 3.62161994e+00 9.56759989e-01
      7.05691004e+00 5.33216000e-01 1.38943996e-02 7.67976977e-03
      5.34127998e+00 9.33894992e-01 7.42575979e+00 5.06367028e-01
      1.75487008e-02 9.95077007e-03 3.24857998e+00 9.61026013e-01
      7.04871988e+00 5.40557027e-01 1.57648008e-02 8.34586006e-03
      5.33318996e+00 9.36630011e-01 7.33367014e+00 5.20774007e-01</_>
    <_>
      5.64409010e-02 2.42215004e-02 1.51806002e+01 9.83709991e-01
      6.48427010e+00 6.01710021e-01 4.91609015e-02 2.64621992e-02
      2.08381004e+01 9.76741016e-01 6.30966997e+00 6.18699014e-01
      5.34959994e-02 2.46670004e-02 8.22430992e+00 9.92311001e-01
      6.37448978e+00 5.97828984e-01 5.01480997e-02 2.65437998e-02
      1.58715000e+01 9.81925011e-01 6.26817989e+00 6.28944993e-01</_>
    <_>
      1.52581995e-02 8.06850009e-03 2.59265995e+00 9.90329027e-01
      7.44402981e+00 6.20666027e-01 1.26973996e-02 7.04040006e-03
      3.15637994e+00 9.87820983e-01 7.58830976e+00 5.99758983e-01
      1.65682994e-02 8.65122024e-03 1.61268997e+00 9.93852973e-01
      7.27378988e+00 6.26953006e-01 1.47703001e-02 6.97821006e-03
      3.24431992e+00 9.88063991e-01 7.65670013e+00 5.82889974e-01</_>
    <_>
      1.17375003e-02 7.24860001e-03 3.12491012e+00 9.85419989e-01
      7.59524012e+00 5.71475983e-01 1.03083998e-02 5.21842018e-03
      5.25605011e+00 9.76595998e-01 8.05609035e+00 5.34398019e-01
      1.24754002e-02 6.58163987e-03 2.68458009e+00 9.87459004e-01
      7.66886997e+00 5.64203978e-01 1.19681004e-02 5.66649996e-03
      4.44756985e+00 9.81459975e-01 7.94478989e+00 5.33985972e-01</_>
    <_>
      1.57817006e-02 8.97969957e-03 2.39485002e+00 9.88155007e-01
      7.25854015e+00 6.23964012e-01 1.37534998e-02 7.12257996e-03
      3.40740991e+00 9.80759978e-01 7.60063982e+00 5.50155997e-01
      1.55959995e-02 8.32858030e-03 1.84013999e+00 9.89565015e-01
      7.28101015e+00 6.11836016e-01 1.47778001e-02 7.39863981e-03
      3.68810010e+00 9.79191005e-01 7.56572008e+00 5.42118013e-01</_>
    <_>
      1.71425007e-02 9.11813974e-03 2.06078005e+00 9.86760020e-01
      7.22931004e+00 5.99941015e-01 1.53780999e-02 7.80283986e-03
      2.80609989e+00 9.82550025e-01 7.46168995e+00 5.56518972e-01
      1.79051999e-02 9.63565987e-03 1.59171999e+00 9.90072012e-01
      7.08019018e+00 6.26671016e-01 1.53780999e-02 7.85418041e-03
      3.05469990e+00 9.81727004e-01 7.44648981e+00 5.54105997e-01</_>
    <_>
      5.90749010e-02 2.71470007e-02 9.69935036e+00 9.89015996e-01
      6.16483021e+00 6.61567986e-01 4.84073982e-02 2.28221007e-02
      2.87122993e+01 9.64228988e-01 6.36620998e+00 5.81382990e-01
      5.64478002e-02 2.96931993e-02 2.06613007e+01 9.76656973e-01
      6.07397985e+00 6.67180002e-01 4.63664010e-02 2.57045999e-02
      2.04400005e+01 9.71296012e-01 6.16099024e+00 6.13880992e-01</_>
    <_>
      1.07621998e-02 5.24416007e-03 8.93762016e+00 9.71158028e-01
      8.27470970e+00 5.32773018e-01 1.00389998e-02 4.57492983e-03
      9.99275970e+00 9.65587020e-01 8.45016956e+00 5.05915999e-01
      1.24227004e-02 5.93612017e-03 3.19468999e+00 9.89899993e-01
      7.96356010e+00 5.98984003e-01 9.84061975e-03 4.33715014e-03
      1.06576004e+01 9.61998999e-01 8.54570961e+00 4.96643990e-01</_>
    <_>
      9.91986040e-03 5.10114012e-03 4.46121979e+00 9.85554993e-01
      8.12322998e+00 5.56162000e-01 9.29707009e-03 4.54343017e-03
      5.87126017e+00 9.81528997e-01 8.31149960e+00 5.34196973e-01
      1.22899003e-02 6.04443019e-03 2.87307000e+00 9.90893006e-01
      7.83683014e+00 5.84309995e-01 9.04383976e-03 4.65250015e-03
      5.86745977e+00 9.80919003e-01 8.27077961e+00 5.41383028e-01</_>
    <_>
      7.29339989e-03 3.93038988e-03 5.62952995e+00 9.87236023e-01
      8.47270966e+00 5.14129996e-01 7.10528996e-03 3.25492001e-03
      7.80566978e+00 9.81948018e-01 8.75271034e+00 4.80188996e-01
      7.74809020e-03 4.08816012e-03 4.40733004e+00 9.90189016e-01
      8.39237022e+00 5.23554027e-01 6.54301979e-03 3.31116002e-03
      8.45149040e+00 9.79457974e-01 8.73929977e+00 4.68003988e-01</_>
    <_>
      1.16279004e-02 5.77752013e-03 6.91692019e+00 9.79327977e-01
      8.08158016e+00 5.55176973e-01 9.71394032e-03 5.04626008e-03
      8.86143970e+00 9.71884012e-01 8.25745010e+00 5.16755998e-01
      1.14936996e-02 5.67953009e-03 4.21739006e+00 9.87246990e-01
      8.03641987e+00 5.35314977e-01 9.75218043e-03 5.01039019e-03
      7.88240004e+00 9.74551022e-01 8.26996994e+00 5.09094000e-01</_>
    <_>
      7.45037990e-03 3.84200993e-03 6.61918020e+00 9.78309989e-01
      8.47574997e+00 4.86606985e-01 6.75748987e-03 3.50263994e-03
      9.04673004e+00 9.69624996e-01 8.62073994e+00 4.53217000e-01
      8.29656981e-03 4.66691004e-03 4.09540987e+00 9.86696005e-01
      8.09912968e+00 5.23095012e-01 6.35180995e-03 3.49301007e-03
      8.23266029e+00 9.70372021e-01 8.59521961e+00 4.59495991e-01</_>
    <_>
      1.21587999e-02 6.56979019e-03 3.80386996e+00 9.84450996e-01
      7.73193979e+00 5.84987998e-01 1.16844000e-02 5.85117983e-03
      4.18122005e+00 9.82828021e-01 7.88780022e+00 5.59958994e-01
      1.54959001e-02 8.54016002e-03 1.41017997e+00 9.94368017e-01
      7.21331978e+00 6.35007024e-01 1.15489000e-02 6.09205989e-03
      4.53613997e+00 9.81598973e-01 7.81690979e+00 5.75621009e-01</_>
    <_>
      1.53743997e-02 7.90118985e-03 3.85016990e+00 9.80727971e-01
      7.55042982e+00 5.85020006e-01 1.36561003e-02 6.48844987e-03
      4.76462984e+00 9.74650979e-01 7.78423023e+00 5.54037988e-01
      1.57396998e-02 8.21962021e-03 1.69807994e+00 9.91146982e-01
      7.30797005e+00 6.22644007e-01 1.41860005e-02 6.51805988e-03
      4.57448006e+00 9.75077987e-01 7.78790998e+00 5.50772011e-01</_>
    <_>
      9.65411961e-03 5.36620989e-03 5.24021006e+00 9.72953975e-01
      7.99809980e+00 4.97898012e-01 9.14162025e-03 4.73192986e-03
      7.19088984e+00 9.64713991e-01 8.22902012e+00 4.82270986e-01
      1.05389999e-02 5.90055017e-03 3.49095988e+00 9.83325005e-01
      7.81105995e+00 5.42146981e-01 9.49142035e-03 5.04133990e-03
      7.39729023e+00 9.64447975e-01 8.16007996e+00 4.69933003e-01</_>
    <_>
      1.06747998e-02 5.16325980e-03 4.39483976e+00 9.89693999e-01
      8.19034004e+00 5.74855983e-01 8.73766001e-03 4.38074023e-03
      5.93692017e+00 9.84284997e-01 8.40894032e+00 5.21663010e-01
      1.06947003e-02 5.19275013e-03 3.43941998e+00 9.91412997e-01
      8.12325954e+00 5.82702994e-01 9.57782008e-03 4.43022000e-03
      6.53680992e+00 9.83184993e-01 8.41573048e+00 5.02801001e-01</_>
    <_>
      1.09227998e-02 5.36774006e-03 6.88797998e+00 9.70160007e-01
      8.14105034e+00 5.33776999e-01 8.71853996e-03 4.51460015e-03
      7.99932003e+00 9.61618006e-01 8.29580021e+00 4.89239991e-01
      1.06223002e-02 5.90929994e-03 3.05976009e+00 9.85756993e-01
      7.79929018e+00 5.64763010e-01 9.04604979e-03 4.49017994e-03
      7.66983986e+00 9.65031981e-01 8.30228996e+00 4.82479006e-01</_>
    <_>
      1.22082997e-02 6.15013018e-03 5.91021013e+00 9.68918979e-01
      7.92343998e+00 5.30321002e-01 1.06241005e-02 5.11940988e-03
      7.83290005e+00 9.57216024e-01 8.13315010e+00 4.98519987e-01
      1.20956004e-02 6.25760993e-03 3.84712005e+00 9.79323983e-01
      7.75474024e+00 5.70620000e-01 1.08137997e-02 5.09345019e-03
      8.19725990e+00 9.55446005e-01 8.17920017e+00 4.92040992e-01</_>
    <_>
      3.41127999e-02 1.66589003e-02 3.22545004e+00 9.54630971e-01
      6.53269005e+00 6.09547019e-01 3.18391994e-02 1.44066000e-02
      9.13959026e+00 8.65881026e-01 6.78120995e+00 5.45867980e-01
      3.69932018e-02 1.96511000e-02 8.30023956e+00 8.87254000e-01
      6.31006002e+00 6.41237974e-01 3.00529003e-02 1.43141998e-02
      9.20818043e+00 8.72606993e-01 6.76486015e+00 5.97177029e-01</_>
    <_>
      1.34225003e-02 6.72974996e-03 4.98047018e+00 9.78991985e-01
      7.85292006e+00 5.67619979e-01 1.21502001e-02 5.47217019e-03
      8.86476994e+00 9.57102001e-01 8.18276978e+00 5.00222027e-01
      1.26360999e-02 6.31417008e-03 4.65227985e+00 9.79597986e-01
      7.86815023e+00 5.65226972e-01 1.08824996e-02 5.34394011e-03
      7.13975000e+00 9.67055023e-01 8.15643978e+00 5.26149988e-01</_>
    <_>
      1.17881000e-02 5.99199021e-03 7.68094015e+00 9.59191978e-01
      7.97385979e+00 5.17418027e-01 9.36026033e-03 5.03946003e-03
      9.52392006e+00 9.51183975e-01 8.16485023e+00 4.77768004e-01
      1.20738996e-02 6.45013014e-03 3.66921997e+00 9.81891990e-01
      7.72241020e+00 5.66393971e-01 9.76562034e-03 5.18275006e-03
      8.08395004e+00 9.57404971e-01 8.08901978e+00 5.10397017e-01</_>
    <_>
      1.38841998e-02 7.51589984e-03 4.49540997e+00 9.73703980e-01
      7.61319017e+00 5.54416001e-01 1.13944998e-02 6.00971002e-03
      8.04656982e+00 9.46105003e-01 7.92023993e+00 5.10457993e-01
      1.48826996e-02 7.71440007e-03 5.28067017e+00 9.69805002e-01
      7.61512995e+00 5.70969999e-01 1.30051998e-02 6.46877009e-03
      6.89035988e+00 9.56983984e-01 7.82967997e+00 5.29774010e-01</_>
    <_>
      4.89442982e-02 2.25965995e-02 8.48906040e+00 9.93121982e-01
      6.59775019e+00 6.53333008e-01 4.85339016e-02 1.99008007e-02
      2.19761009e+01 9.83666003e-01 6.78955984e+00 6.02976978e-01
      5.62810004e-02 2.32500993e-02 1.04778996e+01 9.92591023e-01
      6.60101986e+00 6.40987992e-01 4.21072990e-02 1.94202997e-02
      1.06864004e+01 9.91087973e-01 6.73146009e+00 6.04484975e-01</_>
    <_>
      1.74116008e-02 8.88311025e-03 3.44331002e+00 9.80839014e-01
      7.33514977e+00 5.15278995e-01 1.79274008e-02 8.45027994e-03
      3.68891001e+00 9.79848981e-01 7.42923021e+00 5.10128975e-01
      1.98500007e-02 1.11798001e-02 1.10933006e+00 9.94072020e-01
      6.84606981e+00 6.45507991e-01 1.63300000e-02 8.23669974e-03
      4.29242992e+00 9.75592971e-01 7.45488977e+00 4.97541010e-01</_>
    <_>
      1.02065001e-02 5.10580000e-03 7.37287998e+00 9.79238987e-01
      8.17739964e+00 5.39169014e-01 1.07977996e-02 4.85996017e-03
      9.41281033e+00 9.73958015e-01 8.27985001e+00 4.96789992e-01
      1.29538998e-02 7.07155000e-03 1.66278994e+00 9.95624006e-01
      7.61294985e+00 6.65151000e-01 1.05272001e-02 4.96937986e-03
      7.57745981e+00 9.78173018e-01 8.25726032e+00 5.19850016e-01</_>
    <_>
      1.25086997e-02 5.39868977e-03 8.14540958e+00 9.75934982e-01
      8.17665005e+00 5.43151975e-01 1.15344003e-02 5.17447991e-03
      8.42572021e+00 9.74116027e-01 8.17724037e+00 5.29742002e-01
      1.44344997e-02 7.11815013e-03 1.71940005e+00 9.95146990e-01
      7.61388016e+00 6.64754987e-01 1.14425002e-02 4.83414996e-03
      8.58576965e+00 9.73626971e-01 8.30101013e+00 5.37424982e-01</_>
    <_>
      1.01335002e-02 5.74972993e-03 7.86493015e+00 9.28803980e-01
      7.83961010e+00 4.65303987e-01 1.02779996e-02 5.47384005e-03
      8.74333000e+00 9.26509023e-01 7.91381979e+00 4.62312996e-01
      1.62502993e-02 8.78730044e-03 2.18474007e+00 9.83139992e-01
      7.18189001e+00 5.82297981e-01 1.04128001e-02 5.45823015e-03
      8.92492008e+00 9.20473993e-01 7.94137001e+00 4.50062990e-01</_>
    <_>
      1.30037004e-02 6.36332016e-03 3.86985993e+00 9.84085023e-01
      7.84915018e+00 5.54035008e-01 1.15820002e-02 5.84864989e-03
      3.89652991e+00 9.83319998e-01 7.90326023e+00 5.64010978e-01
      1.43229002e-02 7.94246979e-03 1.36644995e+00 9.94427979e-01
      7.32183981e+00 6.14329994e-01 1.16723003e-02 5.77464001e-03
      4.68148994e+00 9.79721010e-01 7.99811983e+00 5.41787982e-01</_>
    <_>
      1.83824003e-02 8.75687972e-03 4.74646997e+00 9.85459030e-01
      7.56504011e+00 5.93401015e-01 1.71739999e-02 7.86533020e-03
      6.53657007e+00 9.79907990e-01 7.68654013e+00 5.24752021e-01
      1.97943002e-02 1.00341002e-02 1.63724005e+00 9.95392025e-01
      7.17160988e+00 6.72542989e-01 1.74752995e-02 7.97178969e-03
      4.66638994e+00 9.85749006e-01 7.66368008e+00 5.62874019e-01</_>
    <_>
      3.86767983e-02 1.09970002e-02 1.87777996e+01 9.70699012e-01
      7.94146013e+00 5.05019009e-01 3.79919000e-02 1.30433002e-02
      2.22525005e+01 9.63891983e-01 7.78368998e+00 5.12055993e-01
      3.60900015e-02 1.44424001e-02 7.51549006e+00 9.87971008e-01
      7.31961012e+00 6.17864013e-01 3.59993987e-02 1.26007004e-02
      2.29507999e+01 9.62319016e-01 7.75516987e+00 5.34807980e-01</_>
    <_>
      1.23554002e-02 5.80033008e-03 2.66880989e+00 9.93785024e-01
      7.90879011e+00 6.09745026e-01 1.08690998e-02 5.23626013e-03
      2.98631001e+00 9.92654979e-01 8.01613045e+00 5.89082003e-01
      1.37344999e-02 7.77379982e-03 9.71549988e-01 9.97861028e-01
      7.35393000e+00 6.67236984e-01 1.01258997e-02 5.03263017e-03
      2.83564997e+00 9.92940009e-01 8.04724979e+00 5.89330018e-01</_>
    <_>
      1.06365001e-02 5.09097008e-03 4.50929022e+00 9.90082026e-01
      8.17928028e+00 5.83994985e-01 9.79525968e-03 4.75418009e-03
      4.89717007e+00 9.89107013e-01 8.25164986e+00 5.57079971e-01
      1.28271999e-02 6.62630005e-03 1.20001996e+00 9.97645020e-01
      7.63361979e+00 6.38128996e-01 1.00929998e-02 4.52498021e-03
      4.81772995e+00 9.88910019e-01 8.33119011e+00 5.62699020e-01</_>
    <_>
      1.15134995e-02 5.10954997e-03 4.91263008e+00 9.88384008e-01
      8.26476955e+00 5.62258005e-01 1.04333004e-02 4.78337985e-03
      4.75811005e+00 9.88689005e-01 8.29354000e+00 5.52686989e-01
      1.21237999e-02 6.20234990e-03 1.60298002e+00 9.96329010e-01
      7.80782986e+00 6.32191002e-01 9.99643002e-03 4.47128993e-03
      5.98488998e+00 9.85234022e-01 8.45337009e+00 5.49889982e-01</_>
    <_>
      1.65327005e-02 9.14585032e-03 2.57211995e+00 9.79018986e-01
      7.17512989e+00 5.78728020e-01 1.21636996e-02 7.33924983e-03
      3.31416011e+00 9.71095979e-01 7.39783001e+00 5.19801021e-01
      1.74135994e-02 9.47912969e-03 1.92750001e+00 9.83367980e-01
      7.01511002e+00 5.81659973e-01 1.33006005e-02 7.61954021e-03
      3.43856001e+00 9.69743013e-01 7.38347006e+00 5.30278981e-01</_>
    <_>
      1.65724009e-02 8.72027036e-03 3.29034996e+00 9.76758003e-01
      7.33438015e+00 5.91125011e-01 1.59924999e-02 8.14045034e-03
      4.78600979e+00 9.65393007e-01 7.44843006e+00 5.81128001e-01
      2.16830000e-02 9.98483039e-03 1.93520999e+00 9.86649990e-01
      7.09224987e+00 6.22973979e-01 1.42639996e-02 7.83345010e-03
      3.48243999e+00 9.73526001e-01 7.41423988e+00 5.51591992e-01</_>
    <_>
      1.84211005e-02 9.41213965e-03 2.99654007e+00 9.79389012e-01
      7.24849987e+00 5.90701997e-01 1.65193006e-02 8.84344988e-03
      3.98484993e+00 9.69223022e-01 7.30672979e+00 5.70414007e-01
      2.00286992e-02 1.07685002e-02 2.12511992e+00 9.85405982e-01
