<?xml version="1.0"?>
<opencv_storage>
<opencv_ml_svm>
  <format>3</format>
  <svmType>C_SVC</svmType>
  <kernel>
    <type>SIGMOID</type>
    <gamma>1.5000000000000001e-04</gamma>
    <coef0>1.0000000000000001e-01</coef0></kernel>
  <C>3.1250000000000000e+02</C>
  <term_criteria><epsilon>1.1920928955078125e-07</epsilon>
    <iterations>1000</iterations></term_criteria>
  <var_count>24</var_count>
  <class_count>2</class_count>
  <class_labels type_id="opencv-matrix">
    <rows>2</rows>
    <cols>1</cols>
    <dt>i</dt>
    <data>
      0 1</data></class_labels>
  <sv_total>676</sv_total>
  <support_vectors>
    <_>
      8.66303034e-03 4.26658010e-03 6.90668011e+00 9.74210024e-01
      8.37020969e+00 5.04495978e-01 6.89256983e-03 3.54786008e-03
      8.81688976e+00 9.65965986e-01 8.60068989e+00 4.58041996e-01
      9.81071033e-03 4.72179987e-03 5.26624012e+00 9.81441021e-01
      8.19668961e+00 5.37320971e-01 7.20058987e-03 3.63603001e-03
      9.19888020e+00 9.65371013e-01 8.58236980e+00 4.76027995e-01</_>
    <_>
      8.96286964e-03 4.36463999e-03 9.84774017e+00 9.62478995e-01
      8.36853981e+00 5.20808995e-01 7.28444010e-03 3.61429993e-03
      1.07112999e+01 9.56871986e-01 8.59109020e+00 4.61201996e-01
      1.01821003e-02 5.12037007e-03 4.18963003e+00 9.85319972e-01
      8.06451988e+00 5.44138014e-01 7.56736984e-03 3.81927006e-03
      1.08582001e+01 9.58113015e-01 8.53129959e+00 4.75338995e-01</_>
    <_>
      8.33333004e-03 4.11467999e-03 8.70254993e+00 9.67675984e-01
      8.40660000e+00 5.09298980e-01 7.00241979e-03 3.58426990e-03
      9.93115997e+00 9.61009026e-01 8.59642029e+00 4.64724988e-01
      9.56263021e-03 4.68348013e-03 4.83183002e+00 9.82568979e-01
      8.18766975e+00 5.46543002e-01 7.14850985e-03 3.62618011e-03
      1.09813995e+01 9.57575977e-01 8.59492016e+00 4.68928009e-01</_>
    <_>
      9.52308998e-03 4.38306015e-03 1.20574999e+01 9.54273999e-01
      8.38216972e+00 4.97581005e-01 7.71324988e-03 3.74592002e-03
      1.15903997e+01 9.54083979e-01 8.53676987e+00 4.67786014e-01
      1.14011997e-02 5.19309007e-03 4.27416992e+00 9.85092998e-01
      8.06266975e+00 5.44277012e-01 7.68199004e-03 3.73324007e-03
      1.27475996e+01 9.50519979e-01 8.57009983e+00 4.77376997e-01</_>
    <_>
      8.44583008e-03 4.09119995e-03 7.64317989e+00 9.72476006e-01
      8.40054989e+00 4.87183005e-01 6.72734017e-03 3.67451995e-03
      8.08920002e+00 9.70816016e-01 8.53277016e+00 4.67945009e-01
      1.00133996e-02 5.05451998e-03 4.16590977e+00 9.86122012e-01
      8.06809044e+00 5.61595976e-01 6.97810017e-03 3.65622994e-03
      9.66790009e+00 9.66893971e-01 8.58148003e+00 4.58301008e-01</_>
    <_>
      8.97444971e-03 4.07915981e-03 1.08614998e+01 9.60632980e-01
      8.47490025e+00 4.91679996e-01 6.83256984e-03 3.53505998e-03
      1.10423002e+01 9.57575023e-01 8.62362957e+00 4.50711012e-01
      1.00055998e-02 5.11984015e-03 4.21549988e+00 9.85369027e-01
      8.02692032e+00 5.61061978e-01 7.48027023e-03 3.59694008e-03
      1.20255003e+01 9.57701027e-01 8.62553024e+00 4.65043992e-01</_>
    <_>
      8.96309037e-03 4.39008977e-03 7.54924011e+00 9.72298980e-01
      8.32211971e+00 5.10608971e-01 7.12255016e-03 3.67673999e-03
      8.53754044e+00 9.67180014e-01 8.54901028e+00 4.53720987e-01
      1.02148000e-02 5.17150993e-03 4.10472012e+00 9.85854030e-01
      8.03775024e+00 5.29129982e-01 7.52846012e-03 3.83296004e-03
      9.37609005e+00 9.65088010e-01 8.52653027e+00 4.53179985e-01</_>
    <_>
      8.51382967e-03 4.07748017e-03 8.47729015e+00 9.70479012e-01
      8.45234966e+00 4.93463993e-01 6.66962983e-03 3.56026995e-03
      9.04792023e+00 9.65030015e-01 8.59206009e+00 4.64832008e-01
      9.60524008e-03 4.92485985e-03 3.98614001e+00 9.85343993e-01
      8.06735039e+00 5.45105994e-01 7.30554014e-03 3.57753993e-03
      9.78246975e+00 9.65879977e-01 8.61221981e+00 4.66639996e-01</_>
    <_>
      7.71358004e-03 3.91958980e-03 1.01042004e+01 9.70000982e-01
      8.48114014e+00 4.98728007e-01 6.37406018e-03 3.47164995e-03
      1.07601995e+01 9.66692984e-01 8.65001011e+00 4.59513992e-01
      9.17762984e-03 4.65688994e-03 4.44360018e+00 9.85948980e-01
      8.16423988e+00 5.39301991e-01 6.34896988e-03 3.49663990e-03
      1.14362001e+01 9.66369987e-01 8.64194012e+00 4.73040015e-01</_>
    <_>
      1.29883001e-02 5.74161019e-03 6.39226007e+00 9.81773973e-01
      7.95558977e+00 5.61984003e-01 1.14134001e-02 5.22356015e-03
      7.03473997e+00 9.79071021e-01 8.07798004e+00 5.16229987e-01
      1.43549005e-02 7.47196982e-03 2.56626010e+00 9.91428971e-01
      7.50623989e+00 6.18039012e-01 1.08695999e-02 5.27659990e-03
      7.42718983e+00 9.76436973e-01 8.06834030e+00 5.15262008e-01</_>
    <_>
      2.38898005e-02 1.19594000e-02 7.91128016e+00 9.82281029e-01
      7.00061989e+00 6.25582993e-01 2.39463001e-02 9.86087974e-03
      9.80327034e+00 9.77945030e-01 7.29092979e+00 5.82433999e-01
      2.95618009e-02 1.34562002e-02 2.03767991e+00 9.94305015e-01
      6.74700022e+00 6.87445998e-01 2.40754001e-02 9.68781020e-03
      9.77554035e+00 9.78743017e-01 7.33502007e+00 5.54841995e-01</_>
    <_>
      2.62564998e-02 1.37804998e-02 1.07073002e+01 9.78524983e-01
      6.74484015e+00 6.02032006e-01 2.57066991e-02 1.13779996e-02
      1.19800997e+01 9.74689007e-01 7.01385021e+00 5.45621991e-01
      2.96580009e-02 1.60590000e-02 1.59985995e+00 9.95519996e-01
      6.45910978e+00 6.50222003e-01 2.52494998e-02 1.19695002e-02
      9.24580956e+00 9.80271995e-01 6.90970993e+00 5.54921985e-01</_>
    <_>
      2.64346991e-02 1.39432000e-02 1.10326004e+01 9.77329016e-01
      6.72255993e+00 5.97096980e-01 2.55542006e-02 1.17117995e-02
      1.22902002e+01 9.73074019e-01 6.98177004e+00 5.40328979e-01
      2.90833004e-02 1.58615001e-02 1.54850996e+00 9.96277988e-01
      6.46449995e+00 6.64493024e-01 2.58620996e-02 1.21601997e-02
      9.73009014e+00 9.78748024e-01 6.90078020e+00 5.55963993e-01</_>
    <_>
      2.75109001e-02 1.45193003e-02 5.65109015e+00 9.87852991e-01
      6.68990993e+00 6.10876977e-01 2.64261998e-02 1.21331001e-02
      7.19211006e+00 9.83915985e-01 6.98156023e+00 5.74407995e-01
      2.94327997e-02 1.69527996e-02 1.46686995e+00 9.95823979e-01
      6.42633009e+00 6.58578992e-01 2.69396994e-02 1.28661003e-02
      5.58447981e+00 9.87728000e-01 6.86058998e+00 5.73100984e-01</_>
    <_>
      2.42969003e-02 1.37363998e-02 5.36455011e+00 9.88277972e-01
      6.74009991e+00 6.27915978e-01 2.53681000e-02 1.09366002e-02
      7.19866991e+00 9.84409988e-01 7.07729006e+00 5.80407977e-01
      2.98596006e-02 1.60170998e-02 1.36330998e+00 9.96885002e-01
      6.50158024e+00 6.72703028e-01 2.47712005e-02 1.15029002e-02
      5.47543001e+00 9.88160014e-01 6.95417023e+00 5.94807029e-01</_>
    <_>
      2.53327992e-02 1.33913998e-02 6.51033020e+00 9.86527979e-01
      6.81463003e+00 6.09739006e-01 2.37560999e-02 1.09443003e-02
      7.87214994e+00 9.83069003e-01 7.09891987e+00 5.73575974e-01
      2.64810994e-02 1.41721005e-02 1.67730999e+00 9.96007025e-01
      6.63534021e+00 6.60651028e-01 2.35690009e-02 1.16961002e-02
      6.56958008e+00 9.86157000e-01 6.98645020e+00 5.68980992e-01</_>
    <_>
      2.48819999e-02 1.42695000e-02 6.09991980e+00 9.85596001e-01
      6.71827984e+00 6.22959018e-01 2.54161004e-02 1.18770003e-02
      7.98525000e+00 9.81023014e-01 7.01149988e+00 5.53686023e-01
      2.96084005e-02 1.52719002e-02 1.78975999e+00 9.94566977e-01
      6.57275009e+00 6.59520984e-01 2.58770995e-02 1.19719002e-02
      6.70041990e+00 9.84251022e-01 6.95468998e+00 5.56572020e-01</_>
    <_>
      2.57188994e-02 1.33972997e-02 6.95474005e+00 9.85063016e-01
      6.83415985e+00 5.99282026e-01 2.21046992e-02 1.15711000e-02
      7.68620014e+00 9.81652021e-01 7.02522993e+00 5.86521983e-01
      2.77778003e-02 1.46038001e-02 1.95411003e+00 9.94264007e-01
      6.64935017e+00 5.96376002e-01 2.36812998e-02 1.22864004e-02
      6.49694014e+00 9.85303998e-01 6.93526983e+00 5.70788980e-01</_>
    <_>
      2.67118998e-02 1.38272000e-02 6.26743984e+00 9.86698985e-01
      6.79668999e+00 5.93892992e-01 2.53353007e-02 1.11077996e-02
      7.72827005e+00 9.82406974e-01 7.10184002e+00 5.39735973e-01
      3.11504006e-02 1.49990004e-02 1.75362003e+00 9.94601011e-01
      6.61011982e+00 6.34875000e-01 2.50372998e-02 1.16143003e-02
      6.09667015e+00 9.86154020e-01 6.99211979e+00 5.56288004e-01</_>
    <_>
      2.77778003e-02 1.41484002e-02 8.00022030e+00 9.83832002e-01
      6.79057980e+00 6.07724011e-01 2.43902002e-02 1.12031000e-02
      9.00529003e+00 9.80898976e-01 7.07047987e+00 5.60492992e-01
      3.15605998e-02 1.51134003e-02 1.57790995e+00 9.96191025e-01
      6.55788994e+00 6.74665987e-01 2.54194997e-02 1.14449998e-02
      7.33728981e+00 9.84565973e-01 7.00649977e+00 5.80433011e-01</_>
    <_>
      2.88878996e-02 1.49504999e-02 8.41298962e+00 9.81666982e-01
      6.74347019e+00 6.09883010e-01 2.77139004e-02 1.13869999e-02
      1.00279999e+01 9.77537990e-01 7.07472992e+00 5.34870982e-01
      3.10388003e-02 1.59185007e-02 1.50776005e+00 9.96125996e-01
      6.45776987e+00 6.53227985e-01 2.56958995e-02 1.17333997e-02
      8.28750038e+00 9.81840014e-01 6.99371004e+00 5.53309023e-01</_>
    <_>
      2.89127994e-02 1.39082996e-02 9.54300976e+00 9.81064022e-01
      6.85721016e+00 5.90793014e-01 2.44584009e-02 1.08086001e-02
      9.88409996e+00 9.79164004e-01 7.10838985e+00 5.47226012e-01
      2.90980991e-02 1.48785003e-02 1.49316001e+00 9.96245027e-01
      6.54777002e+00 6.54581010e-01 2.52570994e-02 1.13626998e-02
      8.00578976e+00 9.82874990e-01 7.02217007e+00 5.76231003e-01</_>
    <_>
      2.85103004e-02 1.55023001e-02 8.80560970e+00 9.81782019e-01
      6.61010981e+00 6.09108984e-01 2.58728992e-02 1.27739999e-02
      9.86264038e+00 9.78883028e-01 6.87559986e+00 5.63799977e-01
      3.01012006e-02 1.68233998e-02 1.49259996e+00 9.95386004e-01
      6.39272022e+00 6.50717974e-01 2.47178003e-02 1.33154001e-02
      7.78805017e+00 9.82405007e-01 6.77335978e+00 5.76512992e-01</_>
    <_>
      2.47742999e-02 1.36773996e-02 7.73389006e+00 9.84878004e-01
      6.78065014e+00 5.94393015e-01 2.38162000e-02 1.13593005e-02
      8.40028000e+00 9.82137978e-01 7.03443003e+00 5.76946020e-01
      3.09241004e-02 1.56711992e-02 1.58404005e+00 9.95734990e-01
      6.53985977e+00 6.47194982e-01 2.42097992e-02 1.18896002e-02
      7.33249998e+00 9.84700978e-01 6.95653009e+00 5.88253021e-01</_>
    <_>
      2.61578001e-02 1.38918003e-02 6.14548016e+00 9.87443984e-01
      6.76543999e+00 5.88303030e-01 2.72183008e-02 1.21393995e-02
      7.58518982e+00 9.84005988e-01 6.96775007e+00 5.64020991e-01
      3.13121006e-02 1.54972002e-02 1.34318995e+00 9.96942997e-01
      6.49185991e+00 6.46498978e-01 2.61624996e-02 1.25799999e-02
      6.15814018e+00 9.87082005e-01 6.88240004e+00 5.72543025e-01</_>
    <_>
      2.56488007e-02 1.39509002e-02 5.74442005e+00 9.88236010e-01
      6.73427010e+00 6.19440973e-01 2.55277995e-02 1.14847999e-02
      7.30988979e+00 9.85336006e-01 7.00776005e+00 5.84233999e-01
      3.02165002e-02 1.66614000e-02 1.07696998e+00 9.97475982e-01
      6.37188005e+00 6.93077981e-01 2.61006001e-02 1.20529002e-02
      5.95136023e+00 9.88104999e-01 6.90654993e+00 5.96710980e-01</_>
    <_>
      2.72007007e-02 1.34877004e-02 7.79802990e+00 9.84830022e-01
      6.86078978e+00 6.18026972e-01 2.26403996e-02 1.04075996e-02
      8.70337963e+00 9.82689023e-01 7.13886023e+00 5.47138989e-01
      2.81214006e-02 1.41500998e-02 1.49930000e+00 9.96544003e-01
      6.59494019e+00 6.69148982e-01 2.36852001e-02 1.10299001e-02
      7.02714014e+00 9.85602021e-01 7.03349018e+00 5.75451016e-01</_>
    <_>
      2.76074000e-02 1.31828999e-02 6.25273991e+00 9.87272024e-01
      6.88704014e+00 5.98598003e-01 2.33966000e-02 1.06619000e-02
      7.21651983e+00 9.85011995e-01 7.11064005e+00 5.58656991e-01
      3.17277983e-02 1.49309002e-02 1.41399002e+00 9.96333003e-01
      6.55778980e+00 6.60962999e-01 2.48610992e-02 1.11130001e-02
      5.87930012e+00 9.87505972e-01 7.02185011e+00 5.75966001e-01</_>
    <_>
      2.55571008e-02 1.43758003e-02 9.69443989e+00 9.79449987e-01
      6.70831013e+00 5.98978996e-01 2.39100009e-02 1.16708996e-02
      1.06273003e+01 9.76729989e-01 6.99296999e+00 5.59521019e-01
      3.23247984e-02 1.62483994e-02 1.72652996e+00 9.95245993e-01
      6.49891996e+00 6.32113993e-01 2.55159996e-02 1.19083002e-02
      9.83487034e+00 9.79453027e-01 6.94855022e+00 5.76443970e-01</_>
    <_>
      2.64819004e-02 1.46259004e-02 9.55735970e+00 9.80298996e-01
      6.64916992e+00 5.97275019e-01 2.83458997e-02 1.27621004e-02
      1.12096004e+01 9.76092994e-01 6.89554977e+00 5.51253974e-01
      3.13347988e-02 1.70518998e-02 1.51701999e+00 9.95450020e-01
      6.37816000e+00 6.33455992e-01 2.69131009e-02 1.32366000e-02
      9.13543034e+00 9.80273008e-01 6.79790020e+00 5.69541991e-01</_>
    <_>
      2.58546006e-02 1.44862002e-02 8.48095989e+00 9.82774019e-01
      6.65819979e+00 6.04551971e-01 2.48815008e-02 1.19289998e-02
      9.35031986e+00 9.79219973e-01 6.93898010e+00 5.60266018e-01
      3.42190005e-02 1.62953008e-02 1.75093997e+00 9.95321989e-01
      6.47636986e+00 6.37359977e-01 2.63103005e-02 1.25035997e-02
      8.48565006e+00 9.81733024e-01 6.87293005e+00 5.67552984e-01</_>
    <_>
      2.47064009e-02 1.22563997e-02 1.22504997e+01 9.73701000e-01
      6.95034981e+00 5.99946976e-01 2.41422001e-02 1.04850000e-02
      1.32726002e+01 9.70622003e-01 7.17356014e+00 5.41655004e-01
      2.70183999e-02 1.41901998e-02 1.70791996e+00 9.95876014e-01
      6.61504984e+00 6.66718006e-01 2.53772009e-02 1.08714998e-02
      1.23311996e+01 9.73079979e-01 7.11985016e+00 5.51651001e-01</_>
    <_>
      2.71632001e-02 1.32766999e-02 1.42496996e+01 9.69299018e-01
      6.85742998e+00 6.04387999e-01 2.55702008e-02 1.16165001e-02
      1.48907003e+01 9.67109025e-01 7.04785013e+00 5.59396982e-01
      2.92411000e-02 1.56309009e-02 1.56694996e+00 9.96281028e-01
      6.48409986e+00 6.60161972e-01 2.53656991e-02 1.16988001e-02
      1.34883003e+01 9.69999015e-01 7.02504015e+00 5.57564020e-01</_>
    <_>
      2.72255000e-02 1.39886998e-02 8.46022987e+00 9.82415020e-01
      6.76767015e+00 6.03406012e-01 2.60432996e-02 1.24615002e-02
      9.02184010e+00 9.79514003e-01 6.94137001e+00 5.76101005e-01
      2.95486003e-02 1.58233996e-02 1.60703003e+00 9.96106982e-01
      6.49336004e+00 6.56364024e-01 2.44287997e-02 1.19113000e-02
      8.50953007e+00 9.81334984e-01 6.98393011e+00 5.70133984e-01</_>
    <_>
      3.00832000e-02 1.58137996e-02 5.05088997e+00 9.88762975e-01
      6.54725981e+00 6.50072992e-01 2.61177998e-02 1.33908000e-02
      5.83577013e+00 9.85674024e-01 6.83638000e+00 5.95071971e-01
      2.99642999e-02 1.59805007e-02 1.53447998e+00 9.95832026e-01
      6.54088020e+00 6.68048024e-01 2.56548002e-02 1.34822000e-02
      5.25354004e+00 9.87290025e-01 6.83420992e+00 5.86467028e-01</_>
    <_>
      2.87957992e-02 1.31847998e-02 9.93774033e+00 9.76402998e-01
      6.85981989e+00 6.08536005e-01 2.56204009e-02 1.16923004e-02
      1.05029001e+01 9.72898006e-01 7.01979017e+00 5.78409016e-01
      2.96599995e-02 1.53945005e-02 1.51794004e+00 9.95593011e-01
      6.55942011e+00 6.75629020e-01 2.56204009e-02 1.15863997e-02
      8.79705048e+00 9.77298975e-01 7.00181007e+00 5.91194987e-01</_>
    <_>
      2.86977999e-02 1.46150002e-02 1.00099001e+01 9.75157022e-01
      6.61503983e+00 6.38875008e-01 2.87223998e-02 1.35695999e-02
      1.14137001e+01 9.71992016e-01 6.76786995e+00 5.80182016e-01
      3.33067998e-02 1.77695993e-02 1.11875999e+00 9.96858001e-01
      6.24883986e+00 6.65049016e-01 2.66543999e-02 1.32609997e-02
      9.84788990e+00 9.75773990e-01 6.76547003e+00 5.85295975e-01</_>
    <_>
      2.78204996e-02 1.50301997e-02 9.27182961e+00 9.79986012e-01
      6.63298988e+00 6.20477021e-01 2.58412007e-02 1.35997999e-02
      9.70678043e+00 9.78336990e-01 6.76849985e+00 5.84535003e-01
      3.05068009e-02 1.78624000e-02 1.30627000e+00 9.96674001e-01
      6.29432011e+00 6.74494982e-01 2.67903991e-02 1.25479996e-02
      9.46092033e+00 9.78528976e-01 6.85822010e+00 5.69670975e-01</_>
    <_>
      3.00408993e-02 1.47185996e-02 7.76435995e+00 9.83152986e-01
      6.65821981e+00 5.99376976e-01 2.50106007e-02 1.30300997e-02
      8.15165043e+00 9.80915010e-01 6.84411001e+00 5.51382005e-01
      2.88657006e-02 1.60834994e-02 1.58036995e+00 9.95644987e-01
      6.44397020e+00 6.55216992e-01 2.53304001e-02 1.30914999e-02
      7.29905987e+00 9.82591987e-01 6.80664015e+00 5.67862988e-01</_>
    <_>
      2.94470992e-02 1.48700001e-02 6.18197012e+00 9.86712992e-01
      6.64707994e+00 6.11470997e-01 2.53379997e-02 1.26155000e-02
      6.46168995e+00 9.85246003e-01 6.87810993e+00 5.75424016e-01
      2.87590995e-02 1.54448003e-02 1.71512997e+00 9.95253026e-01
      6.52437019e+00 6.50923014e-01 2.50375997e-02 1.28996996e-02
      6.20039988e+00 9.86096025e-01 6.82913017e+00 5.63612998e-01</_>
    <_>
      3.15533988e-02 1.60479005e-02 4.26110983e+00 9.91020024e-01
      6.53916979e+00 6.18906975e-01 3.09114996e-02 1.47409998e-02
      4.93830013e+00 9.88999009e-01 6.73918009e+00 5.92660010e-01
      3.12963985e-02 1.86851006e-02 9.11800981e-01 9.96747017e-01
      6.25126982e+00 6.88323021e-01 3.11519001e-02 1.53198997e-02
      4.13667011e+00 9.91119027e-01 6.61002016e+00 6.12667978e-01</_>
    <_>
      2.85989009e-02 1.47417998e-02 3.74536991e+00 9.90876019e-01
      6.67361021e+00 6.02688015e-01 3.35218012e-02 1.37639996e-02
      4.98990011e+00 9.88686025e-01 6.91158009e+00 5.84447980e-01
      3.26504000e-02 1.77110992e-02 8.99999976e-01 9.97521996e-01
      6.34625006e+00 6.78121984e-01 3.52761000e-02 1.50306998e-02
      4.04977989e+00 9.90876019e-01 6.72433996e+00 6.19072020e-01</_>
    <_>
      3.20235007e-02 1.55220004e-02 3.58828998e+00 9.91514027e-01
      6.57439995e+00 6.20837986e-01 3.37801985e-02 1.55648002e-02
      4.57587004e+00 9.88647997e-01 6.73387003e+00 6.12425983e-01
      3.40876989e-02 1.93607006e-02 8.72135997e-01 9.97673988e-01
      6.24629021e+00 6.87454998e-01 3.52582000e-02 1.67087000e-02
      3.68711996e+00 9.91330981e-01 6.55566978e+00 5.96166015e-01</_>
    <_>
      3.01964991e-02 1.43932002e-02 1.42931995e+01 9.68389988e-01
      6.74433994e+00 6.09530985e-01 2.41372008e-02 1.09775001e-02
      1.56749001e+01 9.62530017e-01 7.06997013e+00 5.53846002e-01
      2.78456006e-02 1.46511002e-02 1.94053996e+00 9.95361984e-01
      6.55743980e+00 6.64637983e-01 2.64308006e-02 1.11744003e-02
      1.26911001e+01 9.69672978e-01 7.03822994e+00 5.58543026e-01</_>
    <_>
      2.98680998e-02 1.46760000e-02 7.31989002e+00 9.84862983e-01
      6.67788982e+00 6.21604025e-01 2.82022003e-02 1.26817003e-02
      8.49785995e+00 9.80024993e-01 6.92897987e+00 5.94560981e-01
      3.17897014e-02 1.63278002e-02 1.97170997e+00 9.95266974e-01
      6.53883982e+00 6.50228977e-01 2.76321992e-02 1.25367995e-02
      6.71624994e+00 9.84125972e-01 6.90641022e+00 5.91838002e-01</_>
    <_>
      3.13539989e-02 1.55491997e-02 3.41604996e+00 9.91953015e-01
      6.63239002e+00 5.89448988e-01 3.29040997e-02 1.47267003e-02
      4.30979013e+00 9.89291012e-01 6.85254002e+00 6.08265996e-01
      3.57649997e-02 1.81725994e-02 8.57792020e-01 9.97775972e-01
      6.35449982e+00 6.92560017e-01 3.53908017e-02 1.60684008e-02
      3.25582004e+00 9.92421985e-01 6.65294981e+00 6.46255016e-01</_>
    <_>
      3.13740000e-02 1.66028999e-02 4.57912016e+00 9.90166008e-01
      6.53931999e+00 6.25290990e-01 3.11241001e-02 1.44765005e-02
      5.52410984e+00 9.88354027e-01 6.78122997e+00 6.25127017e-01
      3.73774990e-02 1.84615999e-02 1.04043996e+00 9.97056007e-01
      6.34860992e+00 6.71425998e-01 3.50118987e-02 1.56513993e-02
      4.72381020e+00 9.91021991e-01 6.62607002e+00 6.34146988e-01</_>
    <_>
      2.65625007e-02 1.20593999e-02 1.22965002e+01 9.73219991e-01
      6.97133017e+00 5.79383016e-01 2.34353002e-02 1.01036001e-02
      1.31161003e+01 9.69431996e-01 7.20316982e+00 5.25659025e-01
      2.71786992e-02 1.35201002e-02 2.22898006e+00 9.93775010e-01
      6.71761990e+00 6.10186994e-01 2.42927000e-02 1.11766001e-02
      1.15169001e+01 9.73746002e-01 7.07039022e+00 5.63934982e-01</_>
    <_>
      2.57553998e-02 1.29845999e-02 9.44301033e+00 9.78830993e-01
      6.88142014e+00 5.95865011e-01 2.30569001e-02 1.04147000e-02
      1.05122004e+01 9.75223005e-01 7.18028021e+00 5.48789978e-01
      2.66309995e-02 1.36986002e-02 2.08192992e+00 9.94490027e-01
      6.70761013e+00 6.34118021e-01 2.37143002e-02 1.12568997e-02
      9.51323986e+00 9.77590024e-01 7.06045008e+00 5.54620981e-01</_>
    <_>
      2.85890996e-02 1.43031999e-02 5.77511978e+00 9.87550020e-01
      6.78468990e+00 6.36583984e-01 2.86139008e-02 1.41385999e-02
      6.29105997e+00 9.85875010e-01 6.86450005e+00 6.01562023e-01
      3.19529995e-02 1.89891998e-02 7.05776989e-01 9.98390973e-01
      6.20359993e+00 7.24524975e-01 3.07599008e-02 1.46350004e-02
      5.25739002e+00 9.88560021e-01 6.75020981e+00 6.19279027e-01</_>
    <_>
      3.14292982e-02 1.59402005e-02 5.41058016e+00 9.88256991e-01
      6.60796022e+00 6.47193015e-01 2.96532009e-02 1.54654002e-02
      6.09336996e+00 9.86558020e-01 6.71915007e+00 6.27871990e-01
      3.63168009e-02 2.00551003e-02 6.88304007e-01 9.98278975e-01
      6.12091017e+00 7.14349985e-01 3.03884000e-02 1.63853001e-02
      4.91055012e+00 9.89111006e-01 6.53881979e+00 6.41937017e-01</_>
    <_>
      2.90884003e-02 1.54023003e-02 6.07902002e+00 9.86736000e-01
      6.61139011e+00 6.56116009e-01 3.10919005e-02 1.50538003e-02
      7.37026978e+00 9.84405994e-01 6.74496984e+00 6.19521022e-01
      3.66546996e-02 2.15719007e-02 7.57480979e-01 9.98094022e-01
      6.04268980e+00 6.87286019e-01 2.94222999e-02 1.54871000e-02
      5.87059021e+00 9.87484992e-01 6.60000992e+00 6.42096996e-01</_>
    <_>
      3.31181996e-02 1.57348998e-02 9.83020020e+00 9.78543997e-01
      6.60819006e+00 6.10332012e-01 2.94081997e-02 1.29495002e-02
      9.97661972e+00 9.75802004e-01 6.87374020e+00 5.81396997e-01
      3.18146013e-02 1.59894004e-02 1.56991005e+00 9.95988011e-01
      6.44667006e+00 6.67553008e-01 2.95803007e-02 1.33156003e-02
      8.76171970e+00 9.78441000e-01 6.80298996e+00 5.74925005e-01</_>
    <_>
      3.00118998e-02 1.53518002e-02 5.21151018e+00 9.88196015e-01
      6.64713001e+00 6.35560989e-01 3.28694992e-02 1.47034004e-02
      6.59747982e+00 9.85584021e-01 6.83413982e+00 5.91466010e-01
      3.09517998e-02 1.90772992e-02 7.26939023e-01 9.98332024e-01
      6.17713022e+00 7.28348017e-01 3.40238996e-02 1.58655997e-02
      5.70914984e+00 9.87590015e-01 6.65939999e+00 6.04586005e-01</_>
    <_>
      3.19559015e-02 1.55868996e-02 6.24384022e+00 9.87164974e-01
      6.66871977e+00 6.29158974e-01 3.11239995e-02 1.56488996e-02
      6.78615999e+00 9.85875010e-01 6.73999977e+00 6.21397018e-01
      3.57346013e-02 2.05847006e-02 5.63354015e-01 9.98794973e-01
      6.05305004e+00 7.48422027e-01 3.26822996e-02 1.65727008e-02
      5.88254976e+00 9.87989008e-01 6.58793020e+00 6.15664005e-01</_>
    <_>
      3.47127989e-02 1.68057997e-02 5.11353016e+00 9.88786995e-01
      6.55362988e+00 6.39425993e-01 3.34439017e-02 1.60927996e-02
      5.81855011e+00 9.87439990e-01 6.70010996e+00 6.15325987e-01
      4.19965982e-02 2.20749006e-02 6.47332013e-01 9.98143017e-01
      6.02918005e+00 7.11709976e-01 3.17501016e-02 1.68533996e-02
      4.50941992e+00 9.90010023e-01 6.49547005e+00 6.40232027e-01</_>
    <_>
      3.25114988e-02 1.57638993e-02 4.84746981e+00 9.89032984e-01
      6.61041021e+00 6.45107985e-01 3.22415009e-02 1.60613991e-02
      5.25831985e+00 9.87873971e-01 6.67703009e+00 6.16559982e-01
      3.71938013e-02 2.09710002e-02 5.67735016e-01 9.98658001e-01
      6.03815985e+00 7.46610999e-01 3.25407982e-02 1.64158996e-02
      4.42994022e+00 9.89915013e-01 6.54272985e+00 6.22352004e-01</_>
    <_>
      3.16696018e-02 1.46428999e-02 7.27109003e+00 9.83215988e-01
      6.73338985e+00 6.36467993e-01 2.97698006e-02 1.24575999e-02
      8.79318047e+00 9.78774011e-01 6.98157978e+00 5.80327988e-01
      3.09095997e-02 1.53465997e-02 1.19748998e+00 9.97152984e-01
      6.52739000e+00 6.85944021e-01 3.02518997e-02 1.29089998e-02
      6.50741005e+00 9.84338999e-01 6.88711023e+00 5.85489988e-01</_>
    <_>
      3.09833996e-02 1.40763996e-02 1.11571999e+01 9.73892987e-01
      6.82816982e+00 6.29859984e-01 2.92435009e-02 1.27178002e-02
      1.36371002e+01 9.68150973e-01 7.00808001e+00 5.74317992e-01
      3.00673991e-02 1.59214996e-02 1.13440001e+00 9.97403026e-01
      6.49028015e+00 6.84467971e-01 2.88142003e-02 1.29808998e-02
      9.80482960e+00 9.76936996e-01 6.91135979e+00 5.81119001e-01</_>
    <_>
      3.09305005e-02 1.60252005e-02 7.55891991e+00 9.83102977e-01
      6.62437010e+00 6.19749010e-01 3.48563008e-02 1.55993998e-02
      9.46951962e+00 9.79900002e-01 6.74708986e+00 6.02019012e-01
      3.60636003e-02 2.06556004e-02 6.46852016e-01 9.98585999e-01
      6.07012987e+00 7.13227987e-01 3.31231989e-02 1.62482001e-02
      6.86134005e+00 9.84952986e-01 6.61744022e+00 6.11976981e-01</_>
    <_>
      2.98490003e-02 1.53460996e-02 8.94585037e+00 9.81351018e-01
      6.72428989e+00 6.22053027e-01 3.24882008e-02 1.41642001e-02
      1.09188004e+01 9.77716029e-01 6.89526987e+00 5.94283998e-01
      3.42190005e-02 1.99379008e-02 6.29764020e-01 9.98678029e-01
      6.11015987e+00 7.23255992e-01 3.44827995e-02 1.45782996e-02
      9.08232021e+00 9.82263029e-01 6.81746006e+00 6.13197982e-01</_>
    <_>
      2.85944007e-02 1.35370996e-02 1.07030001e+01 9.77729976e-01
      6.81016016e+00 6.12048984e-01 2.71368008e-02 1.40145998e-02
      1.10951996e+01 9.75861013e-01 6.82017994e+00 6.20805025e-01
      3.51365991e-02 1.94795001e-02 7.27690995e-01 9.98435974e-01
      6.14229012e+00 7.13478029e-01 2.98704002e-02 1.41514000e-02
      1.02391996e+01 9.79194999e-01 6.80219984e+00 5.93101978e-01</_>
    <_>
      2.96129994e-02 1.53996004e-02 5.91128016e+00 9.86433983e-01
      6.59494019e+00 6.42834008e-01 2.77139004e-02 1.47617003e-02
      6.36400986e+00 9.84597981e-01 6.68188000e+00 6.36065006e-01
      3.48805003e-02 2.00590007e-02 8.70067000e-01 9.97732997e-01
      6.14402008e+00 6.79776013e-01 2.90124007e-02 1.57848001e-02
      5.43947983e+00 9.87289011e-01 6.55476999e+00 6.54982984e-01</_>
    <_>
      3.38325985e-02 1.50747001e-02 4.86815023e+00 9.89462972e-01
      6.70124006e+00 6.19919002e-01 3.09887007e-02 1.57053992e-02
      5.39793015e+00 9.87716019e-01 6.74287987e+00 5.84379017e-01
      3.43094990e-02 1.86283998e-02 7.84955978e-01 9.97919023e-01
      6.25297022e+00 7.03538001e-01 3.30708995e-02 1.60512999e-02
      4.44882011e+00 9.90260005e-01 6.62056017e+00 6.03344023e-01</_>
    <_>
      3.14217992e-02 1.52187999e-02 8.10984993e+00 9.82613981e-01
      6.70471001e+00 6.16617024e-01 2.87618004e-02 1.33918002e-02
      8.88471985e+00 9.79353011e-01 6.87489986e+00 5.97061992e-01
      3.10362000e-02 1.79757997e-02 9.85305011e-01 9.97626007e-01
      6.31440020e+00 7.12117016e-01 2.73588002e-02 1.38689997e-02
      6.63522005e+00 9.84632015e-01 6.76279020e+00 6.08964980e-01</_>
    <_>
      2.89738998e-02 1.20315002e-02 1.44698000e+01 9.68868971e-01
      7.06511021e+00 5.80102980e-01 2.67447997e-02 1.04413005e-02
      1.62507000e+01 9.63513017e-01 7.28188992e+00 5.40988982e-01
      2.62572002e-02 1.35700004e-02 1.76145995e+00 9.96141016e-01
      6.75093985e+00 6.71782017e-01 2.42085997e-02 1.03454003e-02
      1.31398001e+01 9.70645010e-01 7.25527000e+00 5.49615026e-01</_>
    <_>
      2.78375000e-02 1.33782998e-02 1.42040997e+01 9.68985021e-01
      6.90067005e+00 6.09453976e-01 2.68906001e-02 1.08022001e-02
      1.68987007e+01 9.62018013e-01 7.21250010e+00 5.31556010e-01
      2.88661998e-02 1.46198003e-02 1.85810006e+00 9.95835006e-01
      6.64653015e+00 6.73310995e-01 2.62516998e-02 1.12672001e-02
      1.27054005e+01 9.70947027e-01 7.11556005e+00 5.65442026e-01</_>
    <_>
      3.24453004e-02 1.67405996e-02 4.17936993e+00 9.89780009e-01
      6.55514002e+00 6.22627974e-01 3.64134014e-02 1.54090999e-02
      5.27216005e+00 9.87578988e-01 6.75053978e+00 5.91458023e-01
      3.68359014e-02 2.15265006e-02 5.51365018e-01 9.98440027e-01
      6.01173019e+00 7.49242008e-01 3.51193994e-02 1.70083009e-02
      3.89311004e+00 9.90851998e-01 6.50671005e+00 6.24513984e-01</_>
    <_>
      3.16220000e-02 1.54988999e-02 5.75496006e+00 9.88686979e-01
      6.63866997e+00 6.23305976e-01 3.07580009e-02 1.40290996e-02
      6.37812996e+00 9.87218976e-01 6.82997990e+00 6.19615018e-01
      3.56534012e-02 1.97198000e-02 6.23438001e-01 9.98243988e-01
      6.12983990e+00 7.26176977e-01 3.28081995e-02 1.58204995e-02
      5.45136976e+00 9.89359021e-01 6.60450983e+00 6.51508987e-01</_>
    <_>
      8.74186028e-03 4.19397000e-03 8.26914978e+00 9.72580016e-01
      8.44172955e+00 5.09755015e-01 7.83539005e-03 3.82493995e-03
      9.88796043e+00 9.66062009e-01 8.56869984e+00 4.99615014e-01
      9.58286040e-03 4.85327980e-03 4.63386011e+00 9.83933985e-01
      8.16038990e+00 5.40422022e-01 7.20024994e-03 3.55990999e-03
      1.01087999e+01 9.64007020e-01 8.63675976e+00 4.69440997e-01</_>
    <_>
      8.71437043e-03 4.25224006e-03 8.66283989e+00 9.71300006e-01
      8.40104008e+00 5.10836005e-01 7.81922974e-03 3.74091999e-03
      1.18643999e+01 9.60009992e-01 8.59901047e+00 4.81229007e-01
      9.64228995e-03 4.86904988e-03 4.71610022e+00 9.84400988e-01
      8.14375973e+00 5.45175016e-01 7.46357022e-03 3.71067994e-03
      9.59661007e+00 9.65783000e-01 8.56293011e+00 4.75250006e-01</_>
    <_>
      9.19103995e-03 4.19870019e-03 8.30844975e+00 9.70610976e-01
      8.42169952e+00 5.06474018e-01 8.18309002e-03 3.78526002e-03
      1.06774998e+01 9.61378992e-01 8.58815956e+00 4.85877007e-01
      9.79533046e-03 4.86933999e-03 4.40869999e+00 9.84618008e-01
      8.13700008e+00 5.58232009e-01 7.76260020e-03 3.65967001e-03
      9.26105976e+00 9.64057982e-01 8.57485008e+00 4.70041007e-01</_>
    <_>
      8.98266956e-03 4.30786004e-03 8.06348038e+00 9.74098980e-01
      8.36481953e+00 5.03378987e-01 8.12723022e-03 3.70483007e-03
      1.10122995e+01 9.61754978e-01 8.59994030e+00 4.78421986e-01
      9.68108978e-03 5.00033982e-03 4.62236023e+00 9.84009027e-01
      8.11767960e+00 5.51546991e-01 7.29023013e-03 3.72873992e-03
      8.92473984e+00 9.67415988e-01 8.53814983e+00 4.81222987e-01</_>
    <_>
      7.70020997e-03 3.76146007e-03 6.59146976e+00 9.79960024e-01
      8.55825996e+00 5.13350010e-01 6.90962980e-03 2.97890999e-03
      1.17486000e+01 9.62324977e-01 8.94841957e+00 4.30880994e-01
      7.63709983e-03 3.81830009e-03 9.02686977e+00 9.73739028e-01
      8.63484955e+00 5.10825992e-01 6.72309007e-03 2.96343002e-03
      1.41126003e+01 9.53176975e-01 8.99061012e+00 4.31769013e-01</_>
    <_>
      1.06579000e-02 4.90488997e-03 7.55752993e+00 9.67980027e-01
      8.27122974e+00 5.37084997e-01 8.50217976e-03 3.62863997e-03
      1.09025002e+01 9.52627003e-01 8.68785000e+00 4.46797013e-01
      1.01544997e-02 4.33877995e-03 6.56275988e+00 9.74002004e-01
      8.34784031e+00 5.04298985e-01 8.19030963e-03 3.53101990e-03
      1.17915001e+01 9.47425008e-01 8.71805000e+00 4.36479986e-01</_>
    <_>
      1.03101004e-02 4.91036987e-03 5.14844990e+00 9.78785992e-01
      8.17714977e+00 5.37208974e-01 8.43700022e-03 3.84889008e-03
      1.07312002e+01 9.56511021e-01 8.61050987e+00 4.62664992e-01
      1.01431999e-02 4.36744979e-03 9.18583965e+00 9.62085009e-01
      8.43817997e+00 4.91548002e-01 8.16339999e-03 3.81693989e-03
      1.16889000e+01 9.50618029e-01 8.63222027e+00 4.56236988e-01</_>
    <_>
      1.12701999e-02 5.01835020e-03 5.10354996e+00 9.79255974e-01
      8.14801025e+00 5.33897996e-01 8.83878022e-03 3.88136995e-03
      1.05840998e+01 9.57064986e-01 8.60266972e+00 4.66012001e-01
      1.04430998e-02 4.45905002e-03 9.21726036e+00 9.61224020e-01
      8.42352009e+00 4.97676015e-01 8.55378993e-03 3.76678002e-03
      1.22849998e+01 9.49137986e-01 8.65740967e+00 4.48457003e-01</_>
    <_>
      1.07426001e-02 4.82962001e-03 6.83434010e+00 9.72742021e-01
      8.26599979e+00 5.42743981e-01 8.69832002e-03 3.73068010e-03
      1.06664000e+01 9.52575028e-01 8.65326977e+00 4.55280006e-01
      1.03749996e-02 4.50940989e-03 7.26934004e+00 9.69295025e-01
      8.37038994e+00 5.05141020e-01 8.86227004e-03 3.62396007e-03
      1.20038996e+01 9.46422994e-01 8.69705963e+00 4.37438995e-01</_>
    <_>
      1.04416003e-02 4.85217012e-03 6.18451977e+00 9.75287974e-01
      8.25228024e+00 5.50301015e-01 8.54901038e-03 3.67585989e-03
      1.08318996e+01 9.53504026e-01 8.67045975e+00 4.56649989e-01
      1.03027998e-02 4.20860015e-03 8.56999016e+00 9.67056990e-01
      8.46627045e+00 5.03190994e-01 8.77495017e-03 3.58674000e-03
      1.25896997e+01 9.46168005e-01 8.72813988e+00 4.36361015e-01</_>
    <_>
      1.06544001e-02 4.99870023e-03 6.20998001e+00 9.76782024e-01
      8.22416019e+00 5.45414984e-01 8.58701020e-03 3.67935002e-03
      1.11536999e+01 9.53554988e-01 8.68089962e+00 4.55363005e-01
      1.01351002e-02 4.42771986e-03 8.53781033e+00 9.67580974e-01
      8.41738033e+00 5.01407027e-01 8.90342984e-03 3.58505989e-03
      1.29151001e+01 9.46528018e-01 8.73297977e+00 4.44117010e-01</_>
    <_>
      1.08359996e-02 4.73714992e-03 5.62634993e+00 9.77168977e-01
      8.23392010e+00 5.42720020e-01 8.70647002e-03 3.76487011e-03
      1.09384003e+01 9.52269971e-01 8.64050007e+00 4.48204994e-01
      1.08033000e-02 4.34520980e-03 9.53639030e+00 9.60354984e-01
      8.46804047e+00 4.86346990e-01 8.26772023e-03 3.72802000e-03
      1.22954998e+01 9.46148992e-01 8.66816998e+00 4.54270989e-01</_>
    <_>
      1.14524998e-02 5.39741013e-03 4.41302013e+00 9.82689977e-01
      8.05163956e+00 5.54862976e-01 9.38862003e-03 3.98130016e-03
      9.96922970e+00 9.56878006e-01 8.55982971e+00 4.67512995e-01
      1.10299997e-02 4.66027996e-03 8.84549046e+00 9.63894010e-01
      8.36830044e+00 5.08629024e-01 9.23611969e-03 3.98471020e-03
      1.15011997e+01 9.50254977e-01 8.57464981e+00 4.54584986e-01</_>
    <_>
      1.10010998e-02 4.91453009e-03 5.52262020e+00 9.77316976e-01
      8.19414997e+00 5.47932982e-01 9.01988987e-03 3.74125992e-03
      1.05992002e+01 9.55035985e-01 8.63066006e+00 4.62549001e-01
      1.07699996e-02 4.42577014e-03 8.86439991e+00 9.62890029e-01
      8.41901016e+00 4.87857014e-01 8.60758033e-03 3.68011999e-03
      1.21149998e+01 9.47830975e-01 8.67107010e+00 4.50161010e-01</_>
    <_>
      1.05103003e-02 4.98529989e-03 3.97811007e+00 9.84032989e-01
      8.08024025e+00 5.26944995e-01 8.23151972e-03 3.93327000e-03
      9.37265015e+00 9.59882975e-01 8.53946972e+00 4.60777998e-01
      9.69212968e-03 4.32342989e-03 8.42086983e+00 9.66596007e-01
      8.39235020e+00 5.01538992e-01 7.77945993e-03 3.85104003e-03
      1.02177000e+01 9.55335021e-01 8.56760025e+00 4.71919000e-01</_>
    <_>
      9.37199965e-03 4.68830019e-03 4.89133978e+00 9.79629993e-01
      8.20001984e+00 5.33070982e-01 8.02756008e-03 3.48080997e-03
      1.15549002e+01 9.50832009e-01 8.71485043e+00 4.39282000e-01
      9.05338023e-03 4.01645014e-03 9.60639954e+00 9.61556017e-01
      8.50572968e+00 4.78296995e-01 7.56548019e-03 3.50633007e-03
      1.22367001e+01 9.48410988e-01 8.71148968e+00 4.43291992e-01</_>
    <_>
      9.55270976e-03 4.62485990e-03 6.13013983e+00 9.75984991e-01
      8.27371979e+00 5.22755027e-01 7.32338009e-03 3.42338998e-03
      1.11245003e+01 9.54779029e-01 8.72399044e+00 4.47596997e-01
      8.61421041e-03 4.02721018e-03 8.78789043e+00 9.66620028e-01
      8.48628044e+00 4.88990992e-01 7.48609006e-03 3.39270011e-03
      1.24323997e+01 9.47593987e-01 8.75724030e+00 4.37357008e-01</_>
    <_>
      3.17980014e-02 1.72470007e-02 1.62431002e+00 9.81468022e-01
      6.47764015e+00 6.35042012e-01 3.03633995e-02 1.49240000e-02
      4.48580980e+00 9.43522990e-01 6.80673981e+00 5.95595002e-01
      3.15361992e-02 1.62183009e-02 3.66605997e+00 9.57153022e-01
      6.62918997e+00 5.95517993e-01 3.02700996e-02 1.50028002e-02
      4.26725006e+00 9.46596026e-01 6.81229019e+00 6.10207021e-01</_>
    <_>
      3.02245002e-02 1.59850009e-02 1.91068006e+00 9.75513995e-01
      6.60847998e+00 6.57787979e-01 2.75391005e-02 1.28130000e-02
      4.92714977e+00 9.36793029e-01 7.00193024e+00 5.62820971e-01
      2.91795991e-02 1.50038004e-02 3.45671010e+00 9.57149029e-01
      6.72111988e+00 6.17124975e-01 3.02147996e-02 1.31059000e-02
      4.47505999e+00 9.42209005e-01 6.97007990e+00 5.87306976e-01</_>
    <_>
      3.48136015e-02 1.63295995e-02 1.87156999e+00 9.77971971e-01
      6.63197994e+00 6.36961997e-01 2.90638003e-02 1.35314995e-02
      4.29776001e+00 9.45268989e-01 6.92327976e+00 6.00147009e-01
      3.16472016e-02 1.55517003e-02 3.65824008e+00 9.55456018e-01
      6.72844982e+00 5.95928013e-01 2.82335002e-02 1.31826000e-02
      4.19875002e+00 9.45429981e-01 6.93590021e+00 5.91579020e-01</_>
    <_>
      2.91815009e-02 1.29471002e-02 2.48897004e+00 9.70526993e-01
      6.86765003e+00 5.99556983e-01 2.70965006e-02 1.16613004e-02
      5.34626007e+00 9.33070004e-01 7.08705997e+00 5.45651019e-01
      2.88970992e-02 1.28544997e-02 4.15853024e+00 9.49811995e-01
      6.91281986e+00 5.68947017e-01 2.64288001e-02 1.17079001e-02
      5.09041023e+00 9.37232971e-01 7.08620024e+00 5.49746990e-01</_>
    <_>
      3.63022014e-02 1.67156998e-02 1.87772000e+00 9.78554010e-01
      6.59509993e+00 6.46489978e-01 2.64036991e-02 1.38421003e-02
      4.54011011e+00 9.41079974e-01 6.87047005e+00 5.96224010e-01
      3.12963985e-02 1.55141996e-02 3.64993000e+00 9.55690980e-01
      6.68634987e+00 6.13987982e-01 2.75228992e-02 1.39466999e-02
      4.19713020e+00 9.45958972e-01 6.86243010e+00 5.92734993e-01</_>
    <_>
      3.60267982e-02 1.72605999e-02 1.53603005e+00 9.81894016e-01
      6.51858997e+00 6.67151988e-01 2.79255006e-02 1.46057000e-02
      4.09142017e+00 9.44986999e-01 6.77345991e+00 6.02127016e-01
      3.14721018e-02 1.60930008e-02 3.40024996e+00 9.57467020e-01
      6.63634014e+00 6.13767982e-01 3.04020997e-02 1.45562002e-02
      3.85549998e+00 9.51519012e-01 6.79948997e+00 5.80691993e-01</_>
    <_>
      3.43418010e-02 1.77781992e-02 1.79586005e+00 9.78258014e-01
      6.50795984e+00 6.57607019e-01 2.84806006e-02 1.37266004e-02
      4.77121019e+00 9.38511014e-01 6.87708998e+00 5.90728998e-01
      3.18672992e-02 1.63036995e-02 3.89306998e+00 9.51427996e-01
      6.63552999e+00 6.13107026e-01 2.90690996e-02 1.45324003e-02
      4.36036015e+00 9.43572998e-01 6.82445002e+00 6.01204991e-01</_>
    <_>
      3.61189991e-02 1.83032006e-02 1.50241005e+00 9.81206000e-01
      6.41336012e+00 6.38660014e-01 3.28358002e-02 1.51402000e-02
      3.81908011e+00 9.46590006e-01 6.76620007e+00 6.01975024e-01
      3.30163985e-02 1.69890001e-02 3.25171995e+00 9.56209004e-01
      6.59218979e+00 5.98031998e-01 3.05464007e-02 1.49095999e-02
      4.01739979e+00 9.42517996e-01 6.78991985e+00 6.06406987e-01</_>
    <_>
      3.59272994e-02 1.88173000e-02 1.53522003e+00 9.82227981e-01
      6.36668015e+00 6.33647025e-01 3.06748003e-02 1.47270001e-02
      4.32180977e+00 9.40478981e-01 6.82207012e+00 5.78971028e-01
      3.34922001e-02 1.69904009e-02 3.40349007e+00 9.56076026e-01
      6.58342981e+00 5.93819976e-01 3.32526006e-02 1.48256002e-02
      4.47805977e+00 9.37089980e-01 6.84095001e+00 5.88209987e-01</_>
    <_>
      3.85105014e-02 1.83607005e-02 1.68124998e+00 9.80332017e-01
      6.46417999e+00 6.31514013e-01 3.09453998e-02 1.48975998e-02
      4.35135984e+00 9.42923009e-01 6.77647018e+00 6.12770021e-01
      3.40722986e-02 1.70888994e-02 3.72441006e+00 9.52129006e-01
      6.59509993e+00 5.95996976e-01 3.05799004e-02 1.48032000e-02
      4.02498007e+00 9.47534025e-01 6.79090023e+00 6.03330016e-01</_>
    <_>
      3.13506983e-02 1.60927009e-02 1.73357999e+00 9.78994012e-01
      6.59713984e+00 6.63545012e-01 2.99159996e-02 1.41543001e-02
      3.98948002e+00 9.50399995e-01 6.88320017e+00 5.93928993e-01
      3.03866994e-02 1.58552993e-02 2.94619012e+00 9.64393020e-01
      6.64179993e+00 6.25320971e-01 2.93866992e-02 1.29340999e-02
      4.24325991e+00 9.47148979e-01 6.98144007e+00 5.79739988e-01</_>
    <_>
      3.45344990e-02 1.71291996e-02 1.61875999e+00 9.82640982e-01
      6.51585007e+00 6.34992003e-01 2.80319992e-02 1.49103999e-02
      3.84382010e+00 9.51485991e-01 6.77079010e+00 6.06908023e-01
      3.36323008e-02 1.66158993e-02 3.66340995e+00 9.58485007e-01
      6.63395977e+00 5.85659981e-01 2.97764000e-02 1.45373996e-02
      4.55334997e+00 9.45011020e-01 6.86539984e+00 5.92333972e-01</_>
    <_>
      9.54815000e-03 4.63033980e-03 6.00673008e+00 9.75687027e-01
      8.26161003e+00 5.17277002e-01 7.59183010e-03 3.65129998e-03
      1.03996000e+01 9.54973996e-01 8.61480999e+00 4.52136993e-01
      9.23043024e-03 4.30883979e-03 7.77911997e+00 9.66834009e-01
      8.36843014e+00 4.89071012e-01 7.83152971e-03 3.43489996e-03
      1.14420004e+01 9.49971974e-01 8.70341969e+00 4.30339009e-01</_>
    <_>
      1.08548002e-02 5.11390995e-03 3.80805993e+00 9.83585000e-01
      8.01568985e+00 5.21324992e-01 8.12723022e-03 3.91126005e-03
      9.95390987e+00 9.54725981e-01 8.50973034e+00 4.60512012e-01
      9.86688025e-03 4.48520016e-03 9.16895008e+00 9.60184991e-01
      8.36771965e+00 4.96787995e-01 7.87036959e-03 3.80521989e-03
      9.64756012e+00 9.58059013e-01 8.53003979e+00 4.60236013e-01</_>
    <_>
      1.02591002e-02 5.18110022e-03 3.38293004e+00 9.86853004e-01
      7.98821020e+00 5.40404975e-01 7.91317970e-03 3.98162007e-03
      9.17257023e+00 9.59721982e-01 8.46986008e+00 4.53148991e-01
      9.49415006e-03 4.80270991e-03 8.12845039e+00 9.66913998e-01
      8.26121998e+00 5.25514007e-01 8.27226974e-03 3.90580995e-03
      9.55426979e+00 9.59617019e-01 8.49590969e+00 4.64561999e-01</_>
    <_>
      1.00255003e-02 4.83600982e-03 5.07196999e+00 9.78393018e-01
      8.17597961e+00 5.16465008e-01 7.43068988e-03 3.84522998e-03
      1.03499002e+01 9.54936028e-01 8.55902004e+00 4.61340010e-01
      9.56058968e-03 4.36722022e-03 1.02152996e+01 9.58015025e-01
      8.41320038e+00 4.90433991e-01 7.66225997e-03 3.68484994e-03
      1.22983999e+01 9.46018994e-01 8.63815975e+00 4.48184013e-01</_>
    <_>
      9.59866960e-03 4.90280008e-03 3.76683998e+00 9.84431982e-01
      8.07357025e+00 5.43038011e-01 7.71246990e-03 3.88156995e-03
      9.54998970e+00 9.59204018e-01 8.50819016e+00 4.60662007e-01
      8.94423015e-03 4.43721004e-03 8.17092037e+00 9.67293978e-01
      8.34451008e+00 4.90327001e-01 7.89668970e-03 3.75031005e-03
      1.00014000e+01 9.54616010e-01 8.57145023e+00 4.53345001e-01</_>
    <_>
      9.59866960e-03 4.90280008e-03 3.76683998e+00 9.84431982e-01
      8.07357025e+00 5.43038011e-01 7.71246990e-03 3.88156995e-03
      9.54998970e+00 9.59204018e-01 8.50819016e+00 4.60662007e-01
      8.94423015e-03 4.43721004e-03 8.17092037e+00 9.67293978e-01
      8.34451008e+00 4.90327001e-01 7.89668970e-03 3.75031005e-03
      1.00014000e+01 9.54616010e-01 8.57145023e+00 4.53345001e-01</_>
    <_>
      1.00314999e-02 4.72748000e-03 4.40518999e+00 9.80979979e-01
      8.14363003e+00 5.22976995e-01 7.37506012e-03 3.78697994e-03
      1.02725000e+01 9.53150988e-01 8.54765987e+00 4.71753001e-01
      8.99561029e-03 4.35530022e-03 8.54784966e+00 9.63993013e-01
      8.37018013e+00 5.10006011e-01 8.22793040e-03 3.74706998e-03
      1.05354004e+01 9.51851010e-01 8.58662033e+00 4.45971996e-01</_>
    <_>
      9.50498972e-03 4.64229006e-03 4.38590002e+00 9.81997013e-01
      8.16998005e+00 5.22637010e-01 8.06323998e-03 3.76686011e-03
      1.02736998e+01 9.56436992e-01 8.56474972e+00 4.35483009e-01
      8.90985038e-03 4.39193007e-03 7.76082993e+00 9.68383014e-01
      8.33924961e+00 5.00858009e-01 7.87207019e-03 3.64172994e-03
      1.00755997e+01 9.57139015e-01 8.60352993e+00 4.42351013e-01</_>
    <_>
      9.56919044e-03 4.55365982e-03 4.83770990e+00 9.80127990e-01
      8.21129990e+00 5.01241028e-01 7.31714023e-03 3.66014009e-03
      1.07765999e+01 9.52753007e-01 8.59827042e+00 4.61813003e-01
      9.41236969e-03 4.31272015e-03 9.34457016e+00 9.62198973e-01
      8.40386009e+00 5.00226974e-01 7.93083012e-03 3.63692991e-03
      1.08768997e+01 9.52154994e-01 8.62499046e+00 4.43311006e-01</_>
    <_>
      1.03444997e-02 4.98287985e-03 4.66058016e+00 9.81399000e-01
      8.11682987e+00 5.37537992e-01 8.39230046e-03 3.84540996e-03
      9.40927982e+00 9.58486021e-01 8.57794952e+00 4.54903007e-01
      9.58575029e-03 4.34553018e-03 7.28459978e+00 9.69470024e-01
      8.38321018e+00 4.97251004e-01 8.54238961e-03 3.71857011e-03
      1.02314997e+01 9.53963995e-01 8.62524986e+00 4.42140013e-01</_>
    <_>
      1.02089997e-02 5.01587009e-03 5.25106001e+00 9.77648973e-01
      8.11867046e+00 5.46827972e-01 8.60625971e-03 3.90432007e-03
      9.80638981e+00 9.55585003e-01 8.54191971e+00 4.55105007e-01
      1.01054003e-02 4.33650985e-03 7.01438999e+00 9.69681025e-01
      8.34661007e+00 5.03114998e-01 7.94901978e-03 3.85088008e-03
      9.81346989e+00 9.51765001e-01 8.54518032e+00 4.56138998e-01</_>
    <_>
      8.01706966e-03 4.19792999e-03 5.64947987e+00 9.80816007e-01
      8.34932995e+00 5.23099005e-01 6.28807023e-03 3.23693990e-03
      1.20448999e+01 9.55734015e-01 8.79471016e+00 4.41183001e-01
      8.14364012e-03 3.87437991e-03 1.05279999e+01 9.65067983e-01
      8.59941959e+00 5.08336008e-01 6.89129019e-03 3.20610008e-03
      1.29816999e+01 9.53770995e-01 8.84247971e+00 4.40266013e-01</_>
    <_>
      8.57456028e-03 4.20896010e-03 6.66496992e+00 9.75458026e-01
      8.37473011e+00 5.00065029e-01 6.70487992e-03 3.23039992e-03
      1.13240995e+01 9.56453979e-01 8.77985001e+00 4.42860007e-01
      8.71175993e-03 3.88829992e-03 1.02391005e+01 9.63683009e-01
      8.58314037e+00 4.95249987e-01 6.80234982e-03 3.17666004e-03
      1.35781002e+01 9.50159013e-01 8.83341980e+00 4.40342993e-01</_>
    <_>
      8.57456028e-03 4.20896010e-03 6.66496992e+00 9.75458026e-01
      8.37473011e+00 5.00065029e-01 6.70487992e-03 3.23039992e-03
      1.13240995e+01 9.56453979e-01 8.77985001e+00 4.42860007e-01
      8.71175993e-03 3.88829992e-03 1.02391005e+01 9.63683009e-01
      8.58314037e+00 4.95249987e-01 6.80234982e-03 3.17666004e-03
      1.35781002e+01 9.50159013e-01 8.83341980e+00 4.40342993e-01</_>
    <_>
      1.08965999e-02 5.05176000e-03 7.41334009e+00 9.70184028e-01
      8.21409035e+00 5.42204976e-01 8.71718023e-03 3.88262002e-03
      9.61756039e+00 9.57414985e-01 8.54703045e+00 4.61645007e-01
      1.07781999e-02 4.89991019e-03 3.97509003e+00 9.83232021e-01
      8.11425972e+00 5.28248012e-01 8.62309989e-03 3.96098010e-03
      8.69874954e+00 9.61881995e-01 8.50821018e+00 4.81247991e-01</_>
    <_>
      1.12180999e-02 4.79375012e-03 8.28172970e+00 9.66720998e-01
      8.29249001e+00 5.09324014e-01 8.64898041e-03 3.84908007e-03
      9.78719044e+00 9.57291007e-01 8.56519032e+00 4.69274014e-01
      1.04363002e-02 4.64551989e-03 4.67655993e+00 9.80135024e-01
      8.21786976e+00 5.15621006e-01 8.60784017e-03 3.72753991e-03
      1.01220999e+01 9.55389023e-01 8.60890961e+00 4.52243000e-01</_>
    <_>
      1.04345996e-02 4.65134019e-03 8.17698002e+00 9.68271971e-01
      8.32569027e+00 5.26884973e-01 8.27442016e-03 3.75176012e-03
      1.05424995e+01 9.54515994e-01 8.61532021e+00 4.62709010e-01
      9.49485973e-03 4.40507010e-03 5.43386984e+00 9.78175998e-01
      8.30389023e+00 5.17597020e-01 8.20927043e-03 3.64248990e-03
      1.08376999e+01 9.52781022e-01 8.65205956e+00 4.55220014e-01</_>
    <_>
      1.07426997e-02 5.21727977e-03 6.57165003e+00 9.73511994e-01
      8.14167976e+00 5.52399993e-01 8.54154956e-03 4.11558012e-03
      9.14385986e+00 9.60924029e-01 8.47815990e+00 4.66275990e-01
      9.82858986e-03 4.56582010e-03 5.21572018e+00 9.78761971e-01
      8.24322033e+00 5.08717000e-01 8.25721025e-03 3.96896992e-03
      9.12275028e+00 9.60937977e-01 8.50625992e+00 4.76920009e-01</_>
    <_>
      9.46869981e-03 4.53983014e-03 7.53314018e+00 9.69650984e-01
      8.30959034e+00 5.15384972e-01 7.92109966e-03 3.82370991e-03
      1.04834995e+01 9.54133987e-01 8.59632969e+00 4.49703991e-01
      8.89679976e-03 4.34833020e-03 6.19011021e+00 9.75066006e-01
      8.33508968e+00 4.93449003e-01 7.92024005e-03 3.76032991e-03
      1.08559999e+01 9.53085005e-01 8.61515999e+00 4.60687995e-01</_>
    <_>
      9.62997042e-03 4.70490009e-03 7.76300001e+00 9.69938993e-01
      8.29948997e+00 5.38700998e-01 8.01337976e-03 3.61704989e-03
      1.02607002e+01 9.57343996e-01 8.65489006e+00 4.53745008e-01
      9.48377978e-03 4.42556990e-03 5.24769020e+00 9.79677975e-01
      8.29368973e+00 5.09137988e-01 7.85528962e-03 3.58699006e-03
      1.05630999e+01 9.53752995e-01 8.65414047e+00 4.57329005e-01</_>
    <_>
      1.02573000e-02 4.97651007e-03 7.34787989e+00 9.71265018e-01
      8.21205997e+00 5.50715029e-01 8.84706993e-03 3.92530020e-03
      9.44857025e+00 9.59968984e-01 8.54514980e+00 4.59417999e-01
      9.82121006e-03 4.71052993e-03 4.35203981e+00 9.82300997e-01
      8.18185043e+00 5.26866972e-01 8.69084988e-03 3.90414009e-03
      9.69029999e+00 9.58796978e-01 8.54516029e+00 4.56752002e-01</_>
    <_>
      1.11812996e-02 4.76928009e-03 7.98527002e+00 9.70264971e-01
      8.30801964e+00 5.35537004e-01 8.33304971e-03 3.74240009e-03
      9.72527981e+00 9.59571004e-01 8.61565971e+00 4.67000008e-01
      9.83530004e-03 4.67533991e-03 4.70778990e+00 9.80867982e-01
      8.22920990e+00 5.26997030e-01 8.53248034e-03 3.61648994e-03
      1.00852003e+01 9.57803011e-01 8.63685989e+00 4.70079005e-01</_>
    <_>
      9.08896979e-03 5.32465987e-03 3.38384008e+00 9.88502026e-01
      7.96285009e+00 5.40076971e-01 7.14850985e-03 3.55799007e-03
      1.01803999e+01 9.60887015e-01 8.64466953e+00 4.58361000e-01
      8.05941969e-03 3.81070003e-03 9.15221024e+00 9.67293978e-01
      8.55677986e+00 5.11506975e-01 7.15328008e-03 3.52312997e-03
      1.07096004e+01 9.58265007e-01 8.65592957e+00 4.46525007e-01</_>
    <_>
      8.59071035e-03 4.90421010e-03 3.93835998e+00 9.86582994e-01
      8.08551025e+00 5.41830003e-01 6.82335021e-03 3.43315001e-03
      1.11011000e+01 9.57579970e-01 8.70314980e+00 4.41471994e-01
      8.30093957e-03 3.81816993e-03 1.02357998e+01 9.63000000e-01
      8.58370972e+00 4.85980988e-01 6.82335021e-03 3.41736991e-03
      1.11272001e+01 9.57629025e-01 8.69888020e+00 4.49146986e-01</_>
    <_>
      8.70579015e-03 4.89513995e-03 3.40759993e+00 9.88350987e-01
      8.06828022e+00 5.42590976e-01 6.96892990e-03 3.43596004e-03
      1.01089001e+01 9.61488008e-01 8.69137955e+00 4.52836007e-01
      8.69472977e-03 3.76416999e-03 1.07282000e+01 9.60835993e-01
      8.62168980e+00 4.95537996e-01 7.28330016e-03 3.40865995e-03
      1.20691996e+01 9.52625990e-01 8.73431015e+00 4.42586005e-01</_>
    <_>
      8.99603963e-03 4.73491987e-03 4.40885019e+00 9.83489990e-01
      8.17706966e+00 5.30838013e-01 6.85246987e-03 3.32619995e-03
      1.07061005e+01 9.58595991e-01 8.73410988e+00 4.45672005e-01
      8.33170023e-03 3.74494004e-03 1.03543997e+01 9.60403025e-01
      8.60717964e+00 4.75603998e-01 6.72025001e-03 3.26909008e-03
      1.19231997e+01 9.53697979e-01 8.76963043e+00 4.39395010e-01</_>
    <_>
      9.32615995e-03 5.20240003e-03 3.50943995e+00 9.87546980e-01
      8.00852966e+00 5.33657014e-01 7.28716981e-03 3.65967001e-03
      9.60766029e+00 9.60879028e-01 8.60445023e+00 4.55004007e-01
      8.97634029e-03 3.93958017e-03 1.00144997e+01 9.57530022e-01
      8.55408001e+00 4.93831009e-01 7.33736996e-03 3.53100989e-03
      1.14947004e+01 9.52678978e-01 8.67959023e+00 4.42734003e-01</_>
    <_>
      9.37062036e-03 5.04523981e-03 3.65955997e+00 9.86693978e-01
      8.05547047e+00 5.30071020e-01 6.84526982e-03 3.36893997e-03
      1.15864000e+01 9.55121994e-01 8.71761036e+00 4.46812987e-01
      8.07426032e-03 3.74849001e-03 1.05769997e+01 9.59756970e-01
      8.60476017e+00 4.90319014e-01 6.40510023e-03 3.40619008e-03
      1.03065004e+01 9.59029973e-01 8.67695045e+00 4.67644989e-01</_>
    <_>
      1.01106996e-02 5.85780991e-03 3.32051992e+00 9.87995982e-01
      7.85797977e+00 5.46051025e-01 6.88129012e-03 3.64131993e-03
      9.34768009e+00 9.61332023e-01 8.58736992e+00 4.58921999e-01
      8.69327039e-03 3.93310981e-03 9.53067017e+00 9.61602986e-01
      8.53940964e+00 4.70376015e-01 7.36295991e-03 3.64890997e-03
      1.03608999e+01 9.57769990e-01 8.60867977e+00 4.45336998e-01</_>
    <_>
      9.51873045e-03 4.79444023e-03 6.66513014e+00 9.63594019e-01
      8.16186047e+00 4.69727010e-01 7.41969002e-03 3.85703007e-03
      8.96753025e+00 9.50331986e-01 8.42683029e+00 4.36100990e-01
      8.54329020e-03 4.58743004e-03 5.80641985e+00 9.67795014e-01
      8.14486027e+00 4.71796006e-01 7.36150006e-03 3.84691008e-03
      9.35480976e+00 9.48693991e-01 8.44472027e+00 4.47894990e-01</_>
    <_>
      1.02297999e-02 4.94995993e-03 5.40191984e+00 9.71427977e-01
      8.09523010e+00 4.91735995e-01 7.94444978e-03 3.76555999e-03
      1.02371998e+01 9.42896008e-01 8.50489044e+00 4.17737991e-01
      8.43052007e-03 4.56085010e-03 7.03875017e+00 9.62525010e-01
      8.21142960e+00 4.81815010e-01 7.69700995e-03 3.84960999e-03
      9.74178028e+00 9.43543017e-01 8.47531986e+00 4.33800012e-01</_>
    <_>
      9.37988982e-03 4.83663986e-03 6.03275013e+00 9.69658017e-01
      8.15202999e+00 5.05751014e-01 7.68319983e-03 3.94824985e-03
      7.96021986e+00 9.56618011e-01 8.38072014e+00 4.32904989e-01
      8.75009038e-03 4.70610987e-03 4.97648001e+00 9.72747028e-01
      8.09195042e+00 4.81898010e-01 7.59547018e-03 4.00304003e-03
      9.22535038e+00 9.49168980e-01 8.41450024e+00 4.32511002e-01</_>
    <_>
      9.09155980e-03 4.66967002e-03 6.66360998e+00 9.64471996e-01
      8.19330025e+00 4.85700011e-01 7.14346021e-03 3.74411000e-03
      1.04552002e+01 9.39581990e-01 8.51745033e+00 4.25413013e-01
      8.18770006e-03 4.52416018e-03 6.98958015e+00 9.61642027e-01
      8.22113037e+00 4.83500004e-01 7.30554014e-03 3.81936994e-03
      1.03823004e+01 9.41115022e-01 8.48931026e+00 4.22517002e-01</_>
    <_>
      9.07537993e-03 4.59779007e-03 7.17434978e+00 9.61646974e-01
      8.23569012e+00 4.82726991e-01 7.51747005e-03 3.63694993e-03
      1.04337997e+01 9.43512976e-01 8.56678963e+00 4.28348005e-01
      8.66071042e-03 4.38258005e-03 7.26255989e+00 9.61421013e-01
      8.27832985e+00 4.49764997e-01 7.69161014e-03 3.74154001e-03
      1.14389000e+01 9.38284993e-01 8.55862999e+00 4.44736004e-01</_>
    <_>
      9.15948022e-03 4.79763001e-03 6.15772009e+00 9.67957020e-01
      8.15425014e+00 4.84797001e-01 7.42902979e-03 3.77916009e-03
      8.93803024e+00 9.50321972e-01 8.47826004e+00 4.35265988e-01
      8.43148027e-03 4.44765994e-03 6.39098978e+00 9.65835989e-01
      8.22418022e+00 4.68773007e-01 8.30254983e-03 3.76619003e-03
      1.08882999e+01 9.41726983e-01 8.53940010e+00 4.33127999e-01</_>
    <_>
      9.48681962e-03 4.56403987e-03 7.53540993e+00 9.61583972e-01
      8.25209999e+00 4.76117998e-01 7.08593987e-03 3.65908002e-03
      9.92794991e+00 9.45348978e-01 8.52643013e+00 4.28097010e-01
      7.96511024e-03 4.40819003e-03 6.32571983e+00 9.66148019e-01
      8.22430038e+00 4.74207014e-01 7.41587998e-03 3.71071999e-03
      1.11059999e+01 9.38789010e-01 8.55169010e+00 4.29145992e-01</_>
    <_>
      9.95460991e-03 4.58355015e-03 8.02237988e+00 9.58509028e-01
      8.27633953e+00 4.71783012e-01 7.41453981e-03 3.73234996e-03
      1.01693001e+01 9.43660021e-01 8.51638985e+00 4.26503003e-01
      8.50624032e-03 4.51711984e-03 6.12079000e+00 9.67428029e-01
      8.19032001e+00 4.81184989e-01 7.58458022e-03 3.73413996e-03
      1.08761997e+01 9.40761983e-01 8.52993011e+00 4.28559989e-01</_>
    <_>
      8.34008958e-03 4.61137015e-03 6.47765017e+00 9.65116978e-01
      8.20160007e+00 4.83170003e-01 7.04010017e-03 3.73226008e-03
      9.36382961e+00 9.47887003e-01 8.50105000e+00 4.26279008e-01
      7.99158961e-03 4.44782991e-03 6.60382986e+00 9.63207006e-01
      8.22167015e+00 4.68796998e-01 7.32536986e-03 3.69095989e-03
      1.05692997e+01 9.43437994e-01 8.54576969e+00 4.38670993e-01</_>
    <_>
      8.88360012e-03 4.53541009e-03 8.07876015e+00 9.53665018e-01
      8.26869965e+00 4.43650991e-01 7.29630003e-03 3.63268005e-03
      1.24324999e+01 9.30278003e-01 8.59875011e+00 4.29737985e-01
      7.92516023e-03 4.33884980e-03 8.50938988e+00 9.52446997e-01
      8.30653000e+00 4.46516991e-01 7.75772985e-03 3.69143998e-03
      1.30094004e+01 9.29445982e-01 8.60013962e+00 4.16301012e-01</_>
    <_>
      1.07324002e-02 5.32766990e-03 4.48376989e+00 9.75282013e-01
      7.96744013e+00 5.01572013e-01 7.45081995e-03 3.84363998e-03
      8.77659035e+00 9.48289990e-01 8.43801022e+00 4.35613006e-01
      8.89431033e-03 4.50605014e-03 7.17213011e+00 9.62221026e-01
      8.22712994e+00 4.67029989e-01 7.89771043e-03 3.96445021e-03
      9.36736965e+00 9.43439007e-01 8.42082977e+00 4.15270001e-01</_>
    <_>
      9.44171008e-03 4.72853985e-03 6.32847977e+00 9.66069996e-01
      8.16275978e+00 4.79142994e-01 7.19875004e-03 3.79129010e-03
      9.77954006e+00 9.46304977e-01 8.47278976e+00 4.34969008e-01
      8.41394998e-03 4.53155022e-03 7.02833986e+00 9.61758971e-01
      8.21745014e+00 4.60963011e-01 7.28023006e-03 3.89689999e-03
      9.97237015e+00 9.43203986e-01 8.45195961e+00 4.38109010e-01</_>
    <_>
      9.66424961e-03 4.86489013e-03 5.95748997e+00 9.69272971e-01
      8.13801003e+00 4.93330002e-01 7.26344017e-03 3.85893998e-03
      9.12959003e+00 9.47892010e-01 8.44567966e+00 4.41217005e-01
      8.67648982e-03 4.58279997e-03 6.63613987e+00 9.63711977e-01
      8.18904018e+00 4.73233998e-01 7.43007008e-03 3.94714996e-03
      9.54248047e+00 9.45915997e-01 8.42971039e+00 4.34260994e-01</_>
    <_>
      9.60006006e-03 4.57399013e-03 6.70182991e+00 9.62975025e-01
      8.23857975e+00 4.68998998e-01 7.44873006e-03 3.69191007e-03
      1.05366001e+01 9.44413006e-01 8.54071045e+00 4.22161996e-01
      8.70758016e-03 4.45088977e-03 7.23167992e+00 9.61073995e-01
      8.26342964e+00 4.70560998e-01 7.68418983e-03 3.76807991e-03
      1.06717997e+01 9.44720984e-01 8.53738022e+00 4.31098998e-01</_>
    <_>
      3.14746015e-02 1.53684001e-02 1.76022005e+00 9.82429981e-01
      6.65903997e+00 6.47019982e-01 3.14663015e-02 1.30987000e-02
      4.29641008e+00 9.56330001e-01 7.01239014e+00 5.67951977e-01
      2.82869004e-02 1.45493001e-02 3.02252007e+00 9.67889011e-01
      6.72528982e+00 6.03578985e-01 3.06059998e-02 1.28004998e-02
      4.64273024e+00 9.52646971e-01 7.04917002e+00 5.66296995e-01</_>
    <_>
      3.05288006e-02 1.50635997e-02 1.85132003e+00 9.82222021e-01
      6.70400000e+00 6.57644987e-01 2.69096997e-02 1.27117001e-02
      4.46994019e+00 9.53116000e-01 7.02151012e+00 5.88575006e-01
      2.80796997e-02 1.38351005e-02 3.54461002e+00 9.64416981e-01
      6.83952999e+00 6.08262002e-01 2.74522994e-02 1.22367004e-02
      4.65006018e+00 9.50231016e-01 7.08994007e+00 5.89963019e-01</_>
    <_>
      7.36143021e-03 3.49385990e-03 7.52840996e+00 9.66387987e-01
      8.52912045e+00 4.62388009e-01 6.86960993e-03 3.39742005e-03
      8.10638046e+00 9.61955011e-01 8.56639004e+00 4.58380997e-01
      9.65944026e-03 5.18772006e-03 4.06013012e+00 9.81199026e-01
      8.00201988e+00 5.27940989e-01 6.63276017e-03 3.00824991e-03
      1.09854002e+01 9.51238990e-01 8.76583004e+00 4.30303991e-01</_>
    <_>
      6.42387010e-03 3.27780005e-03 8.09724045e+00 9.66516018e-01
      8.60060978e+00 4.50392008e-01 6.04761997e-03 3.10403993e-03
      9.04454994e+00 9.61654007e-01 8.68144989e+00 4.38544005e-01
      9.40879993e-03 5.08752000e-03 3.83961010e+00 9.83905017e-01
      8.01544952e+00 5.37312984e-01 5.96240023e-03 2.92110001e-03
      1.05389004e+01 9.56521988e-01 8.77071953e+00 4.12431002e-01</_>
    <_>
      7.70307984e-03 3.40122008e-03 8.46971035e+00 9.64244008e-01
      8.59901047e+00 4.60413992e-01 7.29213981e-03 3.27512994e-03
      9.70032978e+00 9.59883988e-01 8.65804005e+00 4.45163995e-01
      1.00368997e-02 5.23788994e-03 3.89123988e+00 9.82954025e-01
      7.97776985e+00 5.27505994e-01 7.11177988e-03 3.04211001e-03
      1.09666996e+01 9.55250978e-01 8.76646042e+00 4.25812989e-01</_>
    <_>
      8.33932962e-03 3.19040008e-03 1.08478003e+01 9.54869986e-01
      8.73816967e+00 4.47364986e-01 7.82699976e-03 3.13370000e-03
      1.15440998e+01 9.51144993e-01 8.76764965e+00 4.46444005e-01
      9.74201038e-03 5.24483016e-03 3.32357001e+00 9.86398995e-01
      7.94882011e+00 5.44816017e-01 7.44241010e-03 2.93472991e-03
      1.29155998e+01 9.46811020e-01 8.85851002e+00 4.21680003e-01</_>
    <_>
      7.65568018e-03 3.25759011e-03 1.14581003e+01 9.54400003e-01
      8.75329018e+00 4.54546988e-01 7.63930986e-03 3.18554998e-03
      1.13392000e+01 9.53209996e-01 8.74516010e+00 4.51525986e-01
      1.02057001e-02 5.57652023e-03 2.54153991e+00 9.88956988e-01
      7.79080009e+00 5.48762023e-01 7.40892999e-03 2.90476996e-03
      1.40464001e+01 9.41654980e-01 8.89603996e+00 4.15515989e-01</_>
    <_>
      7.65568018e-03 3.25759011e-03 1.14581003e+01 9.54400003e-01
      8.75329018e+00 4.54546988e-01 7.63930986e-03 3.18554998e-03
      1.13392000e+01 9.53209996e-01 8.74516010e+00 4.51525986e-01
      1.02057001e-02 5.57652023e-03 2.54153991e+00 9.88956988e-01
      7.79080009e+00 5.48762023e-01 7.40892999e-03 2.90476996e-03
      1.40464001e+01 9.41654980e-01 8.89603996e+00 4.15515989e-01</_>
    <_>
      7.98510015e-03 3.22530000e-03 1.23282003e+01 9.47764993e-01
      8.77462959e+00 4.57486004e-01 7.74742989e-03 3.15051991e-03
      1.20393000e+01 9.49047029e-01 8.76206970e+00 4.38266993e-01
      9.59946029e-03 5.37496014e-03 2.68615007e+00 9.88110006e-01
      7.84887981e+00 5.57439983e-01 7.45248981e-03 2.85653002e-03
      1.47536001e+01 9.39606011e-01 8.92243958e+00 4.06762004e-01</_>
    <_>
      8.11162032e-03 3.48496996e-03 1.02138996e+01 9.58971024e-01
      8.66067982e+00 4.67355996e-01 8.15831963e-03 3.30479001e-03
      1.05838003e+01 9.55655992e-01 8.69219971e+00 4.45721000e-01
      9.80545022e-03 5.33880992e-03 2.85665011e+00 9.88281012e-01
      7.88483000e+00 5.56304991e-01 7.59086991e-03 3.12048011e-03
      1.26134996e+01 9.50640023e-01 8.80813980e+00 4.31950986e-01</_>
    <_>
      7.80098001e-03 3.17276991e-03 1.12625999e+01 9.54119027e-01
      8.77001953e+00 4.55942988e-01 7.72023015e-03 3.12226010e-03
      1.22059002e+01 9.49805021e-01 8.78390980e+00 4.33393002e-01
      9.46970005e-03 5.23824990e-03 3.09547997e+00 9.87016976e-01
      7.92511988e+00 5.57826996e-01 7.29550002e-03 2.92955991e-03
      1.35560999e+01 9.44630027e-01 8.88132000e+00 4.16844994e-01</_>
    <_>
      3.46590988e-02 1.72137003e-02 1.70439994e+00 9.80781972e-01
      6.51372004e+00 6.58092022e-01 3.16280015e-02 1.42638003e-02
      4.41065979e+00 9.44060028e-01 6.85381985e+00 5.90739012e-01
      3.13781016e-02 1.62624996e-02 3.26344991e+00 9.60319996e-01
      6.60039997e+00 6.22452974e-01 3.11239995e-02 1.47804003e-02
      4.15461016e+00 9.47297990e-01 6.81373978e+00 5.98887980e-01</_>
    <_>
      3.45816985e-02 1.76697001e-02 1.64953995e+00 9.80751991e-01
      6.48371983e+00 6.66683972e-01 3.00213993e-02 1.43742003e-02
      4.03717995e+00 9.52184975e-01 6.83915997e+00 5.86399972e-01
      3.35446000e-02 1.59885008e-02 3.57990003e+00 9.58041012e-01
      6.65167999e+00 6.14709973e-01 3.01469993e-02 1.39792999e-02
      4.86332989e+00 9.41523015e-01 6.89178991e+00 5.81198990e-01</_>
    <_>
      3.43354009e-02 1.66107006e-02 1.91290998e+00 9.77993011e-01
      6.59065008e+00 6.45088017e-01 3.05026993e-02 1.45942001e-02
      4.13946009e+00 9.50667024e-01 6.82940006e+00 5.83270013e-01
      3.43930013e-02 1.56452004e-02 3.48986006e+00 9.60005999e-01
      6.67266989e+00 6.03914976e-01 3.11127007e-02 1.46236001e-02
      4.44399977e+00 9.46539998e-01 6.84191990e+00 5.89138985e-01</_>
    <_>
      3.33238989e-02 1.59568004e-02 1.82104003e+00 9.78950024e-01
      6.61908007e+00 6.34225011e-01 2.99159996e-02 1.33640002e-02
      4.20646000e+00 9.48593020e-01 6.91706991e+00 5.69908023e-01
      3.23528983e-02 1.52729005e-02 3.35472989e+00 9.60512996e-01
      6.67251015e+00 6.00856006e-01 3.02076992e-02 1.41471000e-02
      4.38791990e+00 9.48431015e-01 6.86647987e+00 5.60742021e-01</_>
    <_>
      3.67431007e-02 1.67126991e-02 1.92606997e+00 9.79566991e-01
      6.60982990e+00 6.62132978e-01 2.88280006e-02 1.35511998e-02
      4.47353983e+00 9.48069990e-01 6.89343023e+00 5.84656000e-01
      3.36248986e-02 1.55033004e-02 4.20488977e+00 9.52871978e-01
      6.71829987e+00 6.06446981e-01 2.68194992e-02 1.33499000e-02
      5.11484003e+00 9.40666974e-01 6.92163992e+00 5.74617028e-01</_>
    <_>
      2.99788993e-02 1.50570003e-02 1.84653997e+00 9.80336010e-01
      6.67978001e+00 6.42665029e-01 2.81191003e-02 1.35369999e-02
      3.89627004e+00 9.55156982e-01 6.92576981e+00 5.67031980e-01
      3.21920998e-02 1.48232002e-02 3.16798997e+00 9.65286016e-01
      6.73179007e+00 5.91781974e-01 2.87098009e-02 1.31190997e-02
      4.40973997e+00 9.49387014e-01 6.97247982e+00 5.73285997e-01</_>
    <_>
      3.14004011e-02 1.57293007e-02 2.04734993e+00 9.77779984e-01
      6.64535999e+00 6.42593980e-01 2.79836003e-02 1.35823004e-02
      4.61741018e+00 9.46834981e-01 6.91556978e+00 5.76955974e-01
      2.80617997e-02 1.46928998e-02 4.10320997e+00 9.54182982e-01
      6.74229002e+00 5.91161013e-01 2.65884995e-02 1.33494996e-02
      5.03684998e+00 9.40409005e-01 6.92078018e+00 5.88693023e-01</_>
    <_>
      2.97746006e-02 1.57334004e-02 1.93594003e+00 9.78878021e-01
      6.61664009e+00 6.41617000e-01 2.81690005e-02 1.35735003e-02
      4.47615004e+00 9.49910998e-01 6.93221998e+00 5.63229978e-01
      2.88720001e-02 1.46557996e-02 3.73110008e+00 9.58319008e-01
      6.73859978e+00 5.73396027e-01 2.85446998e-02 1.31256999e-02
      5.02444983e+00 9.42749977e-01 6.97153997e+00 5.70755005e-01</_>
    <_>
      3.26588005e-02 1.67705994e-02 1.89446998e+00 9.78227973e-01
      6.56316996e+00 6.47975028e-01 2.97378991e-02 1.35786003e-02
      5.00944996e+00 9.38730001e-01 6.95002985e+00 5.67764997e-01
      3.25306989e-02 1.54951001e-02 3.97169995e+00 9.54473019e-01
      6.70643997e+00 5.90884984e-01 3.00663002e-02 1.33659998e-02
      5.01597977e+00 9.38901007e-01 6.95774984e+00 5.87788999e-01</_>
    <_>
      3.14901993e-02 1.49824005e-02 2.12807012e+00 9.75799024e-01
      6.69176006e+00 6.18422985e-01 2.74522994e-02 1.25909001e-02
      4.48153019e+00 9.47987974e-01 7.00446987e+00 5.61160982e-01
      2.72826999e-02 1.33502996e-02 3.81925011e+00 9.55160022e-01
      6.83865023e+00 5.72453022e-01 2.58629993e-02 1.21154999e-02
      5.41390991e+00 9.34150994e-01 7.05629015e+00 5.28519988e-01</_>
    <_>
      2.99731009e-02 1.56538002e-02 1.77906001e+00 9.80637014e-01
      6.60116005e+00 6.40937984e-01 2.78283004e-02 1.36412997e-02
      4.41515017e+00 9.48668003e-01 6.87863016e+00 5.76182008e-01
      2.93575991e-02 1.57043003e-02 3.62985992e+00 9.59383011e-01
      6.64423990e+00 6.08080983e-01 2.66209003e-02 1.27852000e-02
      4.73669004e+00 9.43924010e-01 6.95767021e+00 5.76794982e-01</_>
    <_>
      2.73380000e-02 1.50592998e-02 1.81482005e+00 9.79225993e-01
      6.65368986e+00 6.23803973e-01 2.90137995e-02 1.34680001e-02
      4.17270994e+00 9.48903024e-01 6.89837980e+00 5.80286980e-01
      2.93764994e-02 1.51481004e-02 3.44856000e+00 9.59870994e-01
      6.69110012e+00 6.11446023e-01 2.66463999e-02 1.25131998e-02
      4.58936024e+00 9.44094002e-01 6.98873997e+00 5.55839002e-01</_>
    <_>
      3.34745012e-02 1.71220992e-02 1.71777999e+00 9.80558991e-01
      6.52599001e+00 6.50155008e-01 2.72199996e-02 1.41532999e-02
      3.82151008e+00 9.52904999e-01 6.83431005e+00 5.98215997e-01
      3.23778018e-02 1.60163008e-02 3.11659002e+00 9.64286983e-01
      6.63066006e+00 5.78386009e-01 3.00520994e-02 1.44765005e-02
      3.86642003e+00 9.53814030e-01 6.83378983e+00 5.97468972e-01</_>
    <_>
      3.06400005e-02 1.53633999e-02 1.85174000e+00 9.79497015e-01
      6.64236021e+00 6.49969995e-01 2.83806007e-02 1.26556000e-02
      4.65508986e+00 9.45414007e-01 6.99300003e+00 5.54244995e-01
      3.04192007e-02 1.44472001e-02 3.68539000e+00 9.58052993e-01
      6.77575016e+00 6.04710996e-01 2.89837997e-02 1.33121004e-02
      4.58369017e+00 9.46063995e-01 6.93874979e+00 5.73660016e-01</_>
    <_>
      3.55129987e-02 1.66880991e-02 1.86063004e+00 9.78506982e-01
      6.55424976e+00 6.48303986e-01 2.74951998e-02 1.38967996e-02
      4.59083986e+00 9.43998992e-01 6.86616993e+00 5.94429016e-01
      2.96518002e-02 1.56471003e-02 3.87962008e+00 9.55242991e-01
      6.66526985e+00 6.04520977e-01 2.86653992e-02 1.40289003e-02
      4.51573992e+00 9.43629026e-01 6.84197998e+00 5.83263993e-01</_>
    <_>
      3.55927013e-02 1.68497991e-02 1.83890998e+00 9.79326010e-01
      6.56810999e+00 6.48268998e-01 2.91179009e-02 1.44244004e-02
      4.30872011e+00 9.46614981e-01 6.83818007e+00 5.97638011e-01
      3.43458988e-02 1.64247993e-02 3.70867991e+00 9.58253980e-01
      6.64060020e+00 5.88163972e-01 3.03067993e-02 1.42636998e-02
      4.60914993e+00 9.44962978e-01 6.86700010e+00 5.95614016e-01</_>
    <_>
      3.47025990e-02 1.75969992e-02 1.73441994e+00 9.80461001e-01
      6.49161005e+00 6.59730971e-01 3.38299982e-02 1.45749999e-02
      4.37763023e+00 9.48635995e-01 6.84686995e+00 5.76292992e-01
      3.41717005e-02 1.68878995e-02 3.46036005e+00 9.59985971e-01
      6.58479977e+00 6.02425992e-01 3.32930982e-02 1.43817002e-02
      4.68546009e+00 9.46026981e-01 6.87575006e+00 5.94208002e-01</_>
    <_>
      3.41002010e-02 1.66513007e-02 1.69419003e+00 9.79924023e-01
      6.53704023e+00 6.73475981e-01 2.74417996e-02 1.38536002e-02
      3.86655998e+00 9.53513026e-01 6.86667013e+00 5.71972013e-01
      3.20748985e-02 1.57277007e-02 3.22608995e+00 9.61665988e-01
      6.65798998e+00 6.08024001e-01 2.93926001e-02 1.37198996e-02
      4.51723003e+00 9.45707023e-01 6.89610004e+00 5.59696019e-01</_>
    <_>
      3.15969996e-02 1.75365005e-02 1.62969005e+00 9.82517004e-01
      6.48292017e+00 6.51910007e-01 2.96796001e-02 1.41527001e-02
      4.53210020e+00 9.46941018e-01 6.84180021e+00 5.80622971e-01
      3.00891995e-02 1.59028005e-02 3.75717998e+00 9.57349002e-01
      6.62495995e+00 6.13276005e-01 2.73136999e-02 1.38788996e-02
      4.72552013e+00 9.45791006e-01 6.88861990e+00 5.90183973e-01</_>
    <_>
      3.57142985e-02 1.66614000e-02 1.78717995e+00 9.80898023e-01
      6.56876993e+00 6.45240009e-01 2.97731999e-02 1.50875002e-02
      4.52173996e+00 9.47287023e-01 6.77891016e+00 5.89223027e-01
      3.27522010e-02 1.59115996e-02 3.97319007e+00 9.54590976e-01
      6.66845989e+00 5.84905028e-01 2.93006003e-02 1.51586998e-02
      4.49526978e+00 9.49223995e-01 6.78325987e+00 6.00497007e-01</_>
    <_>
      3.29206996e-02 1.60304997e-02 1.93099999e+00 9.79018986e-01
      6.61257982e+00 6.41194999e-01 2.72342991e-02 1.37005998e-02
      4.46887016e+00 9.45802987e-01 6.88072014e+00 5.68144977e-01
      3.14581990e-02 1.50260003e-02 3.73044991e+00 9.57647979e-01
      6.71878004e+00 5.92687011e-01 2.70022992e-02 1.38721000e-02
      4.66407013e+00 9.42942977e-01 6.89407015e+00 5.78001976e-01</_>
    <_>
      3.34337987e-02 1.66212004e-02 1.85064006e+00 9.78344977e-01
      6.55710983e+00 6.41276002e-01 2.99443994e-02 1.43069997e-02
      4.12320995e+00 9.50964987e-01 6.84549999e+00 5.85056007e-01
      3.61036994e-02 1.59389991e-02 3.68021989e+00 9.56683993e-01
      6.68182993e+00 5.87415993e-01 3.06359008e-02 1.39081003e-02
      4.31710005e+00 9.49943006e-01 6.88492012e+00 5.74497998e-01</_>
    <_>
      2.96446998e-02 1.54894004e-02 1.74471998e+00 9.78744984e-01
      6.61985016e+00 6.25685990e-01 2.92665996e-02 1.36324996e-02
      3.72455001e+00 9.54338014e-01 6.88115978e+00 5.74011981e-01
      2.89939009e-02 1.44205000e-02 3.27351999e+00 9.60711002e-01
      6.74776983e+00 5.90382993e-01 2.57086996e-02 1.08097997e-02
      5.01365995e+00 9.39742029e-01 7.15044022e+00 5.41954994e-01</_>
    <_>
      1.02918996e-02 4.87908022e-03 7.28677988e+00 9.69982028e-01
      8.25780964e+00 5.07192016e-01 9.14076995e-03 4.24482999e-03
      1.04441996e+01 9.55254972e-01 8.51414013e+00 4.61277992e-01
      1.10711996e-02 4.93308017e-03 6.24370003e+00 9.73891973e-01
      8.21660995e+00 4.96333987e-01 9.67338029e-03 4.36529005e-03
      1.00628996e+01 9.58793998e-01 8.47472000e+00 4.48385000e-01</_>
    <_>
      1.14566004e-02 5.14623011e-03 6.34909010e+00 9.75192010e-01
      8.17572021e+00 5.26897013e-01 9.24521964e-03 4.38934006e-03
      9.17535973e+00 9.60225999e-01 8.45166016e+00 4.70358998e-01
      1.11808004e-02 5.06683020e-03 5.13917017e+00 9.78303015e-01
      8.12650013e+00 5.17974019e-01 9.54931974e-03 4.49453015e-03
      8.79518986e+00 9.63352025e-01 8.39712048e+00 4.67460006e-01</_>
    <_>
      1.03276996e-02 4.65263007e-03 7.14169979e+00 9.72590983e-01
      8.31042004e+00 5.01074016e-01 9.57883988e-03 4.04933002e-03
      1.12004995e+01 9.56303000e-01 8.60087013e+00 4.48206007e-01
      9.95778013e-03 4.83528990e-03 5.91766977e+00 9.77141976e-01
      8.21770954e+00 4.91860002e-01 9.27019957e-03 4.16311994e-03
      9.88531971e+00 9.61598992e-01 8.52176952e+00 4.57397014e-01</_>
    <_>
      1.03689004e-02 4.68319003e-03 7.83696985e+00 9.70075011e-01
      8.33195019e+00 5.06705999e-01 9.57782008e-03 4.05941997e-03
      1.14561996e+01 9.55785990e-01 8.60867023e+00 4.61255997e-01
      1.07698999e-02 4.79830010e-03 6.28875017e+00 9.75501001e-01
      8.26801014e+00 4.84135002e-01 9.57782008e-03 4.15039994e-03
      1.09110003e+01 9.56224024e-01 8.55685043e+00 4.63891000e-01</_>
    <_>
      1.10563003e-02 4.75730980e-03 7.08048010e+00 9.73671973e-01
      8.29578018e+00 5.26589990e-01 9.37732030e-03 4.29173978e-03
      9.67115974e+00 9.61301982e-01 8.49530983e+00 4.73322988e-01
      1.09847998e-02 5.06393984e-03 5.30532980e+00 9.79358017e-01
      8.16961002e+00 5.23000002e-01 9.53761954e-03 4.24891012e-03
      9.91965008e+00 9.61575985e-01 8.50403023e+00 4.68367010e-01</_>
    <_>
      1.20596001e-02 5.18719992e-03 6.71298981e+00 9.74682987e-01
      8.21500969e+00 5.35203993e-01 9.92032979e-03 4.35495004e-03
      1.01393995e+01 9.59603012e-01 8.51323032e+00 4.78374004e-01
      1.15005001e-02 5.14136022e-03 5.36349010e+00 9.79007006e-01
      8.16928959e+00 5.22605002e-01 1.03871999e-02 4.46406985e-03
      9.34788990e+00 9.64689016e-01 8.43661022e+00 4.70968992e-01</_>
    <_>
      1.08695999e-02 4.68536979e-03 6.65083981e+00 9.75252986e-01
      8.29158020e+00 5.37588000e-01 9.59757995e-03 4.22320003e-03
      8.90791988e+00 9.63227987e-01 8.47799015e+00 4.66237992e-01
      1.12314997e-02 5.38054993e-03 4.42084980e+00 9.82869029e-01
      8.04763031e+00 5.28097987e-01 9.63537022e-03 4.24084999e-03
      8.93855953e+00 9.63312984e-01 8.47093010e+00 4.68414009e-01</_>
    <_>
      1.09681003e-02 4.80306987e-03 7.31245995e+00 9.73134995e-01
      8.28985023e+00 5.35197973e-01 9.58007015e-03 4.16037999e-03
      9.91897011e+00 9.60748017e-01 8.53555965e+00 4.65104014e-01
      1.06041003e-02 5.19863982e-03 4.61782980e+00 9.83173013e-01
      8.09368992e+00 5.22944987e-01 1.00453002e-02 4.23495984e-03
      9.84947968e+00 9.60758984e-01 8.49736977e+00 4.70082998e-01</_>
    <_>
      1.12720998e-02 4.78800014e-03 7.23188019e+00 9.72204030e-01
      8.30239964e+00 5.24989009e-01 9.62704979e-03 4.35653981e-03
      1.05966997e+01 9.57937002e-01 8.52451992e+00 4.68751997e-01
      1.02190003e-02 5.14690997e-03 5.50961018e+00 9.78778005e-01
      8.15515995e+00 5.13523996e-01 9.53453034e-03 4.32656007e-03
      9.94703007e+00 9.61441994e-01 8.49380970e+00 4.65631008e-01</_>
    <_>
      1.11619001e-02 4.94176988e-03 6.36276007e+00 9.76248026e-01
      8.23241997e+00 5.45036018e-01 9.96547006e-03 4.14886978e-03
      9.89748001e+00 9.60705996e-01 8.54049015e+00 4.52297986e-01
      1.11999996e-02 5.08347992e-03 4.94163990e+00 9.81203020e-01
      8.13103962e+00 5.08323014e-01 9.71207023e-03 4.37666010e-03
      8.70586014e+00 9.66082990e-01 8.43196011e+00 4.60637987e-01</_>
    <_>
      1.10529000e-02 4.95440979e-03 6.74075985e+00 9.74623978e-01
      8.24734974e+00 5.22469997e-01 1.01170000e-02 4.23021009e-03
      1.01969995e+01 9.60182011e-01 8.54039955e+00 4.61023003e-01
      1.11717004e-02 5.27817011e-03 5.07149982e+00 9.79577005e-01
      8.12782001e+00 5.28540015e-01 1.02794999e-02 4.43519000e-03
      9.42658043e+00 9.63383973e-01 8.45891953e+00 4.66179013e-01</_>
    <_>
      1.17630996e-02 4.98504005e-03 7.07773018e+00 9.72037017e-01
      8.26154041e+00 5.21879971e-01 9.88326967e-03 4.23381012e-03
      1.02180996e+01 9.60364997e-01 8.53433990e+00 4.69904006e-01
      1.16247004e-02 5.15798992e-03 5.40414000e+00 9.78156984e-01
      8.15876961e+00 5.31499982e-01 1.02124000e-02 4.38687019e-03
      9.65412045e+00 9.60716009e-01 8.46772003e+00 4.69963014e-01</_>
    <_>
      1.07060997e-02 4.78828978e-03 6.95292997e+00 9.73636985e-01
      8.27857018e+00 5.17008007e-01 9.52025037e-03 4.30198992e-03
      1.04175997e+01 9.56324995e-01 8.52972984e+00 4.53265995e-01
      1.08335000e-02 4.88635013e-03 5.59919977e+00 9.77694988e-01
      8.19696045e+00 5.06110013e-01 9.80127975e-03 4.31626011e-03
      9.89595032e+00 9.58963990e-01 8.48902988e+00 4.49903995e-01</_>
    <_>
      1.24051003e-02 4.94285021e-03 6.44088984e+00 9.75893021e-01
      8.24310017e+00 5.29699981e-01 1.03550004e-02 4.30093007e-03
      9.25226021e+00 9.61744010e-01 8.47992039e+00 4.65373009e-01
      1.17714005e-02 5.20878006e-03 4.93801022e+00 9.80081975e-01
      8.11868954e+00 5.36578000e-01 1.04371998e-02 4.30520019e-03
      9.15071964e+00 9.62278008e-01 8.46290016e+00 4.65591013e-01</_>
    <_>
      1.16846003e-02 5.15067996e-03 7.21037006e+00 9.72186029e-01
      8.22735977e+00 5.40367007e-01 1.05483001e-02 4.34585987e-03
      1.02341995e+01 9.58360016e-01 8.50658035e+00 4.71293986e-01
      1.20171998e-02 5.21642016e-03 5.15831995e+00 9.79268014e-01
      8.13035011e+00 5.31423986e-01 1.03278002e-02 4.44068993e-03
      9.88879967e+00 9.59708989e-01 8.46444035e+00 4.64506000e-01</_>
    <_>
      1.07161002e-02 5.04649989e-03 6.50400019e+00 9.72715020e-01
      8.18502045e+00 5.17997026e-01 9.22429003e-03 4.13047988e-03
      9.38829041e+00 9.56303000e-01 8.48075008e+00 4.69985992e-01
      1.15104998e-02 5.41150011e-03 4.58775997e+00 9.78219986e-01
      8.04796982e+00 5.27993977e-01 9.82753001e-03 4.29707021e-03
      8.59214020e+00 9.59737003e-01 8.40631962e+00 4.74819005e-01</_>
    <_>
      1.09486002e-02 4.99565993e-03 6.31426001e+00 9.72957015e-01
      8.17683029e+00 5.24321020e-01 9.05605033e-03 4.18188982e-03
      8.80478001e+00 9.60165977e-01 8.44242954e+00 4.83752012e-01
      1.17282001e-02 5.54870022e-03 4.32819986e+00 9.78649020e-01
      7.98616982e+00 5.33276975e-01 9.61501990e-03 4.26835986e-03
      8.27470016e+00 9.64001000e-01 8.38724041e+00 4.85148013e-01</_>
    <_>
      1.06146000e-02 4.81104013e-03 7.38477993e+00 9.69101012e-01
      8.26208973e+00 5.19537985e-01 8.79121013e-03 4.13481984e-03
      9.85385990e+00 9.55100000e-01 8.48937035e+00 4.75344986e-01
      1.10711996e-02 5.34994015e-03 4.68951988e+00 9.80605006e-01
      8.05856991e+00 5.46608984e-01 9.20211989e-03 4.19201981e-03
      9.01770973e+00 9.61349010e-01 8.43039036e+00 4.82879996e-01</_>
    <_>
      1.01514002e-02 4.75588022e-03 7.17220020e+00 9.70296025e-01
      8.25317955e+00 5.15273988e-01 8.66067037e-03 4.09178995e-03
      9.78682995e+00 9.55389977e-01 8.49289989e+00 4.62307990e-01
      1.10376999e-02 5.20951999e-03 4.78649998e+00 9.79487002e-01
      8.08308983e+00 5.14982998e-01 9.05590039e-03 4.18301998e-03
      8.70907021e+00 9.60651994e-01 8.41709995e+00 4.78141993e-01</_>
    <_>
      1.17007997e-02 5.27847977e-03 6.24139023e+00 9.69285011e-01
      8.09173965e+00 5.38003027e-01 9.85047966e-03 4.34452016e-03
      8.76496029e+00 9.54896986e-01 8.37745953e+00 4.74146008e-01
      1.26413004e-02 5.79119986e-03 4.15119982e+00 9.79520977e-01
      7.92761993e+00 5.53198993e-01 1.05368001e-02 4.61611990e-03
      8.08156967e+00 9.59619999e-01 8.28744030e+00 4.75120991e-01</_>
    <_>
      1.12226000e-02 4.81810980e-03 7.74228001e+00 9.66657996e-01
      8.27744961e+00 5.08364022e-01 9.65941977e-03 4.11756011e-03
      1.09666004e+01 9.49141026e-01 8.52768993e+00 4.53857005e-01
      1.17060998e-02 5.39815007e-03 5.34998989e+00 9.74542022e-01
      8.09023952e+00 5.15996993e-01 1.02158999e-02 4.17510979e-03
      1.02934999e+01 9.53137994e-01 8.47667027e+00 4.66940999e-01</_>
    <_>
      1.18132001e-02 4.97918017e-03 7.46217012e+00 9.65988994e-01
      8.23097038e+00 5.15097976e-01 9.49172955e-03 4.15930012e-03
      9.93647003e+00 9.52504992e-01 8.47877026e+00 4.56970990e-01
      1.17194997e-02 5.38132014e-03 4.48633003e+00 9.78250980e-01
      8.03178024e+00 5.29893994e-01 1.00552002e-02 4.44089016e-03
      8.96123981e+00 9.57656980e-01 8.37528992e+00 4.70043004e-01</_>
    <_>
      1.15413005e-02 5.30725019e-03 6.30634022e+00 9.71292019e-01
      8.13228035e+00 5.37550986e-01 9.71748959e-03 4.21252009e-03
      9.51004982e+00 9.54696000e-01 8.46212959e+00 4.66558993e-01
      1.22117996e-02 5.50635997e-03 4.36683989e+00 9.79902983e-01
      7.99265003e+00 5.33342004e-01 1.02209998e-02 4.59423009e-03
      7.87491989e+00 9.60282981e-01 8.29399014e+00 4.70268995e-01</_>
    <_>
      1.23637002e-02 5.34992013e-03 6.22172022e+00 9.72633004e-01
      8.11579037e+00 5.32383025e-01 1.00047998e-02 4.40979982e-03
      9.22955036e+00 9.57165003e-01 8.41415024e+00 4.74826008e-01
      1.23150004e-02 5.63716004e-03 4.40557003e+00 9.79331017e-01
      7.98186016e+00 5.38071990e-01 1.08602000e-02 4.56367014e-03
      8.05206966e+00 9.63967025e-01 8.31608009e+00 4.73444015e-01</_>
    <_>
      1.24112004e-02 5.02229016e-03 6.59462023e+00 9.71542001e-01
      8.19964027e+00 5.08692980e-01 1.02674002e-02 4.25887993e-03
      9.57046032e+00 9.56794977e-01 8.45866966e+00 4.57697988e-01
      1.13626001e-02 5.39488997e-03 4.91684008e+00 9.75450993e-01
      8.05084991e+00 5.33792973e-01 1.01957005e-02 4.46857000e-03
      9.18624020e+00 9.55268979e-01 8.39115047e+00 4.73302007e-01</_>
    <_>
      1.05606997e-02 4.78349999e-03 7.59242010e+00 9.67136979e-01
      8.25876999e+00 5.17050982e-01 8.96381959e-03 4.22781007e-03
      1.00401001e+01 9.51457024e-01 8.46644020e+00 4.70880985e-01
      1.10552004e-02 5.10950014e-03 4.80803013e+00 9.78245974e-01
      8.09055996e+00 5.20657003e-01 9.84152965e-03 4.26266016e-03
      9.86256981e+00 9.55435991e-01 8.43642044e+00 4.55850005e-01</_>
    <_>
      1.17306001e-02 5.24957990e-03 7.07465982e+00 9.65444982e-01
      8.12543011e+00 5.24362028e-01 9.93818976e-03 4.38399008e-03
      1.01422997e+01 9.48183000e-01 8.40927982e+00 4.70099002e-01
      1.27844997e-02 5.79437008e-03 4.51479006e+00 9.77118015e-01
      7.93858004e+00 5.34675002e-01 1.02461996e-02 4.64050006e-03
      7.94762993e+00 9.58880007e-01 8.26945019e+00 4.92269009e-01</_>
    <_>
      1.24153001e-02 5.45907021e-03 6.65408993e+00 9.67855990e-01
      8.07524967e+00 5.35390019e-01 1.02375001e-02 4.46774019e-03
      9.41866970e+00 9.49361026e-01 8.36845016e+00 4.76449996e-01
      1.24153001e-02 5.85152023e-03 4.16949987e+00 9.79269028e-01
      7.91195011e+00 5.53372025e-01 1.05013000e-02 4.75955987e-03
      7.97312021e+00 9.56920981e-01 8.24985027e+00 4.81519014e-01</_>
    <_>
      1.16301002e-02 5.41005982e-03 6.58074999e+00 9.67983007e-01
      8.07639027e+00 5.34241021e-01 1.00611998e-02 4.42520017e-03
      9.40835953e+00 9.47596014e-01 8.36598015e+00 4.76175010e-01
      1.22105004e-02 5.78995980e-03 4.08854008e+00 9.79713976e-01
      7.91332006e+00 5.47187984e-01 1.02631999e-02 4.59842989e-03
      8.19227982e+00 9.56839979e-01 8.27820969e+00 4.79030997e-01</_>
    <_>
      1.25956004e-02 5.31959999e-03 6.72835016e+00 9.70543027e-01
      8.11882019e+00 5.30245006e-01 1.03193996e-02 4.37293993e-03
      9.30663013e+00 9.56735015e-01 8.40478039e+00 4.79680002e-01
      1.25134997e-02 5.72896004e-03 4.13603020e+00 9.81285989e-01
      7.94494009e+00 5.54014981e-01 1.09334001e-02 4.61398996e-03
      8.07139015e+00 9.62772012e-01 8.30832005e+00 4.85473990e-01</_>
    <_>
      1.21084005e-02 5.20400004e-03 7.74504995e+00 9.66886997e-01
      8.19783974e+00 5.10415018e-01 1.05066001e-02 4.16343007e-03
      1.09801998e+01 9.47308004e-01 8.50028992e+00 4.56277013e-01
      1.25123002e-02 5.51314000e-03 4.63925982e+00 9.79391992e-01
      8.01509953e+00 5.44664979e-01 1.07241003e-02 4.55552991e-03
      9.23507023e+00 9.55573022e-01 8.36145973e+00 4.67254996e-01</_>
    <_>
      1.19551001e-02 5.33389021e-03 6.34238005e+00 9.74891007e-01
      8.15616035e+00 5.21344006e-01 1.06084002e-02 4.38047014e-03
      8.95143986e+00 9.59892988e-01 8.42222023e+00 4.63001013e-01
      1.22496998e-02 5.47824008e-03 4.57554007e+00 9.80268002e-01
      8.02721024e+00 5.42369008e-01 1.06084002e-02 4.50304011e-03
      8.81554985e+00 9.59972024e-01 8.38160038e+00 4.71680999e-01</_>
    <_>
      1.26777003e-02 5.53908991e-03 6.30272007e+00 9.73784983e-01
      8.09206009e+00 5.27226985e-01 1.04713999e-02 4.44862992e-03
      8.50440979e+00 9.60605025e-01 8.38385010e+00 4.77730989e-01
      1.27908001e-02 5.60211018e-03 4.61929989e+00 9.79757011e-01
      8.00366974e+00 5.49483001e-01 1.06557999e-02 4.51717013e-03
      8.96782017e+00 9.57686007e-01 8.36410046e+00 4.89914000e-01</_>
    <_>
      1.24361003e-02 4.96132020e-03 7.38252020e+00 9.68089998e-01
      8.23659992e+00 5.16550004e-01 9.49607044e-03 4.19944013e-03
      9.49174976e+00 9.54321027e-01 8.46780968e+00 4.73955989e-01
      1.17924996e-02 5.42361988e-03 4.97562981e+00 9.77183998e-01
      8.05753994e+00 5.36206007e-01 1.02024004e-02 4.48958017e-03
      9.61736965e+00 9.55712974e-01 8.39651012e+00 4.67330009e-01</_>
    <_>
      1.12762004e-02 5.15453983e-03 7.69437981e+00 9.66753006e-01
      8.19211960e+00 5.19641995e-01 9.85804014e-03 4.25291015e-03
      1.11438999e+01 9.47104990e-01 8.48342991e+00 4.61910009e-01
      1.12811998e-02 5.47262002e-03 4.78888988e+00 9.78344023e-01
      8.03007984e+00 5.39044023e-01 9.92192980e-03 4.29697987e-03
      9.53732967e+00 9.56004024e-01 8.40832043e+00 4.70997989e-01</_>
    <_>
      1.20590003e-02 5.06820995e-03 8.60091972e+00 9.61652994e-01
      8.24738979e+00 5.10297000e-01 9.94340982e-03 4.40252014e-03
      1.07344999e+01 9.46497977e-01 8.45598984e+00 4.74308997e-01
      1.23581998e-02 5.55351004e-03 4.57714987e+00 9.78015006e-01
      8.01887989e+00 5.40400982e-01 1.03193996e-02 4.56578005e-03
      1.02285004e+01 9.51225996e-01 8.38414001e+00 4.79943991e-01</_>
    <_>
      1.10312998e-02 4.90434002e-03 7.99304008e+00 9.64685023e-01
      8.25294018e+00 5.09374022e-01 9.07315966e-03 4.39235009e-03
      1.07312002e+01 9.47049975e-01 8.44330978e+00 4.66205001e-01
      1.16311004e-02 5.14332019e-03 5.75144005e+00 9.74385977e-01
      8.12804985e+00 4.96374011e-01 9.91567969e-03 4.27113986e-03
      1.00340996e+01 9.52212989e-01 8.44244003e+00 4.58503991e-01</_>
    <_>
      1.18458997e-02 5.24405995e-03 7.27124023e+00 9.67913985e-01
      8.15369987e+00 5.29717028e-01 9.64139961e-03 4.36371984e-03
      1.02180004e+01 9.49600995e-01 8.42063046e+00 4.77824003e-01
      1.20361997e-02 5.47112990e-03 4.71976995e+00 9.77554977e-01
      8.01821041e+00 5.34565985e-01 1.01357996e-02 4.64393990e-03
      8.44653988e+00 9.60151017e-01 8.29763985e+00 4.90238011e-01</_>
    <_>
      1.22595998e-02 5.57282008e-03 5.86322021e+00 9.73681986e-01
      8.02976036e+00 5.46423018e-01 9.92505997e-03 4.46779002e-03
      9.01019955e+00 9.52656984e-01 8.36246014e+00 4.90278989e-01
      1.25197005e-02 5.82301989e-03 4.32344007e+00 9.78941977e-01
      7.92381001e+00 5.50514996e-01 1.05967000e-02 4.73992014e-03
      7.29516983e+00 9.64295983e-01 8.23770046e+00 4.86786008e-01</_>
    <_>
      1.09670004e-02 4.91463020e-03 7.57393980e+00 9.67521012e-01
      8.22488022e+00 5.22387981e-01 9.79440007e-03 4.11670981e-03
      1.09414997e+01 9.48669016e-01 8.50539017e+00 4.54324991e-01
      1.14363004e-02 5.27604995e-03 4.73525000e+00 9.78879988e-01
      8.03915977e+00 5.22509992e-01 1.00156004e-02 4.49430989e-03
      8.72873974e+00 9.57090020e-01 8.33049965e+00 4.67680991e-01</_>
    <_>
      1.11881001e-02 5.16761001e-03 7.45357990e+00 9.68271971e-01
      8.18715954e+00 5.34541011e-01 9.90098994e-03 4.28128988e-03
      1.11799002e+01 9.49271023e-01 8.49155998e+00 4.72344995e-01
      1.19118001e-02 5.12919994e-03 5.44088984e+00 9.76207018e-01
      8.11884975e+00 5.26127994e-01 1.01434002e-02 4.37537022e-03
      9.38720989e+00 9.55917001e-01 8.39554977e+00 4.69489008e-01</_>
    <_>
      1.14521002e-02 4.96375002e-03 8.21292973e+00 9.65561986e-01
      8.24448013e+00 5.03112018e-01 9.75964032e-03 4.28646011e-03
      1.14123001e+01 9.47865009e-01 8.49390984e+00 4.62767005e-01
      1.16311004e-02 5.29525988e-03 5.24044991e+00 9.76800978e-01
      8.09455967e+00 5.22255003e-01 9.95856989e-03 4.37630014e-03
      9.55261993e+00 9.57181990e-01 8.40104961e+00 4.74447012e-01</_>
    <_>
      8.51398986e-03 4.37325006e-03 7.31484985e+00 9.66480970e-01
      8.27682018e+00 4.75419015e-01 7.33243022e-03 3.77448997e-03
      9.11367035e+00 9.55335975e-01 8.50562954e+00 4.51106012e-01
      9.33892000e-03 4.75096982e-03 4.75642014e+00 9.77877021e-01
      8.14453030e+00 5.11352003e-01 7.19771022e-03 3.77401011e-03
      9.44935036e+00 9.56345975e-01 8.53174973e+00 4.45169002e-01</_>
    <_>
      8.77497997e-03 4.05251980e-03 9.37329006e+00 9.65553999e-01
      8.45339966e+00 4.87921000e-01 7.16754980e-03 3.52965994e-03
      1.05184002e+01 9.58589017e-01 8.62366009e+00 4.78112996e-01
      1.04243997e-02 5.08179981e-03 3.55902004e+00 9.86160994e-01
      8.01031017e+00 5.53901017e-01 7.54773011e-03 3.66035989e-03
      9.50669956e+00 9.62575018e-01 8.55445004e+00 4.72562999e-01</_>
    <_>
      9.46715008e-03 4.54194006e-03 9.13459969e+00 9.61309016e-01
      8.26881981e+00 5.22653997e-01 8.05594027e-03 4.00310010e-03
      9.91145039e+00 9.56094027e-01 8.39935970e+00 4.72072989e-01
      1.12250000e-02 5.69137000e-03 2.73210001e+00 9.88245010e-01
      7.79209995e+00 5.57093978e-01 8.32214020e-03 4.05887002e-03
      9.58255005e+00 9.56305027e-01 8.39737988e+00 4.86874998e-01</_>
    <_>
      9.02143959e-03 4.35705017e-03 8.39723015e+00 9.67585981e-01
      8.29915047e+00 5.08493006e-01 7.42573990e-03 3.79337999e-03
      9.24207973e+00 9.61404026e-01 8.46033955e+00 4.61618990e-01
      1.02254003e-02 5.40080015e-03 2.89862990e+00 9.88005996e-01
      7.86841011e+00 5.48847973e-01 7.77343987e-03 3.92686017e-03
      8.90721035e+00 9.62119997e-01 8.42236996e+00 4.63120997e-01</_>
    <_>
      8.71795043e-03 4.09086002e-03 8.86260033e+00 9.68663990e-01
      8.41001987e+00 5.06946981e-01 7.13723991e-03 3.47521994e-03
      1.08373003e+01 9.57623005e-01 8.64435005e+00 4.59307998e-01
      9.70279984e-03 4.65497002e-03 4.91534996e+00 9.81384993e-01
      8.19231033e+00 5.33716023e-01 7.29465997e-03 3.61538003e-03
      1.04761000e+01 9.58768010e-01 8.60809040e+00 4.62404996e-01</_>
    <_>
      9.16086975e-03 4.32193000e-03 8.17584991e+00 9.67925012e-01
      8.32283974e+00 5.04351974e-01 7.69835012e-03 3.87001992e-03
      9.18375969e+00 9.60075974e-01 8.47082043e+00 4.66962993e-01
      1.05459001e-02 5.14113996e-03 3.42943001e+00 9.85790014e-01
      7.98281002e+00 5.45401990e-01 7.91522954e-03 3.81459994e-03
      9.31939030e+00 9.60870981e-01 8.49168968e+00 4.59904999e-01</_>
    <_>
      9.71870963e-03 4.28290991e-03 9.81811047e+00 9.60228980e-01
      8.39737034e+00 4.96356010e-01 7.76566006e-03 3.63812991e-03
      1.09663000e+01 9.49483991e-01 8.58891964e+00 4.64011014e-01
      1.07250996e-02 5.11666993e-03 4.80169010e+00 9.79739010e-01
      8.10589981e+00 5.51207006e-01 8.21997970e-03 3.66317993e-03
      1.14218998e+01 9.49356019e-01 8.59556961e+00 4.57872003e-01</_>
    <_>
      9.87224001e-03 4.63300990e-03 1.31475000e+01 9.45438981e-01
      8.34175968e+00 4.99888003e-01 8.35250039e-03 4.06110007e-03
      1.44914999e+01 9.37439024e-01 8.48031044e+00 4.66715008e-01
      1.15507003e-02 6.34628022e-03 2.46930003e+00 9.89021003e-01
      7.62144995e+00 5.85448027e-01 8.60991981e-03 4.30782977e-03
      1.16527996e+01 9.49436009e-01 8.36585045e+00 4.81263012e-01</_>
    <_>
      9.42211039e-03 4.48055984e-03 9.40837002e+00 9.58634973e-01
      8.30739975e+00 4.90583003e-01 8.14800989e-03 3.89079005e-03
      1.12354002e+01 9.46193993e-01 8.50164032e+00 4.55615997e-01
      1.05451997e-02 5.60580008e-03 4.01112986e+00 9.81584013e-01
      7.89321995e+00 5.41867018e-01 8.08189996e-03 4.07872023e-03
      1.01562004e+01 9.50954020e-01 8.43459034e+00 4.61614013e-01</_>
    <_>
      9.76189040e-03 4.73158993e-03 7.96279001e+00 9.67217982e-01
      8.21259022e+00 4.98382986e-01 8.85234028e-03 4.05689981e-03
      9.75308037e+00 9.53155994e-01 8.41958046e+00 4.43742007e-01
      1.10924002e-02 5.59184002e-03 3.78906989e+00 9.82402027e-01
      7.89829016e+00 5.64112008e-01 8.82644020e-03 4.06685006e-03
      9.83670998e+00 9.51488018e-01 8.43153954e+00 4.51952010e-01</_>
    <_>
      9.76189040e-03 4.73158993e-03 7.96279001e+00 9.67217982e-01
      8.21259022e+00 4.98382986e-01 8.85234028e-03 4.05689981e-03
      9.75308037e+00 9.53155994e-01 8.41958046e+00 4.43742007e-01
      1.10924002e-02 5.59184002e-03 3.78906989e+00 9.82402027e-01
      7.89829016e+00 5.64112008e-01 8.82644020e-03 4.06685006e-03
      9.83670998e+00 9.51488018e-01 8.43153954e+00 4.51952010e-01</_>
    <_>
      9.56613012e-03 4.63426998e-03 9.25335026e+00 9.61516023e-01
      8.24606991e+00 4.98212010e-01 8.80428962e-03 4.38342011e-03
      1.03978004e+01 9.53247011e-01 8.33156967e+00 4.61885005e-01
      1.17114997e-02 6.47774991e-03 2.45958996e+00 9.88350987e-01
      7.62035990e+00 5.69775999e-01 8.64289980e-03 4.22111014e-03
      9.44353008e+00 9.57300007e-01 8.35884953e+00 4.74442005e-01</_>
    <_>
      1.00838002e-02 4.70062997e-03 8.35194969e+00 9.62334991e-01
      8.23254013e+00 4.93802011e-01 8.72142985e-03 4.39273007e-03
      9.01844025e+00 9.59206998e-01 8.29327965e+00 4.71383989e-01
      1.06916996e-02 6.35734014e-03 2.46106005e+00 9.88415003e-01
      7.61344004e+00 5.70010006e-01 8.27895012e-03 4.23682993e-03
      8.18196964e+00 9.61425006e-01 8.33003044e+00 4.74182010e-01</_>
    <_>
      9.61683970e-03 4.44171019e-03 1.12502003e+01 9.50857997e-01
      8.37088966e+00 4.79981005e-01 7.99748022e-03 3.79801006e-03
      1.31422005e+01 9.37116981e-01 8.55965996e+00 4.45445001e-01
      1.00031001e-02 5.55283995e-03 3.88491011e+00 9.81396973e-01
      7.88223982e+00 5.36736012e-01 8.29645991e-03 4.02734987e-03
      1.10396004e+01 9.48049009e-01 8.46936035e+00 4.52203006e-01</_>
    <_>
      9.05460957e-03 4.39066999e-03 1.06576996e+01 9.55402970e-01
      8.36406040e+00 4.97996002e-01 8.09189957e-03 3.91598977e-03
      1.29513998e+01 9.42943990e-01 8.52746964e+00 4.63396996e-01
      9.86483973e-03 5.53780980e-03 3.41688991e+00 9.84697998e-01
      7.84403992e+00 5.52863002e-01 8.22898000e-03 3.93649004e-03
      1.07215004e+01 9.52286005e-01 8.48398018e+00 4.55318987e-01</_>
    <_>
      9.34091024e-03 4.30221017e-03 9.77414036e+00 9.59124029e-01
      8.37362003e+00 4.88873988e-01 8.09886027e-03 3.89161007e-03
      1.10564003e+01 9.53050017e-01 8.50656986e+00 4.51187998e-01
      1.07527003e-02 5.59247984e-03 3.71650004e+00 9.83762026e-01
      7.89421988e+00 5.56930006e-01 8.23490974e-03 3.93015984e-03
      1.06402998e+01 9.53563988e-01 8.50469017e+00 4.56970990e-01</_>
    <_>
      1.01744998e-02 4.57129022e-03 1.38964996e+01 9.46600020e-01
      8.36528015e+00 5.02363980e-01 8.68789013e-03 3.98661010e-03
      1.30450001e+01 9.45949972e-01 8.48060989e+00 4.56467986e-01
      1.12076998e-02 5.59978979e-03 3.60100007e+00 9.84844983e-01
      7.88304996e+00 5.61213017e-01 8.86491966e-03 3.87951010e-03
      1.62059994e+01 9.34126973e-01 8.58024025e+00 4.62258011e-01</_>
    <_>
      9.09350999e-03 4.15791012e-03 1.22630997e+01 9.50003028e-01
      8.44023991e+00 5.03462970e-01 8.09118990e-03 3.76404007e-03
      1.36325998e+01 9.40676987e-01 8.57194996e+00 4.48148996e-01
      1.10906996e-02 5.44688990e-03 3.66842008e+00 9.83147025e-01
      7.89857006e+00 5.49287975e-01 8.46584979e-03 3.77045991e-03
      1.30627003e+01 9.42718983e-01 8.56917000e+00 4.54086006e-01</_>
    <_>
      9.40508954e-03 4.51959018e-03 1.04663000e+01 9.53803003e-01
      8.30778980e+00 4.88211006e-01 8.25505983e-03 4.21387004e-03
      1.08949003e+01 9.48891997e-01 8.37590027e+00 4.62460995e-01
      1.11092003e-02 6.04938017e-03 2.83736992e+00 9.85964000e-01
      7.70950985e+00 5.52672982e-01 8.28756019e-03 4.16783011e-03
      1.06990995e+01 9.50357974e-01 8.40841007e+00 4.69027013e-01</_>
    <_>
      9.03462991e-03 4.44633001e-03 9.55862999e+00 9.57206011e-01
      8.32205009e+00 4.89576995e-01 8.13033991e-03 4.03469009e-03
      1.06918001e+01 9.51411009e-01 8.44591045e+00 4.52787012e-01
      1.02139004e-02 5.72898006e-03 3.38808990e+00 9.84209001e-01
      7.80953979e+00 5.44391990e-01 8.33525043e-03 3.97480978e-03
      1.06273003e+01 9.50320005e-01 8.47492981e+00 4.61097002e-01</_>
    <_>
      1.04820002e-02 4.57686000e-03 1.08865004e+01 9.59877014e-01
      8.30904007e+00 4.98302013e-01 8.77808966e-03 4.04513022e-03
      1.06534004e+01 9.56286013e-01 8.43785000e+00 4.67382014e-01
      1.23578003e-02 5.94461989e-03 2.99215007e+00 9.87381995e-01
      7.79757023e+00 5.70599020e-01 9.37500037e-03 4.02372982e-03
      1.21209002e+01 9.51242983e-01 8.49664974e+00 4.67788011e-01</_>
    <_>
      1.04131997e-02 4.79419017e-03 9.32182026e+00 9.65883970e-01
      8.28590965e+00 5.06045997e-01 9.27385036e-03 4.18045977e-03
      9.42010975e+00 9.63505030e-01 8.41907978e+00 4.69576001e-01
      1.20182997e-02 6.06280984e-03 2.71929002e+00 9.88779008e-01
      7.76388979e+00 5.88127017e-01 9.63553041e-03 4.10149014e-03
      1.11405001e+01 9.53302979e-01 8.49715996e+00 4.71561015e-01</_>
    <_>
      1.06114997e-02 4.61173989e-03 1.16365995e+01 9.56022024e-01
      8.29296970e+00 4.99148011e-01 8.83422978e-03 4.16745991e-03
      1.13762999e+01 9.54379976e-01 8.40178013e+00 4.72043991e-01
      1.17004998e-02 6.06019981e-03 2.95090008e+00 9.87743974e-01
      7.77503014e+00 5.83085001e-01 9.22096986e-03 3.97385983e-03
      1.22146997e+01 9.51525986e-01 8.46883965e+00 4.66993988e-01</_>
    <_>
      1.02941003e-02 4.65655001e-03 1.11941996e+01 9.56216991e-01
      8.28347015e+00 4.97088999e-01 9.12928954e-03 4.19386011e-03
      1.18483000e+01 9.51439977e-01 8.40802002e+00 4.76476997e-01
      1.23546999e-02 6.13046018e-03 3.11671996e+00 9.85204995e-01
      7.76302004e+00 5.77968001e-01 9.31527000e-03 4.04804992e-03
      1.20642004e+01 9.48988020e-01 8.45709991e+00 4.64783013e-01</_>
    <_>
      9.92221013e-03 4.61847009e-03 1.19040003e+01 9.54333007e-01
      8.31643009e+00 5.12202978e-01 8.88872985e-03 4.21515014e-03
      1.16506004e+01 9.53589022e-01 8.40291977e+00 4.76451993e-01
      1.24527002e-02 6.10943977e-03 2.99671006e+00 9.86811996e-01
      7.75384998e+00 5.70822001e-01 9.75964032e-03 3.90582997e-03
      1.38646002e+01 9.44723010e-01 8.53608036e+00 4.62071002e-01</_>
    <_>
      1.01587996e-02 4.48335009e-03 1.12327995e+01 9.55286980e-01
      8.34914970e+00 4.98636991e-01 8.86227004e-03 4.00738977e-03
      1.20739002e+01 9.49331999e-01 8.48198032e+00 4.62960005e-01
      1.17795002e-02 5.53956022e-03 3.79997993e+00 9.82979000e-01
      7.90690994e+00 5.57128012e-01 9.58491024e-03 4.03197994e-03
      1.30974998e+01 9.45128024e-01 8.52649021e+00 4.52762008e-01</_>
    <_>
      1.01263998e-02 4.72507020e-03 6.92839003e+00 9.69712973e-01
      8.19764042e+00 5.18105984e-01 9.10263974e-03 4.46616020e-03
      7.49158001e+00 9.65264022e-01 8.26080990e+00 4.69866008e-01
